    0.705802478898785601E+01    0.248632681005265144E+00    0.203695997595787048E+00    0.864457462717597735E+01    0.742708690909465119E+01   -0.145706645841955140E+00   -0.196717071533203125E+02
    0.762083048947280606E+01    0.579167402852782676E+00    0.102997279167175293E+01    0.882032045124739206E+01    0.872937037622522105E+01   -0.202672263372188022E+00   -0.189093265533447266E+02
    0.726230474570609896E+01    0.434360556368690143E+00    0.640362143516540527E+00    0.817180808009928406E+01    0.726071928823507040E+01   -0.552171556401417352E+00   -0.179469795227050781E+02
    0.783892672090569231E+01    0.640839713519487653E+00    0.204625532031059265E+00    0.942451495061393807E+01    0.999748625438817129E+01   -0.341417472183485504E+00   -0.174986534118652344E+02
    0.770102493984506431E+01    0.419102042536096175E+00    0.200048893690109253E+00    0.964623987523333781E+01    0.939415991255400762E+01   -0.268067514793428163E+00   -0.173904380798339844E+02
    0.767271772920703743E+01    0.382454938832166247E+00    0.554418444633483887E+00    0.988858711425868364E+01    0.104253915858677857E+02   -0.902511656399727968E+00   -0.173468322753906250E+02
    0.766695199599098665E+01    0.565239995955224894E+00    0.599198281764984131E+00    0.919682510067838699E+01    0.950593519949862831E+01   -0.801341936188528337E+00   -0.173104972839355469E+02
    0.763718147269937120E+01    0.434804378737721264E+00    0.636390149593353271E+00    0.935263024175677060E+01    0.908750884273612947E+01   -0.131629121537018268E+01   -0.172834663391113281E+02
    0.762404297196986569E+01    0.366373106161358042E+00    0.165768718719482422E+01    0.947899811662509073E+01    0.966362954124439710E+01   -0.127004686790833832E+01   -0.172111263275146484E+02
    0.728993304937918385E+01    0.509020468785835845E+00    0.105456876754760742E+01    0.854797776745184734E+01    0.863402653519571572E+01   -0.499611985854050422E+00   -0.171977615356445312E+02
    0.774549066276879294E+01    0.473040707276852435E+00    0.919421494007110596E+00    0.950163936477058613E+01    0.102743969766036400E+02   -0.134638393518014166E+01   -0.169857769012451172E+02
    0.764152157751723937E+01    0.556554447143697395E+00    0.710596144199371338E+00    0.915588751716617999E+01    0.948791897514808014E+01   -0.828392331503071677E+00   -0.168536243438720703E+02
    0.732606335084075777E+01    0.407389581296484116E+00    0.653688549995422363E+00    0.915866471903319912E+01    0.100271148920451534E+02   -0.448272595297805720E+00   -0.168114471435546875E+02
    0.757384634613224694E+01    0.448205114829766771E+00    0.276997327804565430E+00    0.951943699008595523E+01    0.973733815977413641E+01   -0.799196891673280563E+00   -0.167665424346923828E+02
    0.738493685096146013E+01    0.355574911938465965E+00    0.132291221618652344E+01    0.921496470299847381E+01    0.100122222688303602E+02   -0.128523520106447320E+01   -0.165640964508056641E+02
    0.738358532173973359E+01    0.477387344502389344E+00    0.135033750534057617E+01    0.835923526076552648E+01    0.775143845648450025E+01   -0.114375054711291479E+01   -0.164874114990234375E+02
    0.768320325136574400E+01    0.561840654694008901E+00    0.291025370359420776E+00    0.935616326162635303E+01    0.998801321787897578E+01   -0.262196604649685305E+00   -0.164681053161621094E+02
    0.730327986436560916E+01    0.401477155916833417E+00    0.119132864475250244E+01    0.874616995513148154E+01    0.851650817797170134E+01   -0.274829689481467243E+00   -0.164454917907714844E+02
    0.752571658001932065E+01    0.456470023170059136E+00    0.193384259939193726E+00    0.934626580923199057E+01    0.965570245844274666E+01   -0.521318011883615817E-01   -0.164240856170654297E+02
    0.770430026951240521E+01    0.436192172299366021E+00    0.210591125488281250E+01    0.907192234067453285E+01    0.912977088924110980E+01   -0.151667790602718178E+01   -0.164002780914306641E+02
    0.756339333625680244E+01    0.432560638142723386E+00    0.100873601436614990E+01    0.935755039303846203E+01    0.103963130398932861E+02   -0.764809383473538107E+00   -0.162727394104003906E+02
    0.734629887206976040E+01    0.497365043902910475E+00    0.114868021011352539E+01    0.818560336043633718E+01    0.755410610006432037E+01   -0.212636438055182841E+00   -0.162685012817382812E+02
    0.766546901706324846E+01    0.462914575959221974E+00    0.104632042348384857E+00    0.961193736676753296E+01    0.101392691495743250E+02   -0.231583240085411202E+00   -0.162182598114013672E+02
    0.728783848788999311E+01    0.401649627171036749E+00    0.473894476890563965E+00    0.881510637223665405E+01    0.835476177791738372E+01   -0.247512133075947993E+00   -0.161557960510253906E+02
    0.712184747330591517E+01    0.215102498538148612E+00    0.294058263301849365E+00    0.899802956094212369E+01    0.800783395997075509E+01    0.163037373326655022E+00   -0.161538543701171875E+02
    0.772659199343870640E+01    0.352728427040079617E+00    0.941485702991485596E+00    0.987173361569802488E+01    0.101633074920797437E+02   -0.146776570426178798E+01   -0.161232604980468750E+02
    0.709787269404186549E+01    0.309406517090486333E+00    0.839994013309478760E+00    0.864684833609779524E+01    0.807673074372053890E+01    0.105821402011352816E+00   -0.158780422210693359E+02
    0.719531020436080393E+01    0.353106679266364576E+00    0.106893658638000488E+01    0.825675389566112017E+01    0.704488365904649516E+01   -0.379449827580155219E+00   -0.158342533111572266E+02
    0.717371514812617317E+01    0.384686849357888605E+00    0.124177742004394531E+01    0.842001235486568156E+01    0.785488687182828293E+01   -0.103493998423320810E+01   -0.157441520690917969E+02
    0.734388021302003580E+01    0.324589561399902693E+00    0.766320168972015381E+00    0.854979438750661203E+01    0.720791113244597881E+01   -0.220468465398003355E+00   -0.157401638031005859E+02
    0.747211597923197957E+01    0.535035274111057335E+00    0.976232290267944336E+00    0.824897948488961852E+01    0.751096345481440064E+01   -0.110707422863822291E+00   -0.157368965148925781E+02
    0.711953474302452882E+01    0.255621944592449579E+00    0.185082292556762695E+01    0.907500962022046664E+01    0.905805560545811694E+01   -0.108216040497142796E+01   -0.157126884460449219E+02
    0.764573335338427551E+01    0.418868780601359847E+00    0.102770960330963135E+01    0.949118358225585723E+01    0.974152681777359852E+01   -0.111881908683264841E+01   -0.156872911453247070E+02
    0.767308856786412985E+01    0.301851053426253901E+00    0.959002912044525146E+00    0.994569864092137124E+01    0.100835741629243341E+02   -0.192664262898954974E+01   -0.156538009643554688E+02
    0.737594984255323105E+01    0.313234751842632275E+00    0.120473456382751465E+01    0.945077442454200778E+01    0.977374561831796029E+01   -0.925573802623576469E+00   -0.156300954818725586E+02
    0.737594984255323105E+01    0.313234751842632275E+00    0.120473456382751465E+01    0.945077442454200778E+01    0.977374561831796029E+01   -0.925573802623576469E+00   -0.156300954818725586E+02
    0.742001917723445015E+01    0.369594158753636437E+00    0.134642076492309570E+01    0.921488470461988918E+01    0.991146205797894808E+01   -0.114851739574522016E+01   -0.156122121810913086E+02
    0.760719843409593111E+01    0.522104150707659254E+00    0.566452980041503906E+00    0.922405548862847269E+01    0.104429854072246808E+02   -0.136806177994012401E+00   -0.155364837646484375E+02
    0.728746099470253483E+01    0.484290686228016409E+00    0.692487716674804688E+00    0.832114414471166164E+01    0.767578862630418790E+01   -0.704937896091450744E+00   -0.154767627716064453E+02
    0.728746099470253483E+01    0.484290686228016409E+00    0.692487716674804688E+00    0.832114414471166164E+01    0.767578862630418790E+01   -0.704937896091450744E+00   -0.154767627716064453E+02
    0.747667134046077120E+01    0.411057705011945718E+00    0.148735499382019043E+01    0.889720143612743186E+01    0.853894164426093205E+01   -0.631813909313397870E+00   -0.154624834060668945E+02
    0.747667134046077120E+01    0.411057705011945718E+00    0.148735499382019043E+01    0.889720143612743186E+01    0.853894164426093205E+01   -0.631813909313397870E+00   -0.154624834060668945E+02
    0.764838652437117883E+01    0.521354013602442379E+00    0.135379686951637268E+00    0.930558824122828732E+01    0.912252393065529610E+01   -0.349852374342637162E+00   -0.154008312225341797E+02
    0.764838652437117883E+01    0.521354013602442379E+00    0.135379686951637268E+00    0.930558824122828732E+01    0.912252393065529610E+01   -0.349852374342637162E+00   -0.154008312225341797E+02
    0.760395789271666978E+01    0.349680449262975035E+00    0.402280807495117188E+00    0.993278419721462313E+01    0.104316607435854731E+02   -0.628017092411912170E+00   -0.153791942596435547E+02
    0.760395789271666978E+01    0.349680449262975035E+00    0.402280807495117188E+00    0.993278419721462313E+01    0.104316607435854731E+02   -0.628017092411912170E+00   -0.153791942596435547E+02
    0.741363375287665338E+01    0.397741917985729831E+00    0.154979479312896729E+01    0.907059716809801664E+01    0.982730934778598098E+01   -0.879226682014497163E+00   -0.152855873107910156E+02
    0.741363375287665338E+01    0.397741917985729831E+00    0.154979479312896729E+01    0.907059716809801664E+01    0.982730934778598098E+01   -0.879226682014497163E+00   -0.152855873107910156E+02
    0.730730512905443952E+01    0.307416798264696978E+00    0.100846028327941895E+01    0.865389329252822037E+01    0.757416852142823238E+01   -0.444616676452366910E+00   -0.152753019332885742E+02
    0.746134543804914241E+01    0.437909664037032020E+00    0.441908717155456543E+00    0.930460542239040400E+01    0.948522120242695621E+01   -0.342170088520322713E+00   -0.152746334075927734E+02
    0.746134543804914241E+01    0.437909664037032020E+00    0.441908717155456543E+00    0.930460542239040400E+01    0.948522120242695621E+01   -0.342170088520322713E+00   -0.152746334075927734E+02
    0.707322940853671067E+01    0.277759813920129994E+00    0.146178078651428223E+01    0.913968691068862960E+01    0.100345675009492190E+02   -0.858942910589209907E+00   -0.152477531433105469E+02
    0.707322940853671067E+01    0.277759813920129994E+00    0.146178078651428223E+01    0.913968691068862960E+01    0.100345675009492190E+02   -0.858942910589209907E+00   -0.152477531433105469E+02
    0.783365083296902931E+01    0.422869460424897758E+00    0.119750285148620605E+01    0.958479005843121179E+01    0.973228106958632821E+01   -0.191791889565008233E+01   -0.152384185791015625E+02
    0.783365083296902931E+01    0.422869460424897758E+00    0.119750285148620605E+01    0.958479005843121179E+01    0.973228106958632821E+01   -0.191791889565008233E+01   -0.152384185791015625E+02
    0.750253856920268536E+01    0.516112898740177961E+00    0.558024048805236816E+00    0.816700643783699576E+01    0.713900860963756489E+01    0.121164707547379624E+00   -0.152145271301269531E+02
    0.752968489202524704E+01    0.512650594124089976E+00    0.118868327140808105E+01    0.827823890250545524E+01    0.740785492886259789E+01   -0.561447156146005488E+00   -0.152131786346435547E+02
    0.741554110730305460E+01    0.304564273642283889E+00    0.447225034236907959E+00    0.968034545097255616E+01    0.947475102093014776E+01   -0.716053945623198240E+00   -0.151806068420410156E+02
    0.752879851925547250E+01    0.386431541843863580E+00    0.755485773086547852E+00    0.953277405986474946E+01    0.101839111284651977E+02   -0.632208151779851901E+00   -0.151754341125488281E+02
    0.780489552207315374E+01    0.560206715475051409E+00    0.223083049058914185E+00    0.955077085327125275E+01    0.991030094397043904E+01   -0.430636256091741165E+00   -0.151559247970581055E+02
    0.735942871494772266E+01    0.399130677466296158E+00    0.554313957691192627E+00    0.904039082401934735E+01    0.895011246223518420E+01    0.101335494584946062E+00   -0.151483297348022461E+02
    0.771127399372144140E+01    0.516856699448396739E+00    0.311838001012802124E+00    0.952557972325119984E+01    0.103938268653105794E+02   -0.510129772864205799E+00   -0.151337776184082031E+02
    0.771127399372144140E+01    0.516856699448396739E+00    0.311838001012802124E+00    0.952557972325119984E+01    0.103938268653105794E+02   -0.510129772864205799E+00   -0.151337776184082031E+02
    0.759390675600991827E+01    0.515471123025818767E+00    0.681082844734191895E+00    0.907682285976017234E+01    0.890218219986450165E+01   -0.477182315654722133E+00   -0.150851364135742188E+02
    0.759390675600991827E+01    0.515471123025818767E+00    0.681082844734191895E+00    0.907682285976017234E+01    0.890218219986450165E+01   -0.477182315654722133E+00   -0.150851364135742188E+02
    0.719319828743532508E+01    0.308328468763191588E+00    0.165800726413726807E+01    0.893536438761869789E+01    0.870457003271102714E+01   -0.759607626917120138E+00   -0.150802087783813477E+02
    0.702297231089436558E+01    0.386181154008568617E+00    0.121663415431976318E+01    0.802269551086327404E+01    0.734442577534165775E+01   -0.224998312516164090E+00   -0.150766887664794922E+02
    0.702297231089436558E+01    0.386181154008568617E+00    0.121663415431976318E+01    0.802269551086327404E+01    0.734442577534165775E+01   -0.224998312516164090E+00   -0.150766887664794922E+02
    0.758672373668249644E+01    0.490280559153861373E+00    0.250205963850021362E+00    0.942405550501975497E+01    0.102281069743274102E+02   -0.389681223357823514E+00   -0.150692367553710938E+02
    0.758672373668249644E+01    0.490280559153861373E+00    0.250205963850021362E+00    0.942405550501975497E+01    0.102281069743274102E+02   -0.389681223357823514E+00   -0.150692367553710938E+02
    0.772971285755098325E+01    0.356171347961431295E+00    0.104093194007873535E+01    0.985164367472848923E+01    0.102721609260591134E+02   -0.158269464080279953E+01   -0.150117692947387695E+02
    0.701842731327850178E+01    0.306327189123522914E+00    0.146271944046020508E+01    0.819577027317662754E+01    0.734734261255798415E+01   -0.213498096854953134E+00   -0.149669761657714844E+02
    0.737720980781901581E+01    0.318108585213145112E+00    0.389300316572189331E+00    0.872617247081482184E+01    0.744088098860989611E+01   -0.583323668397701667E-01   -0.149655685424804688E+02
    0.741859989786286800E+01    0.403607311623489950E+00    0.371608644723892212E+00    0.921474118686828270E+01    0.908051322596726962E+01   -0.202426090827402483E+00   -0.149354543685913086E+02
    0.741859989786286800E+01    0.403607311623489950E+00    0.371608644723892212E+00    0.921474118686828270E+01    0.908051322596726962E+01   -0.202426090827402483E+00   -0.149354543685913086E+02
    0.777876248040751328E+01    0.372852903975729899E+00    0.888201713562011719E+00    0.969185316325367552E+01    0.951508544815108515E+01   -0.191616046753265845E+01   -0.149221611022949219E+02
    0.749246541866077820E+01    0.509739309342660651E+00    0.234061777591705322E+00    0.833751456803267565E+01    0.720726647044815927E+01   -0.440323472569832175E+00   -0.148772821426391602E+02
    0.759626391646321242E+01    0.426561997699314743E+00    0.326590240001678467E+00    0.956116284801797001E+01    0.966929086453326647E+01   -0.259639944444878035E+00   -0.148657207489013672E+02
    0.742595730924352626E+01    0.406424801665064506E+00    0.110023784637451172E+01    0.830297988454036684E+01    0.713020013089993476E+01   -0.628204507273126822E-01   -0.148581676483154297E+02
    0.703818839272415353E+01    0.284979279428024312E+00    0.142213237285614014E+01    0.887099632112226821E+01    0.882419423071156928E+01   -0.215450374093132391E+00   -0.147998428344726562E+02
    0.703818839272415353E+01    0.284979279428024312E+00    0.142213237285614014E+01    0.887099632112226821E+01    0.882419423071156928E+01   -0.215450374093132391E+00   -0.147998428344726562E+02
    0.757251123563376893E+01    0.457615574515942147E+00    0.332756757736206055E+00    0.846104376624260013E+01    0.708993900417264378E+01    0.625370247844259097E-03   -0.147917013168334961E+02
    0.757251123563376893E+01    0.457615574515942147E+00    0.332756757736206055E+00    0.846104376624260013E+01    0.708993900417264378E+01    0.625370247844259097E-03   -0.147917013168334961E+02
    0.734733410054640323E+01    0.409930871129903451E+00    0.773491024971008301E+00    0.872191984289172062E+01    0.814882070250255275E+01   -0.428637998192386238E+00   -0.147821865081787109E+02
    0.734733410054640323E+01    0.409930871129903451E+00    0.773491024971008301E+00    0.872191984289172062E+01    0.814882070250255275E+01   -0.428637998192386238E+00   -0.147821865081787109E+02
    0.747819541991827741E+01    0.409960735747458949E+00    0.502035498619079590E+00    0.866195263704213403E+01    0.775801809597415382E+01   -0.364340942837889648E+00   -0.147720880508422852E+02
    0.724954501611467084E+01    0.421298717541507495E+00    0.102744340896606445E+01    0.866746260706735683E+01    0.835270001548440000E+01   -0.687633656538903182E+00   -0.147580032348632812E+02
    0.724954501611467084E+01    0.421298717541507495E+00    0.102744340896606445E+01    0.866746260706735683E+01    0.835270001548440000E+01   -0.687633656538903182E+00   -0.147580032348632812E+02
    0.771801914042182791E+01    0.532965960160401875E+00    0.348296374082565308E+00    0.929959007087388478E+01    0.920276005105716699E+01   -0.157869866717618379E+00   -0.147515382766723633E+02
    0.771801914042182791E+01    0.532965960160401875E+00    0.348296374082565308E+00    0.929959007087388478E+01    0.920276005105716699E+01   -0.157869866717618379E+00   -0.147515382766723633E+02
    0.769303451404830163E+01    0.438201407365790496E+00    0.478740334510803223E+00    0.969440941941550705E+01    0.104540018113565480E+02   -0.385121053481092934E+00   -0.146975479125976562E+02
    0.742906791556723256E+01    0.434953902248689572E+00    0.920475721359252930E+00    0.871833403396749596E+01    0.813819223226556154E+01   -0.467697475715658451E+00   -0.146806907653808594E+02
    0.742906791556723256E+01    0.434953902248689572E+00    0.920475721359252930E+00    0.871833403396749596E+01    0.813819223226556154E+01   -0.467697475715658451E+00   -0.146806907653808594E+02
    0.775817838866006326E+01    0.383725356721874966E+00    0.144967699050903320E+01    0.961482351117903455E+01    0.100241211101447227E+02   -0.177276706818676244E+01   -0.146438989639282227E+02
    0.739090536884709959E+01    0.322262737001590305E+00    0.118987727165222168E+01    0.945724795502292537E+01    0.100405877749947514E+02   -0.119024962558632708E+01   -0.146115007400512695E+02
    0.739090536884709959E+01    0.322262737001590305E+00    0.118987727165222168E+01    0.945724795502292537E+01    0.100405877749947514E+02   -0.119024962558632708E+01   -0.146115007400512695E+02
    0.717582950875027237E+01    0.312599156334933848E+00    0.720357596874237061E+00    0.911104930313124051E+01    0.888901411716557632E+01   -0.312909013476345699E+00   -0.146083240509033203E+02
    0.717582950875027237E+01    0.312599156334933848E+00    0.720357596874237061E+00    0.911104930313124051E+01    0.888901411716557632E+01   -0.312909013476345699E+00   -0.146083240509033203E+02
    0.732232204370938078E+01    0.386161737178397302E+00    0.131114530563354492E+01    0.896814649609116721E+01    0.924341690502674851E+01   -0.256174423976772703E+00   -0.145884561538696289E+02
    0.732232204370938078E+01    0.386161737178397302E+00    0.131114530563354492E+01    0.896814649609116721E+01    0.924341690502674851E+01   -0.256174423976772703E+00   -0.145884561538696289E+02
    0.734897476462378130E+01    0.459571644559769066E+00    0.597382009029388428E+00    0.830057863593528822E+01    0.740809398528386787E+01   -0.446103500758824323E+00   -0.145817518234252930E+02
    0.779416081328946575E+01    0.360552793823324447E+00    0.110650014877319336E+01    0.978953484880899083E+01    0.988596097496877846E+01   -0.194189857690579437E+01   -0.145645484924316406E+02
    0.779416081328946575E+01    0.360552793823324447E+00    0.110650014877319336E+01    0.978953484880899083E+01    0.988596097496877846E+01   -0.194189857690579437E+01   -0.145645484924316406E+02
    0.731053264758221122E+01    0.406303646725111156E+00    0.687382161617279053E+00    0.834696447090817450E+01    0.732049528454053355E+01   -0.966089083075640565E+00   -0.145132703781127930E+02
    0.731053264758221122E+01    0.406303646725111156E+00    0.687382161617279053E+00    0.834696447090817450E+01    0.732049528454053355E+01   -0.966089083075640565E+00   -0.145132703781127930E+02
    0.759605571184375705E+01    0.461392170646508781E+00    0.138172641396522522E+00    0.945021103048015121E+01    0.964757448350823132E+01   -0.736916677685788279E-01   -0.144626560211181641E+02
    0.759605571184375705E+01    0.461392170646508781E+00    0.138172641396522522E+00    0.945021103048015121E+01    0.964757448350823132E+01   -0.736916677685788279E-01   -0.144626560211181641E+02
    0.725076687006249720E+01    0.254976799242222052E+00    0.986580193042755127E+00    0.959690550020915012E+01    0.964748469236469752E+01   -0.554547258952281741E+00   -0.144000663757324219E+02
    0.725076687006249720E+01    0.254976799242222052E+00    0.986580193042755127E+00    0.959690550020915012E+01    0.964748469236469752E+01   -0.554547258952281741E+00   -0.144000663757324219E+02
    0.722816857529331802E+01    0.323492692305531793E+00    0.127237093448638916E+01    0.834028850065814886E+01    0.732297989264283000E+01   -0.989699369423662212E-01   -0.143163070678710938E+02
    0.727600560816710917E+01    0.389290472310500901E+00    0.175417685508728027E+01    0.862836540527005269E+01    0.835107414216343713E+01   -0.739202026577765015E+00   -0.143115825653076172E+02
    0.727600560816710917E+01    0.389290472310500901E+00    0.175417685508728027E+01    0.862836540527005269E+01    0.835107414216343713E+01   -0.739202026577765015E+00   -0.143115825653076172E+02
    0.751741604636505123E+01    0.487053488288110459E+00    0.331793159246444702E+00    0.876710679564790496E+01    0.815398875068432183E+01   -0.340697186749894465E+00   -0.142895393371582031E+02
    0.751741604636505123E+01    0.487053488288110459E+00    0.331793159246444702E+00    0.876710679564790496E+01    0.815398875068432183E+01   -0.340697186749894465E+00   -0.142895393371582031E+02
    0.742706334606220242E+01    0.380061634037352380E+00    0.337820768356323242E+00    0.945837097781561553E+01    0.101001365290260594E+02   -0.100882942696421285E+00   -0.142748422622680664E+02
    0.742706334606220242E+01    0.380061634037352380E+00    0.337820768356323242E+00    0.945837097781561553E+01    0.101001365290260594E+02   -0.100882942696421285E+00   -0.142748422622680664E+02
    0.750665534438761028E+01    0.325563513087464451E+00    0.100710046291351318E+01    0.968158048665303461E+01    0.100609561750889185E+02   -0.123774155291186738E+01   -0.142673854827880859E+02
    0.750665534438761028E+01    0.325563513087464451E+00    0.100710046291351318E+01    0.968158048665303461E+01    0.100609561750889185E+02   -0.123774155291186738E+01   -0.142673854827880859E+02
    0.749126705855619601E+01    0.375270134187963622E+00    0.396280139684677124E+00    0.936664170099798099E+01    0.907732738512154924E+01   -0.270545767025564654E+00   -0.142338905334472656E+02
    0.724468203053289717E+01    0.304728385728211759E+00    0.988434553146362305E+00    0.936583512131911533E+01    0.964069675595398401E+01   -0.350336073368220369E+00   -0.142190055847167969E+02
    0.724468203053289717E+01    0.304728385728211759E+00    0.988434553146362305E+00    0.936583512131911533E+01    0.964069675595398401E+01   -0.350336073368220369E+00   -0.142190055847167969E+02
    0.729860433758818861E+01    0.312289941422689232E+00    0.972854375839233398E+00    0.884334679279407254E+01    0.820062557627397126E+01   -0.113411701181784785E-01   -0.141999864578247070E+02
    0.729860433758818861E+01    0.312289941422689232E+00    0.972854375839233398E+00    0.884334679279407254E+01    0.820062557627397126E+01   -0.113411701181784785E-01   -0.141999864578247070E+02
    0.736097919570819492E+01    0.407494607183582880E+00    0.969283580780029297E+00    0.897265248886022526E+01    0.896612058452538285E+01   -0.192955506297261881E+00   -0.141861991882324219E+02
    0.736097919570819492E+01    0.407494607183582880E+00    0.969283580780029297E+00    0.897265248886022526E+01    0.896612058452538285E+01   -0.192955506297261881E+00   -0.141861991882324219E+02
    0.760571624311017569E+01    0.452689089163605063E+00    0.265448361635208130E+00    0.931318905487450088E+01    0.900373322603936188E+01   -0.391373267582597384E+00   -0.141786098480224609E+02
    0.760571624311017569E+01    0.452689089163605063E+00    0.265448361635208130E+00    0.931318905487450088E+01    0.900373322603936188E+01   -0.391373267582597384E+00   -0.141786098480224609E+02
    0.720157740183332518E+01    0.429763612090963476E+00    0.127850222587585449E+01    0.811134069316391404E+01    0.746366551947889079E+01    0.192630415288728152E-01   -0.141750354766845703E+02
    0.730622839399169077E+01    0.462144069475939445E+00    0.997855186462402344E+00    0.874730601661245011E+01    0.873289969381790954E+01   -0.613043660005887947E+00   -0.141626834869384766E+02
    0.730622839399169077E+01    0.462144069475939445E+00    0.997855186462402344E+00    0.874730601661245011E+01    0.873289969381790954E+01   -0.613043660005887947E+00   -0.141626834869384766E+02
    0.710039972637204464E+01    0.389023435964339193E+00    0.161632001399993896E+01    0.811814564593161769E+01    0.751215440258754441E+01   -0.313342291679757690E+00   -0.141277656555175781E+02
    0.710039972637204464E+01    0.389023435964339193E+00    0.161632001399993896E+01    0.811814564593161769E+01    0.751215440258754441E+01   -0.313342291679757690E+00   -0.141277656555175781E+02
    0.771887046807097033E+01    0.504465233078073338E+00    0.125806301832199097E+00    0.956063414892018493E+01    0.973557465060197380E+01   -0.415171754698419715E+00   -0.141261634826660156E+02
    0.742981953942707563E+01    0.301015812217402923E+00    0.110273802280426025E+01    0.965230035076646686E+01    0.998407138738520672E+01   -0.110543520376761650E+01   -0.141077308654785156E+02
    0.742981953942707563E+01    0.301015812217402923E+00    0.110273802280426025E+01    0.965230035076646686E+01    0.998407138738520672E+01   -0.110543520376761650E+01   -0.141077308654785156E+02
    0.733608901188778173E+01    0.343582111245095412E+00    0.130925750732421875E+01    0.904194298371667671E+01    0.874234532479336757E+01   -0.934180609969059050E+00   -0.140570745468139648E+02
    0.733608901188778173E+01    0.343582111245095412E+00    0.130925750732421875E+01    0.904194298371667671E+01    0.874234532479336757E+01   -0.934180609969059050E+00   -0.140570745468139648E+02
    0.725292741542546970E+01    0.307394326040732635E+00    0.125713956356048584E+01    0.935223513113135141E+01    0.103955378956478057E+02   -0.833360098404041016E+00   -0.140188846588134766E+02
    0.725292741542546970E+01    0.307394326040732635E+00    0.125713956356048584E+01    0.935223513113135141E+01    0.103955378956478057E+02   -0.833360098404041016E+00   -0.140188846588134766E+02
    0.706642524807307293E+01    0.347094583251823241E+00    0.139151287078857422E+01    0.809189439006638978E+01    0.729226639403926136E+01   -0.178444641345305133E+00   -0.139889049530029297E+02
    0.706642524807307293E+01    0.347094583251823241E+00    0.139151287078857422E+01    0.809189439006638978E+01    0.729226639403926136E+01   -0.178444641345305133E+00   -0.139889049530029297E+02
    0.729790338268949057E+01    0.349323968652615169E+00    0.100620603561401367E+01    0.913964331170263655E+01    0.903578783251128570E+01   -0.595436088315332457E+00   -0.139510393142700195E+02
    0.729790338268949057E+01    0.349323968652615169E+00    0.100620603561401367E+01    0.913964331170263655E+01    0.903578783251128570E+01   -0.595436088315332457E+00   -0.139510393142700195E+02
    0.735432563872569300E+01    0.426882092944834313E+00    0.925796568393707275E+00    0.813941310509522786E+01    0.703523360821261434E+01    0.614492327596156684E-01   -0.139233551025390625E+02
    0.735432563872569300E+01    0.426882092944834313E+00    0.925796568393707275E+00    0.813941310509522786E+01    0.703523360821261434E+01    0.614492327596156684E-01   -0.139233551025390625E+02
    0.719968890657886362E+01    0.292366392298964162E+00    0.130464661121368408E+01    0.921134987595044308E+01    0.941645313842657217E+01   -0.295679727352425203E+00   -0.138704528808593750E+02
    0.719968890657886362E+01    0.292366392298964162E+00    0.130464661121368408E+01    0.921134987595044308E+01    0.941645313842657217E+01   -0.295679727352425203E+00   -0.138704528808593750E+02
    0.737840419976712525E+01    0.458592797078707259E+00    0.101759076118469238E+01    0.823610630099379648E+01    0.741743775353591950E+01   -0.322508137085552482E+00   -0.138625831604003906E+02
    0.737840419976712525E+01    0.458592797078707259E+00    0.101759076118469238E+01    0.823610630099379648E+01    0.741743775353591950E+01   -0.322508137085552482E+00   -0.138625831604003906E+02
    0.761578027813854419E+01    0.465772838442464643E+00    0.148853361606597900E+00    0.949417776085109644E+01    0.968688490050969797E+01   -0.270695392560376336E+00   -0.137759742736816406E+02
    0.761578027813854419E+01    0.465772838442464643E+00    0.148853361606597900E+00    0.949417776085109644E+01    0.968688490050969797E+01   -0.270695392560376336E+00   -0.137759742736816406E+02
    0.749622409421618929E+01    0.404669659532241432E+00    0.110910546779632568E+01    0.910771131976350645E+01    0.882733413975305581E+01   -0.865993309917006071E+00   -0.137678318023681641E+02
    0.749622409421618929E+01    0.404669659532241432E+00    0.110910546779632568E+01    0.910771131976350645E+01    0.882733413975305581E+01   -0.865993309917006071E+00   -0.137678318023681641E+02
    0.735661352802128921E+01    0.373614476261898587E+00    0.143211340904235840E+01    0.875176841623343904E+01    0.826836085021002631E+01   -0.947937145111711565E+00   -0.137625627517700195E+02
    0.735661352802128921E+01    0.373614476261898587E+00    0.143211340904235840E+01    0.875176841623343904E+01    0.826836085021002631E+01   -0.947937145111711565E+00   -0.137625627517700195E+02
    0.759318713954121005E+01    0.385125801708203930E+00    0.498006373643875122E+00    0.967819420910437245E+01    0.997118671008452750E+01   -0.420385773997653756E+00   -0.137329092025756836E+02
    0.759318713954121005E+01    0.385125801708203930E+00    0.498006373643875122E+00    0.967819420910437245E+01    0.997118671008452750E+01   -0.420385773997653756E+00   -0.137329092025756836E+02
    0.739654118431629293E+01    0.428279401399732584E+00    0.894885480403900146E+00    0.836635753962556628E+01    0.733674200012492239E+01   -0.101354084084298268E+01   -0.137299156188964844E+02
    0.739654118431629293E+01    0.428279401399732584E+00    0.894885480403900146E+00    0.836635753962556628E+01    0.733674200012492239E+01   -0.101354084084298268E+01   -0.137299156188964844E+02
    0.759656406579472865E+01    0.401821925127832047E+00    0.177651584148406982E+00    0.967486551059005961E+01    0.964435181272385478E+01   -0.445294491913609480E+00   -0.137147359848022461E+02
    0.759656406579472865E+01    0.401821925127832047E+00    0.177651584148406982E+00    0.967486551059005961E+01    0.964435181272385478E+01   -0.445294491913609480E+00   -0.137147359848022461E+02
    0.700039607518680818E+01    0.306226654107054186E+00    0.118778884410858154E+01    0.820137663707937392E+01    0.734032789890422865E+01   -0.219030033489691300E+00   -0.136749782562255859E+02
    0.700039607518680818E+01    0.306226654107054186E+00    0.118778884410858154E+01    0.820137663707937392E+01    0.734032789890422865E+01   -0.219030033489691300E+00   -0.136749782562255859E+02
    0.731879173453038145E+01    0.294174777498225182E+00    0.575737297534942627E+00    0.963445988161612377E+01    0.102617791637891340E+02   -0.212904137307937447E+00   -0.136577796936035156E+02
    0.731879173453038145E+01    0.294174777498225182E+00    0.575737297534942627E+00    0.963445988161612377E+01    0.102617791637891340E+02   -0.212904137307937447E+00   -0.136577796936035156E+02
    0.743281908765057153E+01    0.364989118907035393E+00    0.123007738590240479E+01    0.925644321691397920E+01    0.926605568968627580E+01   -0.690278359292508803E+00   -0.136256389617919922E+02
    0.743281908765057153E+01    0.364989118907035393E+00    0.123007738590240479E+01    0.925644321691397920E+01    0.926605568968627580E+01   -0.690278359292508803E+00   -0.136256389617919922E+02
    0.742545750127980764E+01    0.317256919076579769E+00    0.894142627716064453E+00    0.949635173929077148E+01    0.929873572990304531E+01   -0.801047686081655774E+00   -0.136144285202026367E+02
    0.742545750127980764E+01    0.317256919076579769E+00    0.894142627716064453E+00    0.949635173929077148E+01    0.929873572990304531E+01   -0.801047686081655774E+00   -0.136144285202026367E+02
    0.707833982654125471E+01    0.300854020405966149E+00    0.163010883331298828E+01    0.852220174731814950E+01    0.793670099122830486E+01   -0.964048986039206968E+00   -0.136099233627319336E+02
    0.707833982654125471E+01    0.300854020405966149E+00    0.163010883331298828E+01    0.852220174731814950E+01    0.793670099122830486E+01   -0.964048986039206968E+00   -0.136099233627319336E+02
    0.715613410798139338E+01    0.408984508398167523E+00    0.132344710826873779E+01    0.806813064593027640E+01    0.732920165743272989E+01   -0.396136119330606329E+00   -0.136051044464111328E+02
    0.715613410798139338E+01    0.408984508398167523E+00    0.132344710826873779E+01    0.806813064593027640E+01    0.732920165743272989E+01   -0.396136119330606329E+00   -0.136051044464111328E+02
    0.749757395827268880E+01    0.374884342630114276E+00    0.312634319067001343E+00    0.963105810125597372E+01    0.997780241571713411E+01   -0.591515082550189364E+00   -0.135830554962158203E+02
    0.749757395827268880E+01    0.374884342630114276E+00    0.312634319067001343E+00    0.963105810125597372E+01    0.997780241571713411E+01   -0.591515082550189364E+00   -0.135830554962158203E+02
    0.727974810430368002E+01    0.296074870641232279E+00    0.114265143871307373E+01    0.926181391932070142E+01    0.903873439473369444E+01   -0.803842871454110597E+00   -0.135791196823120117E+02
    0.731319548374845141E+01    0.356281772235413463E+00    0.766495168209075928E+00    0.934051989841853825E+01    0.104926203298908263E+02   -0.322302428297693400E+00   -0.135591220855712891E+02
    0.733349631286692638E+01    0.361975006932874321E+00    0.102508306503295898E+01    0.917919459646948255E+01    0.936453127114207184E+01   -0.735636287624520380E+00   -0.135521602630615234E+02
    0.733349631286692638E+01    0.361975006932874321E+00    0.102508306503295898E+01    0.917919459646948255E+01    0.936453127114207184E+01   -0.735636287624520380E+00   -0.135521602630615234E+02
    0.755247792260442363E+01    0.405992837643421034E+00    0.257292717695236206E+00    0.947806709086790633E+01    0.923368683598105022E+01   -0.403396736845137882E+00   -0.135079212188720703E+02
    0.755247792260442363E+01    0.405992837643421034E+00    0.257292717695236206E+00    0.947806709086790633E+01    0.923368683598105022E+01   -0.403396736845137882E+00   -0.135079212188720703E+02
    0.716467061226185020E+01    0.389233249310133589E+00    0.104187119007110596E+01    0.869968250184025038E+01    0.855297294727061086E+01   -0.529961599180695853E+00   -0.134716691970825195E+02
    0.716467061226185020E+01    0.389233249310133589E+00    0.104187119007110596E+01    0.869968250184025038E+01    0.855297294727061086E+01   -0.529961599180695853E+00   -0.134716691970825195E+02
    0.725874943782028836E+01    0.341452754266981184E+00    0.118919408321380615E+01    0.912840431301784960E+01    0.953158179298744024E+01   -0.407304302883430891E+00   -0.134314422607421875E+02
    0.725874943782028836E+01    0.341452754266981184E+00    0.118919408321380615E+01    0.912840431301784960E+01    0.953158179298744024E+01   -0.407304302883430891E+00   -0.134314422607421875E+02
    0.736458068602672178E+01    0.296009439753457393E+00    0.913705050945281982E+00    0.953242293922156314E+01    0.940629547532814314E+01   -0.695744847072736095E+00   -0.134078521728515625E+02
    0.736458068602672178E+01    0.296009439753457393E+00    0.913705050945281982E+00    0.953242293922156314E+01    0.940629547532814314E+01   -0.695744847072736095E+00   -0.134078521728515625E+02
    0.707617295077344632E+01    0.302522224954444807E+00    0.148331844806671143E+01    0.869715015958921889E+01    0.828652859744379455E+01   -0.717095345997045719E+00   -0.134046115875244141E+02
    0.707617295077344632E+01    0.302522224954444807E+00    0.148331844806671143E+01    0.869715015958921889E+01    0.828652859744379455E+01   -0.717095345997045719E+00   -0.134046115875244141E+02
    0.735251037325648227E+01    0.352017068612744399E+00    0.695932090282440186E+00    0.937673668221689738E+01    0.951657112913934355E+01   -0.639045484917662998E+00   -0.133923645019531250E+02
    0.735251037325648227E+01    0.352017068612744399E+00    0.695932090282440186E+00    0.937673668221689738E+01    0.951657112913934355E+01   -0.639045484917662998E+00   -0.133923645019531250E+02
    0.735598866324019340E+01    0.445529162590589944E+00    0.949858784675598145E+00    0.828059116692831232E+01    0.748582456152346865E+01   -0.272288915104738960E+00   -0.133887901306152344E+02
    0.735598866324019340E+01    0.445529162590589944E+00    0.949858784675598145E+00    0.828059116692831232E+01    0.748582456152346865E+01   -0.272288915104738960E+00   -0.133887901306152344E+02
    0.739084195864337978E+01    0.439163719051162471E+00    0.110883307456970215E+01    0.869906740265499145E+01    0.824680134874456527E+01   -0.718691182721429955E+00   -0.133623256683349609E+02
    0.739084195864337978E+01    0.439163719051162471E+00    0.110883307456970215E+01    0.869906740265499145E+01    0.824680134874456527E+01   -0.718691182721429955E+00   -0.133623256683349609E+02
    0.733113526358422085E+01    0.406974374427757246E+00    0.845944344997406006E+00    0.850988587247823425E+01    0.777309379724946936E+01   -0.431033990801843014E+00   -0.133552274703979492E+02
    0.733113526358422085E+01    0.406974374427757246E+00    0.845944344997406006E+00    0.850988587247823425E+01    0.777309379724946936E+01   -0.431033990801843014E+00   -0.133552274703979492E+02
    0.767109418670750021E+01    0.451831207354101094E+00    0.200407028198242188E+00    0.920794709609536000E+01    0.874751122900918254E+01    0.186861746418903962E+00   -0.133159942626953125E+02
    0.767109418670750021E+01    0.451831207354101094E+00    0.200407028198242188E+00    0.920794709609536000E+01    0.874751122900918254E+01    0.186861746418903962E+00   -0.133159942626953125E+02
    0.738838185019872196E+01    0.387983606461113850E+00    0.371967405080795288E+00    0.933513164821664887E+01    0.970911626124165750E+01    0.178338050972097761E-01   -0.132752580642700195E+02
    0.738838185019872196E+01    0.387983606461113850E+00    0.371967405080795288E+00    0.933513164821664887E+01    0.970911626124165750E+01    0.178338050972097761E-01   -0.132752580642700195E+02
    0.739633793994050315E+01    0.475125363213628582E+00    0.948055267333984375E+00    0.830802884715594914E+01    0.753751546687771512E+01   -0.274995565786380292E+00   -0.132400646209716797E+02
    0.739633793994050315E+01    0.475125363213628582E+00    0.948055267333984375E+00    0.830802884715594914E+01    0.753751546687771512E+01   -0.274995565786380292E+00   -0.132400646209716797E+02
    0.710284033370615386E+01    0.319109605439679644E+00    0.131588721275329590E+01    0.839588293315073386E+01    0.763309319819673870E+01   -0.535753680320121717E+00   -0.132242012023925781E+02
    0.710284033370615386E+01    0.319109605439679644E+00    0.131588721275329590E+01    0.839588293315073386E+01    0.763309319819673870E+01   -0.535753680320121717E+00   -0.132242012023925781E+02
    0.769907884290602151E+01    0.414388249296993749E+00    0.448257662355899811E-01    0.974239555130841062E+01    0.962963030010009291E+01   -0.242787779192997100E+00   -0.132171058654785156E+02
    0.769907884290602151E+01    0.414388249296993749E+00    0.448257662355899811E-01    0.974239555130841062E+01    0.962963030010009291E+01   -0.242787779192997100E+00   -0.132171058654785156E+02
    0.722817499984362133E+01    0.303633763015089264E+00    0.116909205913543701E+01    0.931311904850801042E+01    0.100458266884049028E+02   -0.591677726796802306E+00   -0.132147026062011719E+02
    0.722817499984362133E+01    0.303633763015089264E+00    0.116909205913543701E+01    0.931311904850801042E+01    0.100458266884049028E+02   -0.591677726796802306E+00   -0.132147026062011719E+02
    0.730599971149823624E+01    0.426502840655226034E+00    0.829240798950195312E+00    0.826329778909848756E+01    0.721012539674206199E+01   -0.107395954148902684E+01   -0.132063016891479492E+02
    0.730599971149823624E+01    0.426502840655226034E+00    0.829240798950195312E+00    0.826329778909848756E+01    0.721012539674206199E+01   -0.107395954148902684E+01   -0.132063016891479492E+02
    0.741011178411569293E+01    0.302344364984962366E+00    0.842475354671478271E+00    0.971225382506971613E+01    0.101384250942705965E+02   -0.727464968133759937E+00   -0.132012968063354492E+02
    0.741011178411569293E+01    0.302344364984962366E+00    0.842475354671478271E+00    0.971225382506971613E+01    0.101384250942705965E+02   -0.727464968133759937E+00   -0.132012968063354492E+02
    0.743771386997761930E+01    0.360276603194491396E+00    0.579847097396850586E+00    0.943130410749590453E+01    0.947575797740020320E+01   -0.237662189598493834E+00   -0.131971130371093750E+02
    0.743771386997761930E+01    0.360276603194491396E+00    0.579847097396850586E+00    0.943130410749590453E+01    0.947575797740020320E+01   -0.237662189598493834E+00   -0.131971130371093750E+02
    0.766120982761961411E+01    0.483360550728109017E+00    0.218788489699363708E+00    0.909870363450839648E+01    0.859560415453632665E+01   -0.662032355186026322E-02   -0.131724090576171875E+02
    0.766120982761961411E+01    0.483360550728109017E+00    0.218788489699363708E+00    0.909870363450839648E+01    0.859560415453632665E+01   -0.662032355186026322E-02   -0.131724090576171875E+02
    0.756117644501677333E+01    0.420015697211555017E+00    0.235169187188148499E+00    0.924756196133157182E+01    0.885695584719076479E+01   -0.775898151993152929E-01   -0.131575012207031250E+02
    0.775677645952323758E+01    0.411579975581469082E+00    0.724175199866294861E-01    0.983318124469708366E+01    0.965060804356232182E+01   -0.665877692763599427E+00   -0.131490859985351562E+02
    0.775677645952323758E+01    0.411579975581469082E+00    0.724175199866294861E-01    0.983318124469708366E+01    0.965060804356232182E+01   -0.665877692763599427E+00   -0.131490859985351562E+02
    0.736110148492616911E+01    0.446302121584609246E+00    0.997191071510314941E+00    0.874200209649326787E+01    0.842132410604369142E+01   -0.365724711932901903E+00   -0.131481981277465820E+02
    0.736110148492616911E+01    0.446302121584609246E+00    0.997191071510314941E+00    0.874200209649326787E+01    0.842132410604369142E+01   -0.365724711932901903E+00   -0.131481981277465820E+02
    0.742194775711172117E+01    0.374472442747231182E+00    0.598752617835998535E+00    0.921165474832612396E+01    0.902127954866365300E+01   -0.470533865988174149E-01   -0.131425266265869141E+02
    0.742194775711172117E+01    0.374472442747231182E+00    0.598752617835998535E+00    0.921165474832612396E+01    0.902127954866365300E+01   -0.470533865988174149E-01   -0.131425266265869141E+02
    0.761383699894438681E+01    0.451415904506136778E+00    0.407333642244338989E+00    0.952475482622140213E+01    0.983598107881173078E+01   -0.418719842094450012E+00   -0.131416873931884766E+02
    0.761383699894438681E+01    0.451415904506136778E+00    0.407333642244338989E+00    0.952475482622140213E+01    0.983598107881173078E+01   -0.418719842094450012E+00   -0.131416873931884766E+02
    0.751744045222387047E+01    0.455926809575459335E+00    0.486564159393310547E+00    0.908875919262370147E+01    0.896109710360295608E+01    0.154100164785571536E+00   -0.131000776290893555E+02
    0.751744045222387047E+01    0.455926809575459335E+00    0.486564159393310547E+00    0.908875919262370147E+01    0.896109710360295608E+01    0.154100164785571536E+00   -0.131000776290893555E+02
    0.744420334491775648E+01    0.481564475885034593E+00    0.118146574497222900E+01    0.828523212459139913E+01    0.748811273458754112E+01   -0.516132328104655258E+00   -0.130880470275878906E+02
    0.741505988792261217E+01    0.357214786153707220E+00    0.508559823036193848E+00    0.955090990580188581E+01    0.103546538793758458E+02   -0.505007495832379139E+00   -0.130806331634521484E+02
    0.741505988792261217E+01    0.357214786153707220E+00    0.508559823036193848E+00    0.955090990580188581E+01    0.103546538793758458E+02   -0.505007495832379139E+00   -0.130806331634521484E+02
    0.744981665570229623E+01    0.443137438656600879E+00    0.988243341445922852E+00    0.846085402872146020E+01    0.773832683049895298E+01   -0.815983955918109238E-01   -0.130773868560791016E+02
    0.744981665570229623E+01    0.443137438656600879E+00    0.988243341445922852E+00    0.846085402872146020E+01    0.773832683049895298E+01   -0.815983955918109238E-01   -0.130773868560791016E+02
    0.753303756884826825E+01    0.394883372484230610E+00    0.249018013477325439E+00    0.938811094151333592E+01    0.917433198155626961E+01    0.473919404280174206E-01   -0.130686235427856445E+02
    0.753303756884826825E+01    0.394883372484230610E+00    0.249018013477325439E+00    0.938811094151333592E+01    0.917433198155626961E+01    0.473919404280174206E-01   -0.130686235427856445E+02
    0.741848225638548620E+01    0.501707705161598572E+00    0.945522665977478027E+00    0.830883344114827160E+01    0.758406129667119888E+01   -0.383525564783418815E+00   -0.130636520385742188E+02
    0.719779389953191817E+01    0.363258956175685710E+00    0.128065419197082520E+01    0.882258814525880908E+01    0.880184337575786735E+01   -0.546241671977041321E+00   -0.130630416870117188E+02
    0.719779389953191817E+01    0.363258956175685710E+00    0.128065419197082520E+01    0.882258814525880908E+01    0.880184337575786735E+01   -0.546241671977041321E+00   -0.130630416870117188E+02
    0.758266023413090995E+01    0.468435456809156880E+00    0.453822016716003418E+00    0.944231381928907076E+01    0.101899073078985953E+02   -0.459290260718871357E+00   -0.130617332458496094E+02
    0.758266023413090995E+01    0.468435456809156880E+00    0.453822016716003418E+00    0.944231381928907076E+01    0.101899073078985953E+02   -0.459290260718871357E+00   -0.130617332458496094E+02
    0.749840084400742413E+01    0.438390361436396592E+00    0.787196695804595947E+00    0.930533200972108965E+01    0.100154914065164036E+02   -0.532229742758732360E+00   -0.130534677505493164E+02
    0.727610201540523160E+01    0.363303163951913866E+00    0.127725994586944580E+01    0.899685896651945427E+01    0.910938443754197813E+01   -0.856075375440409125E+00   -0.130528774261474609E+02
    0.732544348249541777E+01    0.358805734639697449E+00    0.688740432262420654E+00    0.910577050847514968E+01    0.888798393730620617E+01   -0.158065273944371310E+00   -0.130327377319335938E+02
    0.718827716400459327E+01    0.382433976055278568E+00    0.138217628002166748E+01    0.835484491379171246E+01    0.775427815820881516E+01   -0.936402309698630475E+00   -0.129867687225341797E+02
    0.736583772446954033E+01    0.460976081292745810E+00    0.919629156589508057E+00    0.839366704564905497E+01    0.770537102841628929E+01   -0.606793996296391969E+00   -0.129678506851196289E+02
    0.736583772446954033E+01    0.460976081292745810E+00    0.919629156589508057E+00    0.839366704564905497E+01    0.770537102841628929E+01   -0.606793996296391969E+00   -0.129678506851196289E+02
    0.706247730587616118E+01    0.218464322461732946E+00    0.132311093807220459E+01    0.955273142079858140E+01    0.102526429480589094E+02   -0.653958656212957345E+00   -0.129651432037353516E+02
    0.713313953765957898E+01    0.276933828569059182E+00    0.134373223781585693E+01    0.927768814772513473E+01    0.101975134760246764E+02   -0.596472117197644369E+00   -0.129606781005859375E+02
    0.725965840647977689E+01    0.290259109178556018E+00    0.634362280368804932E+00    0.957182681135924973E+01    0.102751998377525329E+02   -0.332783328909996845E+00   -0.129522619247436523E+02
    0.717514244402928458E+01    0.378682408283918748E+00    0.908750832080841064E+00    0.883989386791054876E+01    0.893619770811797132E+01   -0.111513381395821565E+00   -0.129364700317382812E+02
    0.715876029653335078E+01    0.394407828403583793E+00    0.144054579734802246E+01    0.846245066148168767E+01    0.815367854985008833E+01   -0.288629729924774425E+00   -0.129033946990966797E+02
    0.743508224561233533E+01    0.450141757099092543E+00    0.666205406188964844E+00    0.915632371799544664E+01    0.991551237455129275E+01   -0.119108564305447917E+00   -0.128978195190429688E+02
    0.728927550295973514E+01    0.389126937192684541E+00    0.850883364677429199E+00    0.861900275794497261E+01    0.801972195592646386E+01   -0.357611204923663939E+00   -0.128953685760498047E+02
    0.771541260472087576E+01    0.378776762933863032E+00    0.340294092893600464E-01    0.990191591769994339E+01    0.973044654355612160E+01   -0.542717753111487511E+00   -0.128773422241210938E+02
    0.771541260472087576E+01    0.378776762933863032E+00    0.340294092893600464E-01    0.990191591769994339E+01    0.973044654355612160E+01   -0.542717753111487511E+00   -0.128773422241210938E+02
    0.743644823317420567E+01    0.464527325383725709E+00    0.772861480712890625E+00    0.895222350553653179E+01    0.883434325507710660E+01   -0.364869907671254490E+00   -0.128616571426391602E+02
    0.743644823317420567E+01    0.464527325383725709E+00    0.772861480712890625E+00    0.895222350553653179E+01    0.883434325507710660E+01   -0.364869907671254490E+00   -0.128616571426391602E+02
    0.723809090383224696E+01    0.358700852105361179E+00    0.100086760520935059E+01    0.907517574442212727E+01    0.937785631267693276E+01   -0.372018187487996643E+00   -0.128575191497802734E+02
    0.723809090383224696E+01    0.358700852105361179E+00    0.100086760520935059E+01    0.907517574442212727E+01    0.937785631267693276E+01   -0.372018187487996643E+00   -0.128575191497802734E+02
    0.730931562449384398E+01    0.464944556064839531E+00    0.862938880920410156E+00    0.813064218353261836E+01    0.715035091307929083E+01   -0.891898804292903691E+00   -0.128573999404907227E+02
    0.735283884005332844E+01    0.369747544550425244E+00    0.986596226692199707E+00    0.849721642727109661E+01    0.762385906943116876E+01   -0.322455063698669830E+00   -0.128364048004150391E+02
    0.735283884005332844E+01    0.369747544550425244E+00    0.986596226692199707E+00    0.849721642727109661E+01    0.762385906943116876E+01   -0.322455063698669830E+00   -0.128364048004150391E+02
    0.758902787128599687E+01    0.421916653403709985E+00    0.550539374351501465E+00    0.959197561327594883E+01    0.104862040974954116E+02   -0.551206593298381398E+00   -0.128313245773315430E+02
    0.737431709831901472E+01    0.395812569797366343E+00    0.594413220882415771E+00    0.919721230108894261E+01    0.954786918359904746E+01    0.214379366895109946E-01   -0.128290996551513672E+02
    0.749212767373778643E+01    0.387825576354814350E+00    0.226394653320312500E+00    0.955171081557322665E+01    0.954837038143468320E+01   -0.419162370538629592E+00   -0.128111581802368164E+02
    0.722406918889432426E+01    0.345019351664493823E+00    0.119098007678985596E+01    0.908078028717547348E+01    0.958545329879321883E+01   -0.504832356309904418E+00   -0.127894401550292969E+02
    0.725226692981136800E+01    0.306912940238051657E+00    0.962577104568481445E+00    0.926885216424874159E+01    0.916279993552739569E+01   -0.393318236031144686E+00   -0.127855377197265625E+02
    0.725226692981136800E+01    0.306912940238051657E+00    0.962577104568481445E+00    0.926885216424874159E+01    0.916279993552739569E+01   -0.393318236031144686E+00   -0.127855377197265625E+02
    0.746136476599366105E+01    0.370626095080656970E+00    0.740127980709075928E+00    0.947152970284131790E+01    0.977859518498426183E+01   -0.772758252811968527E+00   -0.127736721038818359E+02
    0.746136476599366105E+01    0.370626095080656970E+00    0.740127980709075928E+00    0.947152970284131790E+01    0.977859518498426183E+01   -0.772758252811968527E+00   -0.127736721038818359E+02
    0.754796944344951726E+01    0.446665701038868712E+00    0.634000182151794434E+00    0.914282307796533189E+01    0.883357863371304575E+01   -0.371078058248448084E+00   -0.127686462402343750E+02
    0.754796944344951726E+01    0.446665701038868712E+00    0.634000182151794434E+00    0.914282307796533189E+01    0.883357863371304575E+01   -0.371078058248448084E+00   -0.127686462402343750E+02
    0.733843940603289813E+01    0.381655806456063396E+00    0.899140357971191406E+00    0.908731269969146815E+01    0.934952095095565028E+01    0.628132298665722288E-01   -0.127610788345336914E+02
    0.733843940603289813E+01    0.381655806456063396E+00    0.899140357971191406E+00    0.908731269969146815E+01    0.934952095095565028E+01    0.628132298665722288E-01   -0.127610788345336914E+02
    0.742884814929935455E+01    0.487607014345453504E+00    0.108108270168304443E+01    0.842125639493914413E+01    0.779801535067107476E+01   -0.353693742365154939E+00   -0.127579727172851562E+02
    0.742884814929935455E+01    0.487607014345453504E+00    0.108108270168304443E+01    0.842125639493914413E+01    0.779801535067107476E+01   -0.353693742365154939E+00   -0.127579727172851562E+02
    0.715671569801016982E+01    0.381183834683936351E+00    0.157977044582366943E+01    0.841941501856649133E+01    0.800850870824300642E+01   -0.490282384329026932E+00   -0.127539405822753906E+02
    0.726144138089152591E+01    0.319062569955548048E+00    0.750659465789794922E+00    0.938921540180669112E+01    0.101976355526589142E+02   -0.211003581717485567E+00   -0.127467041015625000E+02
    0.726193263154351065E+01    0.388970892431971138E+00    0.133380317687988281E+01    0.852121899456756893E+01    0.798727179842045576E+01   -0.274594389703574748E+00   -0.127461509704589844E+02
    0.726193263154351065E+01    0.388970892431971138E+00    0.133380317687988281E+01    0.852121899456756893E+01    0.798727179842045576E+01   -0.274594389703574748E+00   -0.127461509704589844E+02
    0.733785460389119670E+01    0.383591719565849920E+00    0.638330101966857910E+00    0.927243737813405211E+01    0.978316702668888283E+01   -0.360996771091571134E+00   -0.127419509887695312E+02
    0.755019104758441806E+01    0.435433048663437461E+00    0.489668995141983032E+00    0.943795444060125099E+01    0.963592909199270942E+01   -0.461289138747308813E+00   -0.127410144805908203E+02
    0.717961231194765137E+01    0.448556714784324517E+00    0.140755641460418701E+01    0.813320277203992070E+01    0.760542964392387688E+01   -0.372718508137807714E+00   -0.127366094589233398E+02
    0.756248008958967333E+01    0.366325954397394626E+00    0.269050031900405884E+00    0.977034458864103605E+01    0.100408448734557219E+02   -0.663864303122018162E+00   -0.126918888092041016E+02
    0.750328149289276425E+01    0.357357231350789839E+00    0.498364508152008057E+00    0.971238422702217719E+01    0.104735278099798581E+02   -0.801728751274665363E+00   -0.126818637847900391E+02
    0.723867044958557493E+01    0.312293562507005795E+00    0.106732749938964844E+01    0.928214121245872903E+01    0.955181832712943191E+01   -0.630777509499030442E+00   -0.126812982559204102E+02
    0.763354854908344382E+01    0.452802144035197307E+00    0.294434905052185059E+00    0.959731429202227915E+01    0.101761295029269281E+02   -0.367638837438685639E+00   -0.126809883117675781E+02
    0.752853386072624531E+01    0.411535900491845019E+00    0.417988538742065430E+00    0.950402161936349366E+01    0.974189992198653520E+01   -0.525309644333392001E+00   -0.126629304885864258E+02
    0.743893393961067417E+01    0.375133906151220997E+00    0.704751670360565186E+00    0.943971531517693130E+01    0.103384476384058281E+02   -0.190244983186293570E+00   -0.126575078964233398E+02
    0.771707158058966591E+01    0.415945757223440238E+00    0.344097279012203217E-01    0.979438533871957162E+01    0.968935504499018663E+01   -0.567034151749786552E+00   -0.126571121215820312E+02
    0.737175481674556288E+01    0.350780061053535097E+00    0.893154084682464600E+00    0.937323848779298174E+01    0.976209692637749527E+01   -0.444233866657391951E+00   -0.126564197540283203E+02
    0.719828363368453328E+01    0.369892367443235170E+00    0.111963641643524170E+01    0.894294898472334943E+01    0.946785860564443027E+01   -0.467739271348286412E+00   -0.126525611877441406E+02
    0.719828363368453328E+01    0.369892367443235170E+00    0.111963641643524170E+01    0.894294898472334943E+01    0.946785860564443027E+01   -0.467739271348286412E+00   -0.126525611877441406E+02
    0.739781413153646294E+01    0.405785648021975365E+00    0.102192735671997070E+01    0.865265560266370137E+01    0.807958310324540818E+01    0.792835295333533807E-01   -0.126418886184692383E+02
    0.742682193620489439E+01    0.394747161302450911E+00    0.407427430152893066E+00    0.921103262751934970E+01    0.892141326472320095E+01   -0.330089596983627054E+00   -0.126314506530761719E+02
    0.753686834262262551E+01    0.357391022260553526E+00    0.818049311637878418E-01    0.982031373108056371E+01    0.102276470892934910E+02   -0.388677372152012479E+00   -0.126150379180908203E+02
    0.744936682901496816E+01    0.434230896055898652E+00    0.729889214038848877E+00    0.917006792177362939E+01    0.952937168967278936E+01   -0.156552255822046238E+00   -0.126100740432739258E+02
    0.753970243062228196E+01    0.362385060070167575E+00    0.148000076413154602E+00    0.977878935396186399E+01    0.996710373587387899E+01   -0.621053262189233513E+00   -0.126037368774414062E+02
    0.725466361934428061E+01    0.422743682364651430E+00    0.104393887519836426E+01    0.878669555189329365E+01    0.879781396185514275E+01   -0.385065620558641575E+00   -0.125985469818115234E+02
    0.760713814462394566E+01    0.437751115977066951E+00    0.724411010742187500E-01    0.952249875603929574E+01    0.939647833830132839E+01   -0.303170989359415444E+00   -0.125833988189697266E+02
    0.764808463835706398E+01    0.417568356349638348E+00    0.155800029635429382E+00    0.974739806398277508E+01    0.100031989921478406E+02   -0.555487929898095700E+00   -0.125813226699829102E+02
    0.747422758631501427E+01    0.419814684487352485E+00    0.565202713012695312E+00    0.936313298266485816E+01    0.101857764466771670E+02   -0.104729639461926816E+00   -0.125802497863769531E+02
    0.734372122629599300E+01    0.425164002935461638E+00    0.804011225700378418E+00    0.902600673913317664E+01    0.959475254940087119E+01   -0.560717133850854310E-01   -0.125802087783813477E+02
    0.769817800332009217E+01    0.387019945195547721E+00    0.690379515290260315E-01    0.987891635504729315E+01    0.980493007876300382E+01   -0.699878168644257448E+00   -0.125779056549072266E+02
    0.745027307898054225E+01    0.341798399776229000E+00    0.407620579004287720E+00    0.965474769815929790E+01    0.977936545456339523E+01   -0.541085547056383787E+00   -0.125722980499267578E+02
    0.733356628463404014E+01    0.422708039169473415E+00    0.792622089385986328E+00    0.888769313732551858E+01    0.881011337439706210E+01   -0.647364811159167886E-02   -0.125540828704833984E+02
    0.741533347406571597E+01    0.414503325314813320E+00    0.101604485511779785E+01    0.872347466133281735E+01    0.813803995287160475E+01   -0.532781922311301503E+00   -0.125519618988037109E+02
    0.769352007816898276E+01    0.372613770700663705E+00    0.409301184117794037E-01    0.986095414611800969E+01    0.963430728866719654E+01   -0.642849469114630923E+00   -0.125377616882324219E+02
    0.734409577594380902E+01    0.414996468954503872E+00    0.104531955718994141E+01    0.900418829475718852E+01    0.963308225666873241E+01   -0.116113179370767483E+00   -0.125297489166259766E+02
    0.741685043859584603E+01    0.413981551799837588E+00    0.744155347347259521E+00    0.921264590224794944E+01    0.102932810496522436E+02    0.390531067236832286E-01   -0.125290155410766602E+02
    0.737063136298014676E+01    0.442289454161040541E+00    0.906323909759521484E+00    0.877503529620855893E+01    0.845074233028174326E+01   -0.208473049898073359E+00   -0.125177679061889648E+02
    0.747672417092971564E+01    0.434203313742488550E+00    0.651220679283142090E+00    0.931480970092612104E+01    0.990610753664654275E+01   -0.384933714268999916E+00   -0.125153713226318359E+02
    0.733046384510155224E+01    0.401196265502428873E+00    0.683555483818054199E+00    0.897209222620767655E+01    0.874554370363337163E+01   -0.225156237004816573E+00   -0.125096836090087891E+02
    0.742259468847606207E+01    0.387283710360646460E+00    0.515508770942687988E+00    0.942009648306040326E+01    0.986472893406480367E+01   -0.239357240714935582E+00   -0.125046672821044922E+02
    0.741534270374461890E+01    0.402816090974405849E+00    0.106770563125610352E+01    0.919676291468898377E+01    0.959310924166538825E+01   -0.598836550748821361E+00   -0.124983053207397461E+02
    0.765582374974023150E+01    0.409109623242450593E+00    0.265477836132049561E+00    0.970176380640333669E+01    0.970508886180742181E+01   -0.521947343817957377E+00   -0.124946231842041016E+02
    0.749993284628949297E+01    0.434172827346316126E+00    0.633843779563903809E+00    0.914045802985465272E+01    0.916623127660795944E+01    0.173603988294154021E+00   -0.124863986968994141E+02
    0.733409563946887744E+01    0.358403444925659675E+00    0.925226569175720215E+00    0.923528623501288770E+01    0.943954400703431595E+01   -0.342142789656275426E+00   -0.124563045501708984E+02
    0.744518522578566611E+01    0.427418480329803341E+00    0.618533611297607422E+00    0.929703773960070734E+01    0.102465987534466514E+02   -0.331168770938526036E+00   -0.124521360397338867E+02
    0.730147107428679654E+01    0.426115401148263573E+00    0.114406216144561768E+01    0.890310935215299892E+01    0.960150339626817484E+01   -0.379916339506856771E+00   -0.124514694213867188E+02
    0.770732681149557930E+01    0.392214649877659416E+00    0.100913278758525848E+00    0.995607892887432833E+01    0.102288308531565715E+02   -0.612798766604785605E+00   -0.124369678497314453E+02
    0.748228591998994386E+01    0.391877251297364726E+00    0.307438671588897705E+00    0.949549485659484382E+01    0.968084015309067780E+01   -0.249040331735417730E+00   -0.124292221069335938E+02
    0.744777025383474545E+01    0.317758140925971100E+00    0.438937485218048096E+00    0.978951305425012031E+01    0.101340394376729392E+02   -0.615801633765003187E+00   -0.124101219177246094E+02
    0.726628656493531278E+01    0.393875988684501521E+00    0.121936166286468506E+01    0.894407173817143075E+01    0.939277041979050864E+01   -0.390459332050780983E+00   -0.123944168090820312E+02
    0.739773473107613633E+01    0.393954714568313324E+00    0.574494361877441406E+00    0.928007112407625279E+01    0.100156818699513614E+02    0.111485915452269158E+00   -0.123795213699340820E+02
    0.736300744740758084E+01    0.397422440043281644E+00    0.799781978130340576E+00    0.914264617090920595E+01    0.940556907865699365E+01   -0.226184991536963143E+00   -0.123704948425292969E+02
    0.737941113706732743E+01    0.323380564816108218E+00    0.548473596572875977E+00    0.960401028687761560E+01    0.989351112926991760E+01   -0.429626542501148512E+00   -0.123696317672729492E+02
    0.763984272269759401E+01    0.343680764198399102E+00    0.106550097465515137E+00    0.997615950107526750E+01    0.997260939946387381E+01   -0.704382812398969271E+00   -0.123603458404541016E+02
    0.739509187975843307E+01    0.367943930122082929E+00    0.757317125797271729E+00    0.942030498970106578E+01    0.102314070030425981E+02   -0.604437491616569345E+00   -0.123601856231689453E+02
    0.738275828609860341E+01    0.401066724099371386E+00    0.606867194175720215E+00    0.911862664256030087E+01    0.907386252045269970E+01    0.847444102046956971E-02   -0.123050575256347656E+02
    0.760513057011348614E+01    0.414789618213135480E+00    0.254403799772262573E+00    0.967030239025490346E+01    0.996645483299025692E+01   -0.360538431652240199E+00   -0.122708110809326172E+02
    0.737115281592586324E+01    0.406243822986902037E+00    0.800892651081085205E+00    0.919519068561368513E+01    0.104670091700741938E+02   -0.141315665449718075E+00   -0.122581453323364258E+02
    0.732301568968161742E+01    0.418716235290134797E+00    0.102235114574432373E+01    0.890915794584758736E+01    0.901796813999083824E+01   -0.144993033124446669E+00   -0.122542495727539062E+02
    0.753250236652816074E+01    0.331707487651651145E+00    0.172580406069755554E+00    0.986464974647578963E+01    0.100146368977485825E+02   -0.454599973433467142E+00   -0.122502498626708984E+02
    0.744207537621021764E+01    0.412325561206026092E+00    0.492853939533233643E+00    0.930928159375248931E+01    0.964006701148181655E+01   -0.801592206889334413E-01   -0.122500877380371094E+02
    0.770565768404706120E+01    0.406736515609870564E+00    0.969501659274101257E-01    0.991193038498652257E+01    0.104255137754251344E+02   -0.412856309758353968E+00   -0.120467643737792969E+02
    0.750865189446534664E+01    0.367480834248152699E+00    0.507509946823120117E+00    0.965972211447139273E+01    0.103604589238212803E+02   -0.505410773425115423E+00   -0.121854066848754883E+02
    0.745586897145605310E+01    0.404100708853486701E+00    0.529204010963439941E+00    0.927323323115334475E+01    0.924022471414875746E+01   -0.170760715116361705E+00   -0.121521015167236328E+02
    0.756077957332908746E+01    0.378320267905184138E+00    0.332595556974411011E+00    0.972788559904933159E+01    0.103159225461555106E+02   -0.343676845740527481E+00   -0.120161170959472656E+02
    0.745664512577923855E+01    0.320000891756250572E+00    0.321573406457901001E+00    0.980789460186438511E+01    0.101854034100071704E+02   -0.414189313187135699E+00   -0.122020683288574219E+02
    0.751123383243987330E+01    0.391781562337785438E+00    0.430174350738525391E+00    0.951517974848479042E+01    0.959638310618650792E+01   -0.344699946746101604E+00   -0.120956153869628906E+02
    0.754707531522220254E+01    0.378356521451378547E+00    0.158699870109558105E+00    0.965501247674321306E+01    0.958132485916298471E+01   -0.493720123357118901E+00   -0.118895378112792969E+02
    0.757082333488588866E+01    0.375292169814612220E+00    0.216200947761535645E+00    0.980707895733962154E+01    0.104303732502027273E+02   -0.556523295829276732E+00   -0.119994277954101562E+02
    0.767023939991155324E+01    0.407759856068680038E+00    0.319676995277404785E-01    0.986877796056284673E+01    0.104069925141990893E+02   -0.364784057035223874E+00   -0.119939384460449219E+02
    0.743643326505574453E+01    0.352529747342295474E+00    0.579627692699432373E+00    0.954112059156782522E+01    0.974190974118536346E+01   -0.476569768949516082E+00   -0.121990833282470703E+02
    0.748246542847229712E+01    0.374588477195479386E+00    0.606539845466613770E+00    0.955099598423439211E+01    0.100248624464939731E+02   -0.464384355749580147E+00   -0.120958175659179688E+02
    0.750648642501622021E+01    0.384398868099087299E+00    0.238113880157470703E+00    0.964850504495175620E+01    0.103167245086621051E+02   -0.331109221124170183E+00   -0.122149648666381836E+02
    0.745698357196462158E+01    0.390515584627765588E+00    0.552249252796173096E+00    0.927859528882154549E+01    0.905282372125198620E+01   -0.315179305070040661E+00   -0.119458484649658203E+02
    0.731058591414657410E+01    0.402907878237598271E+00    0.113536226749420166E+01    0.898421240767804363E+01    0.934178016841043224E+01   -0.369323153259712766E+00   -0.119413537979125977E+02
    0.734702395527490904E+01    0.387653834549254117E+00    0.879315972328186035E+00    0.921554195994651870E+01    0.102947670078625677E+02   -0.360083212957485577E+00   -0.118790845870971680E+02
    0.740793322705653345E+01    0.386157438617022952E+00    0.788835763931274414E+00    0.932985570293026711E+01    0.101094285757289661E+02   -0.196956078569050952E+00   -0.121907358169555664E+02
    0.738729336355435251E+01    0.391589593619595222E+00    0.884341955184936523E+00    0.921928122299375907E+01    0.964331762682867932E+01   -0.320619576344445267E+00   -0.120060424804687500E+02
    0.735562575548798669E+01    0.397893694393950670E+00    0.861115157604217529E+00    0.913785694130902471E+01    0.970225470631985765E+01   -0.150964679296307303E+00   -0.121881542205810547E+02
    0.732909622063688992E+01    0.387620408102381409E+00    0.901689410209655762E+00    0.916866559813523807E+01    0.101023711884191556E+02   -0.330139780323421173E+00   -0.119387378692626953E+02
    0.730310882693610086E+01    0.393907461759096966E+00    0.110502779483795166E+01    0.904823031641770115E+01    0.977958943768827282E+01   -0.475165526723403842E+00   -0.119632186889648438E+02
    0.734051821562329376E+01    0.399586821217689070E+00    0.876460671424865723E+00    0.915873986351172498E+01    0.982651703477015559E+01   -0.425349284957313500E+00   -0.121855916976928711E+02
    0.739733374385334752E+01    0.387154059494460245E+00    0.862991392612457275E+00    0.928238138166644333E+01    0.992477563133171969E+01   -0.273716720265447799E+00   -0.120045452117919922E+02
    0.746022055657246774E+01    0.405209194928384420E+00    0.573583006858825684E+00    0.940951672463480548E+01    0.996586256665015746E+01   -0.304357975190527430E+00   -0.121696300506591797E+02
    0.720383672234964134E+01    0.414201083323557873E+00    0.123935937881469727E+01    0.821503231631001718E+01    0.753479020832173241E+01   -0.405170443907070021E+00   -0.118542804718017578E+02
    0.734347581890398882E+01    0.394914695084776168E+00    0.133066153526306152E+01    0.851832826006209132E+01    0.786352918873069484E+01   -0.430052167607930746E+00   -0.122294721603393555E+02
    0.727440623743568882E+01    0.402348854067540840E+00    0.902478039264678955E+00    0.890224141415951919E+01    0.890201543468277379E+01   -0.173604692887781908E+00   -0.119252052307128906E+02
    0.730539931354787875E+01    0.386433453206545374E+00    0.968501269817352295E+00    0.895986362035228545E+01    0.885975029345076237E+01   -0.169208166571066965E+00   -0.118240604400634766E+02
    0.722084958001516863E+01    0.378840439403529461E+00    0.104042327404022217E+01    0.856382960252962633E+01    0.804056311494774612E+01   -0.201952199836432644E+00   -0.121080703735351562E+02
    0.729803422288962889E+01    0.393207200750362695E+00    0.901135802268981934E+00    0.896314458079764087E+01    0.887020596351163171E+01   -0.372836952426630175E+00   -0.121545953750610352E+02
    0.879442044130049538E+01    0.362625930366256810E+01    0.839597165584564209E+00    0.789858745316147282E+01    0.850670926283475204E+01   -0.151188999651358813E+01   -0.191394481658935547E+02
    0.831978121265549753E+01    0.308313863632165130E+01    0.544711887836456299E+00    0.747369097322776632E+01    0.813917395551105471E+01   -0.192250825843893192E+01   -0.185796546936035156E+02
    0.828252923768426186E+01    0.310159304868583519E+01    0.531339883804321289E+00    0.732838513675716374E+01    0.911149995260028334E+01   -0.200726109366663552E+01   -0.176535587310791016E+02
    0.832062914975188583E+01    0.342953097807911256E+01    0.507999837398529053E+00    0.755335490462080816E+01    0.935017396397115874E+01   -0.131808188333587184E+01   -0.162890510559082031E+02
    0.825043604393446550E+01    0.328272251166627349E+01    0.475917279720306396E+00    0.752207484611945087E+01    0.916922629784386523E+01   -0.143013096985371857E+01   -0.161283435821533203E+02
    0.817286549158267484E+01    0.328096010100321367E+01    0.425781458616256714E+00    0.738703141973615462E+01    0.916704085902806121E+01   -0.155290330329026371E+01   -0.160719947814941406E+02
    0.868012275179804860E+01    0.353077735773953272E+01    0.848441362380981445E+00    0.759564588995639678E+01    0.785278153430762771E+01   -0.193577000884966544E+01   -0.159959897994995117E+02
    0.869385592323240886E+01    0.346973748938907356E+01    0.848987340927124023E+00    0.763598155237150866E+01    0.937867637700038514E+01   -0.203099166768027706E+01   -0.159058666229248047E+02
    0.845011929193890232E+01    0.337789604486059902E+01    0.622774064540863037E+00    0.764612016511405734E+01    0.928962402737842652E+01   -0.139644682208642368E+01   -0.157535800933837891E+02
    0.866398464493775755E+01    0.351999223974107034E+01    0.793016016483306885E+00    0.770176957401475892E+01    0.983102941762360771E+01   -0.188608110192154088E+01   -0.157392902374267578E+02
    0.844279069828720985E+01    0.334537880277304778E+01    0.669466137886047363E+00    0.750998873297215663E+01    0.778933732046417315E+01   -0.152798373115733099E+01   -0.157382106781005859E+02
    0.812975321528515948E+01    0.319265864905814167E+01    0.379435598850250244E+00    0.725822656396656374E+01    0.853637906961260917E+01   -0.207714359264423942E+01   -0.157051506042480469E+02
    0.851568661862715359E+01    0.341785007224314352E+01    0.645441889762878418E+00    0.759817206239994380E+01    0.812256543240314244E+01   -0.192033314816384437E+01   -0.156815490722656250E+02
    0.818719925789659086E+01    0.330309432967963046E+01    0.389978826045989990E+00    0.732277325661189327E+01    0.806744053246652904E+01   -0.190376261928968771E+01   -0.151579704284667969E+02
    0.824863680934423371E+01    0.328147012300724805E+01    0.505204617977142334E+00    0.735967923789405720E+01    0.741505255663964835E+01   -0.156351477689003238E+01   -0.148200864791870117E+02
    0.835477913402142214E+01    0.330746968373850958E+01    0.542143404483795166E+00    0.741546968013868213E+01    0.756102013984526256E+01   -0.182549315147880709E+01   -0.145374956130981445E+02
    0.831556878440760627E+01    0.324080535928934221E+01    0.535741209983825684E+00    0.740730430488966629E+01    0.925237084938466481E+01   -0.188924550328839791E+01   -0.143084487915039062E+02
    0.820234796580602143E+01    0.310695096098707824E+01    0.506710112094879150E+00    0.730907125687565351E+01    0.746021100886938449E+01   -0.166546978662994838E+01   -0.142176513671875000E+02
    0.815026721904632190E+01    0.299921132442431881E+01    0.454455316066741943E+00    0.730804259608326934E+01    0.990069668010282555E+01   -0.190863478666312525E+01   -0.141931190490722656E+02
    0.824418712428116152E+01    0.331995957044373480E+01    0.459733784198760986E+00    0.738471710315825458E+01    0.808789162361791547E+01   -0.177993153278455907E+01   -0.141339550018310547E+02
    0.841718739710282371E+01    0.337511067237544760E+01    0.575635254383087158E+00    0.744692912369958915E+01    0.791437482660596014E+01   -0.195679778229420087E+01   -0.140830278396606445E+02
    0.817400052162956747E+01    0.305988114778777343E+01    0.482228934764862061E+00    0.733143930187093762E+01    0.838288226690702309E+01   -0.180133720788541507E+01   -0.137077083587646484E+02
