    0.871749974547674888E+01    0.575815314644552267E+00    0.115883982181549072E+01    0.969853898065186470E+01    0.920086384528029733E+01   -0.134449890240938386E+01   -0.225733108520507812E+02
    0.888470321445079492E+01    0.752681408144905806E+00    0.215501999855041504E+01    0.878354070228649775E+01    0.750094294170524467E+01   -0.118636588143650656E+01   -0.223290042877197266E+02
    0.868102141590154197E+01    0.626198262732729938E+00    0.292278416454792023E-01    0.913070166335613465E+01    0.789471997535762071E+01    0.229175644212782359E-01   -0.218151168823242188E+02
    0.878759482969420880E+01    0.675238938872408156E+00    0.169947779178619385E+01    0.942251902513506501E+01    0.894994701871427267E+01   -0.106654701095757187E+01   -0.204456119537353516E+02
    0.847958615356463241E+01    0.491351415598138885E+00    0.190322792530059814E+01    0.884415252318795098E+01    0.727512336373023150E+01   -0.350452982833755478E+00   -0.201748123168945312E+02
    0.861804262511383534E+01    0.572807329970394297E+00    0.118167650699615479E+01    0.958794092581786828E+01    0.920237395107954903E+01   -0.488261780099683795E+00   -0.197815818786621094E+02
    0.877041333504987186E+01    0.551161699577543684E+00    0.123226356506347656E+01    0.933502358485260864E+01    0.701768589536199539E+01   -0.164153725531471384E+01   -0.197514762878417969E+02
    0.873405397057269717E+01    0.461413126575150767E+00    0.342946708202362061E+00    0.970557096696316535E+01    0.720138350390991810E+01   -0.168374267803504507E+01   -0.196138553619384766E+02
    0.845345130976045134E+01    0.559263588429783520E+00    0.218287810683250427E+00    0.919605227181203411E+01    0.819636685428241485E+01   -0.117598616634050024E+01   -0.192194099426269531E+02
    0.879169927509984284E+01    0.583666152171427477E+00    0.120787990093231201E+01    0.923118139403615956E+01    0.743879195186692499E+01   -0.204117346983793135E+01   -0.190198364257812500E+02
    0.861346979115284483E+01    0.643289831612459784E+00    0.707531750202178955E+00    0.893042183318247140E+01    0.712140365283537591E+01   -0.822420318517812055E+00   -0.189708786010742188E+02
    0.899345120051611246E+01    0.629415729106243438E+00    0.186171263456344604E+00    0.971015250611029046E+01    0.855191813763515185E+01   -0.199315366628143553E+01   -0.187363471984863281E+02
    0.865229476538816300E+01    0.445366547419954073E+00    0.116438329219818115E+01    0.950082461428025482E+01    0.737680275920560202E+01   -0.189454288748319866E+01   -0.186482238769531250E+02
    0.843619855303538024E+01    0.273907155750135800E+00    0.496611922979354858E+00    0.999794044623399358E+01    0.878632603657089284E+01   -0.843313806796447851E+00   -0.186469135284423828E+02
    0.856804998941762719E+01    0.431804362741719572E+00    0.134109288454055786E+00    0.961911198336535200E+01    0.743903870626312091E+01   -0.130957523976130918E+01   -0.183620777130126953E+02
    0.849213093183258749E+01    0.467550409600067884E+00    0.180021464824676514E+00    0.945591555271088779E+01    0.705131560962351500E+01   -0.128300536625901995E+01   -0.183040466308593750E+02
    0.859427546049011859E+01    0.609458791560867907E+00    0.123532664775848389E+01    0.905837993285804188E+01    0.829675434897416153E+01   -0.517710625534264501E+00   -0.183000717163085938E+02
    0.869138567526553629E+01    0.410455011811061310E+00    0.547764539718627930E+00    0.976822781294105447E+01    0.753334396087447367E+01   -0.132354003830960898E+01   -0.182297306060791016E+02
    0.870833514805976883E+01    0.663783431492573239E+00    0.481888860464096069E+00    0.912579540527170252E+01    0.733176590974192521E+01   -0.134460182165835773E+01   -0.180982265472412109E+02
    0.868172636847146251E+01    0.615524787900043391E+00    0.824059844017028809E+00    0.965168142393761208E+01    0.925971177017018476E+01   -0.602637711565942702E+00   -0.180929298400878906E+02
    0.828904698435609966E+01    0.438132040820906454E+00    0.134096533060073853E+00    0.931906367760501375E+01    0.837744987293244314E+01   -0.378781276509443376E+00   -0.179979667663574219E+02
    0.840308525243235493E+01    0.301074281713313741E+00    0.115282833576202393E+01    0.968902635950189506E+01    0.824614379136383313E+01   -0.114075198569035741E+01   -0.179508342742919922E+02
    0.836802706294069765E+01    0.278410055246289367E+00    0.397985339164733887E+00    0.976646413826944482E+01    0.812779809712026058E+01   -0.361285229611699732E+00   -0.179205169677734375E+02
    0.871056331845747245E+01    0.599869022292859988E+00    0.119795568287372589E+00    0.932891736208850020E+01    0.756861938836467729E+01   -0.174849388058250876E+01   -0.179182777404785156E+02
    0.868814336229223549E+01    0.438684351031165432E+00    0.467417180538177490E+00    0.968537110413566893E+01    0.747518567821960733E+01   -0.155948125308711560E+01   -0.178397216796875000E+02
    0.858856535949198374E+01    0.598843632844823892E+00    0.118610417842864990E+01    0.897630606588796809E+01    0.800855427603351266E+01   -0.809921423887102199E+00   -0.178154945373535156E+02
    0.843071470739489470E+01    0.459403445721308534E+00    0.203025005757808685E-01    0.937309596857459759E+01    0.788895631216338522E+01   -0.992203686307460364E+00   -0.177909240722656250E+02
    0.869089804057171911E+01    0.343449648514734418E+00    0.443129062652587891E+00    0.995715603872234212E+01    0.767294458555921022E+01   -0.752971014409595130E+00   -0.177744274139404297E+02
    0.834277125117933416E+01    0.321810541462315414E+00    0.186660498380661011E+00    0.962457151002502620E+01    0.808563790316207154E+01   -0.416520530581821813E+00   -0.177621631622314453E+02
    0.872973818914991462E+01    0.554493512567751257E+00    0.447348840534687042E-01    0.960422817520288774E+01    0.845678576780231239E+01   -0.135394817124835454E+01   -0.177566719055175781E+02
    0.825302474429376076E+01    0.322885916284158081E+00    0.221375212073326111E+00    0.967264438678339822E+01    0.874952820933540920E+01   -0.673922375444726551E+00   -0.177449035644531250E+02
    0.877593550324515448E+01    0.488071502801880830E+00    0.247281536459922791E+00    0.971007742777359262E+01    0.803269940932670856E+01   -0.150632613708109275E+01   -0.177333106994628906E+02
    0.859938348258249086E+01    0.535902447414500771E+00    0.197760152816772461E+01    0.892249458243928117E+01    0.724244179618379036E+01   -0.913562903612313182E+00   -0.176489143371582031E+02
    0.851496946776384611E+01    0.483704754329251196E+00    0.161366152763366699E+01    0.918733816169565110E+01    0.805379636880381433E+01   -0.129884697825065643E+01   -0.175523109436035156E+02
    0.831146271761924105E+01    0.372862380449623498E+00    0.392423391342163086E+00    0.940210854495085613E+01    0.725147503127835336E+01   -0.956234973107711772E+00   -0.175197525024414062E+02
    0.846554538896114650E+01    0.372267648519654437E+00    0.556659936904907227E+00    0.958318306296801126E+01    0.770717331016481833E+01   -0.743155120849760431E+00   -0.174842910766601562E+02
    0.873048390018995946E+01    0.443868322836922180E+00    0.124725139141082764E+01    0.958516417760880657E+01    0.756923245264983713E+01   -0.184546277584287455E+01   -0.174358177185058594E+02
    0.851015667560127298E+01    0.485958505540598884E+00    0.383863866329193115E+00    0.946269031465946497E+01    0.850322357650945193E+01   -0.120711906711607853E+01   -0.174078845977783203E+02
    0.866846260759885467E+01    0.552844696979764905E+00    0.210890948772430420E+00    0.947252244690447398E+01    0.756980732115927335E+01   -0.147928876402788223E+01   -0.173978576660156250E+02
    0.866276986246029423E+01    0.550179151595311500E+00    0.193438142538070679E+00    0.947734608433318471E+01    0.800290038520282287E+01   -0.162161330698572237E+01   -0.173821983337402344E+02
    0.865551884150648476E+01    0.515658909476318761E+00    0.232910513877868652E+00    0.955129417274640424E+01    0.825001639174637447E+01   -0.130743893060185856E+01   -0.173320522308349609E+02
    0.854419725638795846E+01    0.321346563026227550E+00    0.308421909809112549E+00    0.995881242369853936E+01    0.868046650002962394E+01   -0.102976188366520027E+01   -0.173289222717285156E+02
    0.851442917557567469E+01    0.564498432536835293E+00    0.123978234827518463E+00    0.920496584246505023E+01    0.808465382986323000E+01   -0.619131595701936099E+00   -0.172816085815429688E+02
    0.856877151254835567E+01    0.453388059638357599E+00    0.246046376228332520E+01    0.901136305357180767E+01    0.735580270982546658E+01   -0.121338170899518816E+01   -0.172815017700195312E+02
    0.880519558486565224E+01    0.708672078509275494E+00    0.492592453956604004E+00    0.914146673650457764E+01    0.723897062352712339E+01   -0.101576252505905917E+01   -0.172797393798828125E+02
    0.830575344027380247E+01    0.353459049074884679E+00    0.493105016648769379E-01    0.943795707249726767E+01    0.740766388613884974E+01   -0.284455053033793925E+00   -0.172429580688476562E+02
    0.830575344027380247E+01    0.353459049074884679E+00    0.493105016648769379E-01    0.943795707249726767E+01    0.740766388613884974E+01   -0.284455053033793925E+00   -0.172429580688476562E+02
    0.854910129772575722E+01    0.431600017287554483E+00    0.109110188484191895E+01    0.947250384687565372E+01    0.814211653265781798E+01   -0.134146673093302926E+01   -0.172411231994628906E+02
    0.873958912266691890E+01    0.667370359814568048E+00    0.150521457195281982E+01    0.906720126452547959E+01    0.826096599245748386E+01   -0.673462161069726006E+00   -0.172367935180664062E+02
    0.855823442833853498E+01    0.428188015998658522E+00    0.599196255207061768E+00    0.976847108449412715E+01    0.901607376921120718E+01   -0.784410415741372047E+00   -0.171949806213378906E+02
    0.871341644663338144E+01    0.457662160436882737E+00    0.334280639886856079E+00    0.976080015586747507E+01    0.865979513329981287E+01   -0.128114186755190307E+01   -0.171747894287109375E+02
    0.870961302785237557E+01    0.517177386894698499E+00    0.581550538539886475E+00    0.955191209711563260E+01    0.833683147116154188E+01   -0.157867005793993265E+01   -0.171536674499511719E+02
    0.866475199160320209E+01    0.628442264401709694E+00    0.213297271728515625E+01    0.896975677013919359E+01    0.824458479474030170E+01   -0.725098205150593422E+00   -0.170991954803466797E+02
    0.823538695103441576E+01    0.398497778670782732E+00    0.183345198631286621E+00    0.930571018439003872E+01    0.818741739198087615E+01   -0.428718830129897199E+00   -0.170919647216796875E+02
    0.868529232317324684E+01    0.574021507524430707E+00    0.208788767457008362E+00    0.949220398931699805E+01    0.851230005770952403E+01   -0.113273867360897595E+01   -0.170430183410644531E+02
    0.873280066965405588E+01    0.562367202572068958E+00    0.417659543454647064E-01    0.954319936428296067E+01    0.791399564278886469E+01   -0.151324364835506020E+01   -0.170389328002929688E+02
    0.817956465249631037E+01    0.293641091049200109E+00    0.120195078849792480E+01    0.944820634092082123E+01    0.797193490530488624E+01   -0.909264623721971921E+00   -0.170298767089843750E+02
    0.837635149158194992E+01    0.403304504930928231E+00    0.141289066523313522E-01    0.953604859797292548E+01    0.839732216960822875E+01   -0.889457381778140821E+00   -0.169972953796386719E+02
    0.863945464606311120E+01    0.422690248618627806E+00    0.346063852310180664E+00    0.967715994218869469E+01    0.755299077665839480E+01   -0.126988980547274188E+01   -0.169923000335693359E+02
    0.877440626033841653E+01    0.580848675787426050E+00    0.266697734594345093E+00    0.945918799016468448E+01    0.755591216218093376E+01   -0.209536554522802110E+01   -0.169826126098632812E+02
    0.877440626033841653E+01    0.580848675787426050E+00    0.266697734594345093E+00    0.945918799016468448E+01    0.755591216218093376E+01   -0.209536554522802110E+01   -0.169826126098632812E+02
    0.865458795794715918E+01    0.586200294391780008E+00    0.914254069328308105E+00    0.915604899223062141E+01    0.781694202626744783E+01   -0.127368909332558644E+01   -0.169782028198242188E+02
    0.865458795794715918E+01    0.586200294391780008E+00    0.914254069328308105E+00    0.915604899223062141E+01    0.781694202626744783E+01   -0.127368909332558644E+01   -0.169782028198242188E+02
    0.879464676252986521E+01    0.615724339272758159E+00    0.163859426975250244E+00    0.946789843184109259E+01    0.787736279401598605E+01   -0.178987858531896160E+01   -0.169489021301269531E+02
    0.823009490837111102E+01    0.371488471195606296E+00    0.617621019482612610E-01    0.929179309000776676E+01    0.714930966228876486E+01   -0.491637621706844996E+00   -0.169453735351562500E+02
    0.853616765125009636E+01    0.426358096968083466E+00    0.320047885179519653E+00    0.956887022456668035E+01    0.722885336241218823E+01   -0.889345473965735378E+00   -0.169047603607177734E+02
    0.866580693539446933E+01    0.621497241836089009E+00    0.915648788213729858E-01    0.924035743233613971E+01    0.723164564537137888E+01   -0.156393182005542730E+01   -0.169003162384033203E+02
    0.870681180765625129E+01    0.602509183018906214E+00    0.292019546031951904E+00    0.931684007295317151E+01    0.725516864684423624E+01   -0.145769277936183483E+01   -0.168663635253906250E+02
    0.843418192627433960E+01    0.415580018542848484E+00    0.439586400985717773E+00    0.946683431894832594E+01    0.731653673791106662E+01   -0.878692769071282909E+00   -0.168642807006835938E+02
    0.861181981545523456E+01    0.548890204010793914E+00    0.301789313554763794E+00    0.932118556427760581E+01    0.762721190660556925E+01   -0.147349756130802634E+01   -0.168350448608398438E+02
    0.861181981545523456E+01    0.548890204010793914E+00    0.301789313554763794E+00    0.932118556427760581E+01    0.762721190660556925E+01   -0.147349756130802634E+01   -0.168350448608398438E+02
    0.868307245736393263E+01    0.524715137402727239E+00    0.451416552066802979E+00    0.960429195833934024E+01    0.867824060908874806E+01   -0.151625190108564500E+01   -0.168297443389892578E+02
    0.854723404284143484E+01    0.557873791549261089E+00    0.144128939136862755E-01    0.923639150307579904E+01    0.734252630713337773E+01   -0.696245999961745410E+00   -0.168177375793457031E+02
    0.862532320367379590E+01    0.413173347110231071E+00    0.457446813583374023E+00    0.984550433050799612E+01    0.895228395886472583E+01   -0.114952659369289245E+01   -0.167856712341308594E+02
    0.844697889208676500E+01    0.313809834123534859E+00    0.153166279196739197E+00    0.979746918185445637E+01    0.774557891210984284E+01   -0.761570509273610252E+00   -0.167736454010009766E+02
    0.867526118814944525E+01    0.643422557663816730E+00    0.239683105610311031E-02    0.931157221846466676E+01    0.817605501188191752E+01   -0.117262150339791171E+01   -0.167639579772949219E+02
    0.830013462864540941E+01    0.436852154597949127E+00    0.460243642330169678E+00    0.929324678482290167E+01    0.835924090804502207E+01   -0.510789483781343367E+00   -0.167607040405273438E+02
    0.869070472169476105E+01    0.409483398411160660E+00    0.137751996517181396E-01    0.985558813435821079E+01    0.803057374448922623E+01   -0.109494864891786836E+01   -0.167478218078613281E+02
    0.838296073534394104E+01    0.306199419068695244E+00    0.139931574463844299E+00    0.972628888949382997E+01    0.740667720594884216E+01   -0.686806097576545760E+00   -0.167284870147705078E+02
    0.838296073534394104E+01    0.306199419068695244E+00    0.139931574463844299E+00    0.972628888949382997E+01    0.740667720594884216E+01   -0.686806097576545760E+00   -0.167284870147705078E+02
    0.858127200840398352E+01    0.436813840852111723E+00    0.285572856664657593E+00    0.965997741260873610E+01    0.861145960133035437E+01   -0.869771791974827790E+00   -0.167124900817871094E+02
    0.858127200840398352E+01    0.436813840852111723E+00    0.285572856664657593E+00    0.965997741260873610E+01    0.861145960133035437E+01   -0.869771791974827790E+00   -0.167124900817871094E+02
    0.867321181773248817E+01    0.593355814998265063E+00    0.470331348478794098E-01    0.932051552641553016E+01    0.706888271054877482E+01   -0.975310204824021421E+00   -0.166933403015136719E+02
    0.873218733751455645E+01    0.665745185654607829E+00    0.200124472379684448E+00    0.923508199916948769E+01    0.786834148862908744E+01   -0.165615127012076280E+01   -0.166933383941650391E+02
    0.850261869232346790E+01    0.572485449042410721E+00    0.282401859760284424E+00    0.922187459630679918E+01    0.756970028214820712E+01   -0.970953366312291788E+00   -0.166869888305664062E+02
    0.879863180559694946E+01    0.700670251098577834E+00    0.312361389398574829E+00    0.924319860267271665E+01    0.795687069950543968E+01   -0.177791534413285368E+01   -0.166744079589843750E+02
    0.882008218653695764E+01    0.633835366290001812E+00    0.371999472379684448E+00    0.936065494274009957E+01    0.759296004480125841E+01   -0.189952701141731439E+01   -0.166362667083740234E+02
    0.854455667221378690E+01    0.432313468966255887E+00    0.107853746414184570E+01    0.943994721998364916E+01    0.753494993061776874E+01   -0.142035015940861742E+01   -0.166324691772460938E+02
    0.834981832747289943E+01    0.328574272549778390E+00    0.173863142728805542E+00    0.966418168113344578E+01    0.823836745742682552E+01   -0.744476820769851777E+00   -0.165876426696777344E+02
    0.868560424501505857E+01    0.604838420084506501E+00    0.231465727090835571E+00    0.948814606922985959E+01    0.864468117201678865E+01   -0.140682256561537566E+01   -0.165656375885009766E+02
    0.868560424501505857E+01    0.604838420084506501E+00    0.231465727090835571E+00    0.948814606922985959E+01    0.864468117201678865E+01   -0.140682256561537566E+01   -0.165656375885009766E+02
    0.887210790320165721E+01    0.605868909596567362E+00    0.145182609558105469E+00    0.956772128838421310E+01    0.767054374429267316E+01   -0.210602665292348412E+01   -0.164976692199707031E+02
    0.843500184220085991E+01    0.395847323682371188E+00    0.870274156332015991E-01    0.951557841088038359E+01    0.788268599552942195E+01   -0.542240929724176368E+00   -0.164633464813232422E+02
    0.850251451711037731E+01    0.466689997687670444E+00    0.794197767972946167E-01    0.944073111142419918E+01    0.755676427180809362E+01   -0.116129740003011261E+01   -0.164352493286132812E+02
    0.850251451711037731E+01    0.466689997687670444E+00    0.794197767972946167E-01    0.944073111142419918E+01    0.755676427180809362E+01   -0.116129740003011261E+01   -0.164352493286132812E+02
    0.862914236786181199E+01    0.525151815659363086E+00    0.297098010778427124E+00    0.946406551743342561E+01    0.814569937386556120E+01   -0.150266739551596862E+01   -0.163971862792968750E+02
    0.869264240628044860E+01    0.620637094445739446E+00    0.128710284829139709E+00    0.926147744131787753E+01    0.749734260626274729E+01   -0.168811533882629461E+01   -0.163868026733398438E+02
    0.869264240628044860E+01    0.620637094445739446E+00    0.128710284829139709E+00    0.926147744131787753E+01    0.749734260626274729E+01   -0.168811533882629461E+01   -0.163868026733398438E+02
    0.876276272167707759E+01    0.642992999371417517E+00    0.171534549444913864E-01    0.934018834373839901E+01    0.764868918826626398E+01   -0.177351891172171339E+01   -0.163788585662841797E+02
    0.876276272167707759E+01    0.642992999371417517E+00    0.171534549444913864E-01    0.934018834373839901E+01    0.764868918826626398E+01   -0.177351891172171339E+01   -0.163788585662841797E+02
    0.850268516212552328E+01    0.344619600536783088E+00    0.964925959706306458E-01    0.978427881091798213E+01    0.793542659546195672E+01   -0.705486667261898903E+00   -0.163502635955810547E+02
    0.842348315381766888E+01    0.432974382272137248E+00    0.153419941663742065E+00    0.934809943572507329E+01    0.763941061827226164E+01   -0.521924086681592181E+00   -0.163228893280029297E+02
    0.842348315381766888E+01    0.432974382272137248E+00    0.153419941663742065E+00    0.934809943572507329E+01    0.763941061827226164E+01   -0.521924086681592181E+00   -0.163228893280029297E+02
    0.878093202977440868E+01    0.617457260134651187E+00    0.328229546546936035E+00    0.936643799848191527E+01    0.792191892515185181E+01   -0.193141602219876107E+01   -0.162987365722656250E+02
    0.855436446156532782E+01    0.453995782605654097E+00    0.806718587875366211E+00    0.951559935430362991E+01    0.845630251328294236E+01   -0.122775515427886450E+01   -0.162971324920654297E+02
    0.855436446156532782E+01    0.453995782605654097E+00    0.806718587875366211E+00    0.951559935430362991E+01    0.845630251328294236E+01   -0.122775515427886450E+01   -0.162971324920654297E+02
    0.856762562496010815E+01    0.398392324452895574E+00    0.744473576545715332E+00    0.972412162898113941E+01    0.876933277438232928E+01   -0.102496421158451012E+01   -0.162952461242675781E+02
    0.856762562496010815E+01    0.398392324452895574E+00    0.744473576545715332E+00    0.972412162898113941E+01    0.876933277438232928E+01   -0.102496421158451012E+01   -0.162952461242675781E+02
    0.832804265780014141E+01    0.439492432103687047E+00    0.269160363823175430E-01    0.923553342626508922E+01    0.707029364020371265E+01   -0.762599814544744126E+00   -0.162883853912353516E+02
    0.832804265780014141E+01    0.439492432103687047E+00    0.269160363823175430E-01    0.923553342626508922E+01    0.707029364020371265E+01   -0.762599814544744126E+00   -0.162883853912353516E+02
    0.852799359229706333E+01    0.570634756544637689E+00    0.297233134508132935E+00    0.915443518313454163E+01    0.725022364640152350E+01   -0.973788382090631677E+00   -0.162653293609619141E+02
    0.846219432787792414E+01    0.386038866387657553E+00    0.738942157477140427E-02    0.960756020615551698E+01    0.808953110661857089E+01   -0.539504981089312663E+00   -0.162499942779541016E+02
    0.842723363906338641E+01    0.509684406181880156E+00    0.195605173707008362E+00    0.930364664311404255E+01    0.835272117103353828E+01   -0.834366985806945127E+00   -0.162469902038574219E+02
    0.845902881427234554E+01    0.344200746459808082E+00    0.965435355901718140E-01    0.972263163738761271E+01    0.808296319427153342E+01   -0.819434059614176258E+00   -0.162259712219238281E+02
    0.845902881427234554E+01    0.344200746459808082E+00    0.965435355901718140E-01    0.972263163738761271E+01    0.808296319427153342E+01   -0.819434059614176258E+00   -0.162259712219238281E+02
    0.863958028292868718E+01    0.425873135944477066E+00    0.218761116266250610E+00    0.969618983977441395E+01    0.747934047514007538E+01   -0.110292095337958296E+01   -0.162255897521972656E+02
    0.844438833847025805E+01    0.292518573851915709E+00    0.285986989736557007E+00    0.994107581735267587E+01    0.867119724635152522E+01   -0.838976665550982270E+00   -0.162240371704101562E+02
    0.844438833847025805E+01    0.292518573851915709E+00    0.285986989736557007E+00    0.994107581735267587E+01    0.867119724635152522E+01   -0.838976665550982270E+00   -0.162240371704101562E+02
    0.868113917437618632E+01    0.569886825585649404E+00    0.742206573486328125E-01    0.942935754485950461E+01    0.781447129217446879E+01   -0.128713095040622916E+01   -0.162217636108398438E+02
    0.846529175554655744E+01    0.374716820723400179E+00    0.953402444720268250E-01    0.964100373340244587E+01    0.745679899681728209E+01   -0.808182223313782533E+00   -0.162035655975341797E+02
    0.846529175554655744E+01    0.374716820723400179E+00    0.953402444720268250E-01    0.964100373340244587E+01    0.745679899681728209E+01   -0.808182223313782533E+00   -0.162035655975341797E+02
    0.866989221022346790E+01    0.440553382811246452E+00    0.103043876588344574E+00    0.971173950961522259E+01    0.799834762241644803E+01   -0.106955031983378568E+01   -0.161717166900634766E+02
    0.874215113935980348E+01    0.586234665519915543E+00    0.891028642654418945E-01    0.945481248288625409E+01    0.726393467889395605E+01   -0.184025763979190060E+01   -0.161378440856933594E+02
    0.847551594135806141E+01    0.319140169381373906E+00    0.266055107116699219E+00    0.975875810270598798E+01    0.744254240730250594E+01   -0.510115077575398645E+00   -0.161274147033691406E+02
    0.837607378169153982E+01    0.497590061757966495E+00    0.357113152742385864E+00    0.922878759568641271E+01    0.782348076289556005E+01   -0.115714222988478377E+01   -0.161202011108398438E+02
    0.837607378169153982E+01    0.497590061757966495E+00    0.357113152742385864E+00    0.922878759568641271E+01    0.782348076289556005E+01   -0.115714222988478377E+01   -0.161202011108398438E+02
    0.862179853841875143E+01    0.354503847272284900E+00    0.106428965926170349E+00    0.988733643321148037E+01    0.785359800543339670E+01   -0.663590592114758238E+00   -0.161009807586669922E+02
    0.887112106798003985E+01    0.592109695289776417E+00    0.310123860836029053E+00    0.955379426420657296E+01    0.771985415234306771E+01   -0.205406170380661690E+01   -0.160967216491699219E+02
    0.834784483131827493E+01    0.448704605228620657E+00    0.310211002826690674E+00    0.931235989315434587E+01    0.826055677567921265E+01   -0.641611302368606529E+00   -0.160250492095947266E+02
    0.877542369510325315E+01    0.680060651268869831E+00    0.609247833490371704E-01    0.926146893643345948E+01    0.754249563708136339E+01   -0.167566634670147385E+01   -0.159814510345458984E+02
    0.877542369510325315E+01    0.680060651268869831E+00    0.609247833490371704E-01    0.926146893643345948E+01    0.754249563708136339E+01   -0.167566634670147385E+01   -0.159814510345458984E+02
    0.867683354315967925E+01    0.362877785030689404E+00    0.578251145780086517E-01    0.996068998100057179E+01    0.805503679714680132E+01   -0.877805372082122615E+00   -0.159649486541748047E+02
    0.853880803891020435E+01    0.504020141783776299E+00    0.478123761713504791E-01    0.937991785275209722E+01    0.737998054515414381E+01   -0.121130623807806947E+01   -0.159543628692626953E+02
    0.853880803891020435E+01    0.504020141783776299E+00    0.478123761713504791E-01    0.937991785275209722E+01    0.737998054515414381E+01   -0.121130623807806947E+01   -0.159543628692626953E+02
    0.854167007461617267E+01    0.469111304313815036E+00    0.438818693161010742E+00    0.945271733463851227E+01    0.818618109096281366E+01   -0.124674575604445925E+01   -0.159306621551513672E+02
    0.851629191551905151E+01    0.381208216403305156E+00    0.270560741424560547E+00    0.963177749700531649E+01    0.775780664526216945E+01   -0.816728321775644250E+00   -0.159265508651733398E+02
    0.861528989678978263E+01    0.646531288628554468E+00    0.863782316446304321E-01    0.915812342515065403E+01    0.757502259908371212E+01   -0.126608422579383006E+01   -0.159045524597167969E+02
    0.861528989678978263E+01    0.646531288628554468E+00    0.863782316446304321E-01    0.915812342515065403E+01    0.757502259908371212E+01   -0.126608422579383006E+01   -0.159045524597167969E+02
    0.872698134745421861E+01    0.580733259048121120E+00    0.281183362007141113E+00    0.943562411285729752E+01    0.789898931017395611E+01   -0.185938861877031703E+01   -0.158935508728027344E+02
    0.872698134745421861E+01    0.580733259048121120E+00    0.281183362007141113E+00    0.943562411285729752E+01    0.789898931017395611E+01   -0.185938861877031703E+01   -0.158935508728027344E+02
    0.852777913261024523E+01    0.328796493280171076E+00    0.344829827547073364E+00    0.985003466870264077E+01    0.735850114952632950E+01   -0.937426971653746444E+00   -0.158692989349365234E+02
    0.852777913261024523E+01    0.328796493280171076E+00    0.344829827547073364E+00    0.985003466870264077E+01    0.735850114952632950E+01   -0.937426971653746444E+00   -0.158692989349365234E+02
    0.875873016197566301E+01    0.608014579441437775E+00    0.107373452186584473E+01    0.950691384602103362E+01    0.881330769262016922E+01   -0.131309634642639494E+01   -0.158640022277832031E+02
    0.875873016197566301E+01    0.608014579441437775E+00    0.107373452186584473E+01    0.950691384602103362E+01    0.881330769262016922E+01   -0.131309634642639494E+01   -0.158640022277832031E+02
    0.864974316557454515E+01    0.617302033707810782E+00    0.157454416155815125E+00    0.922333613853652778E+01    0.721253911770638734E+01   -0.147421119290806257E+01   -0.158401527404785156E+02
    0.864974316557454515E+01    0.617302033707810782E+00    0.157454416155815125E+00    0.922333613853652778E+01    0.721253911770638734E+01   -0.147421119290806257E+01   -0.158401527404785156E+02
    0.832230664692426103E+01    0.392477597193850836E+00    0.185862705111503601E+00    0.935557912851960971E+01    0.785064536310808769E+01   -0.721364213847936364E+00   -0.158371543884277344E+02
    0.828042608417508141E+01    0.361710534066539469E+00    0.650292783975601196E-01    0.950255563621955091E+01    0.818649400005542915E+01   -0.587641273074110959E+00   -0.158023977279663086E+02
    0.828042608417508141E+01    0.361710534066539469E+00    0.650292783975601196E-01    0.950255563621955091E+01    0.818649400005542915E+01   -0.587641273074110959E+00   -0.158023977279663086E+02
    0.844251859697770612E+01    0.261855342331318575E+00    0.115581147372722626E+00    0.998023572083339161E+01    0.813413848745702595E+01   -0.368180366822535410E+00   -0.157666225433349609E+02
    0.844251859697770612E+01    0.261855342331318575E+00    0.115581147372722626E+00    0.998023572083339161E+01    0.813413848745702595E+01   -0.368180366822535410E+00   -0.157666225433349609E+02
    0.806482612631454820E+01    0.318882267910899964E+00    0.140435039997100830E+00    0.919262656511681264E+01    0.765916218322472986E+01    0.875237901476348945E-01   -0.157442531585693359E+02
    0.806482612631454820E+01    0.318882267910899964E+00    0.140435039997100830E+00    0.919262656511681264E+01    0.765916218322472986E+01    0.875237901476348945E-01   -0.157442531585693359E+02
    0.857338067485748567E+01    0.452589674476329307E+00    0.137548983097076416E+01    0.931612912352034250E+01    0.763685567934567633E+01   -0.160798826368831471E+01   -0.157388610839843750E+02
    0.857338067485748567E+01    0.452589674476329307E+00    0.137548983097076416E+01    0.931612912352034250E+01    0.763685567934567633E+01   -0.160798826368831471E+01   -0.157388610839843750E+02
    0.840520578265663509E+01    0.279452757969887222E+00    0.130081236362457275E+00    0.988272435228418011E+01    0.825553370832014721E+01   -0.474529584848162767E+00   -0.156830024719238281E+02
    0.843692983227656867E+01    0.340863841909902432E+00    0.688032150268554688E+00    0.964801368254019032E+01    0.799569371798963058E+01   -0.989279621548234678E+00   -0.156694908142089844E+02
    0.864056423634038140E+01    0.530537483136326760E+00    0.168875455856323242E+01    0.934298154234715383E+01    0.861505287887603899E+01   -0.140843371077795743E+01   -0.156440572738647461E+02
    0.864056423634038140E+01    0.530537483136326760E+00    0.168875455856323242E+01    0.934298154234715383E+01    0.861505287887603899E+01   -0.140843371077795743E+01   -0.156440572738647461E+02
    0.868352747093892319E+01    0.653906542318449469E+00    0.143375517800450325E-01    0.930482399047233066E+01    0.824992735831069801E+01   -0.142390349254383608E+01   -0.156336841583251953E+02
    0.846636493829681136E+01    0.432042805579661571E+00    0.240327730774879456E+00    0.956747497565854310E+01    0.864135574468856227E+01   -0.630867281193409291E+00   -0.156315307617187500E+02
    0.846636493829681136E+01    0.432042805579661571E+00    0.240327730774879456E+00    0.956747497565854310E+01    0.864135574468856227E+01   -0.630867281193409291E+00   -0.156315307617187500E+02
    0.866186863457700973E+01    0.598757681231276706E+00    0.123881745338439941E+01    0.905649472363562147E+01    0.789068740796519474E+01   -0.112988797833821053E+01   -0.156256542205810547E+02
    0.866186863457700973E+01    0.598757681231276706E+00    0.123881745338439941E+01    0.905649472363562147E+01    0.789068740796519474E+01   -0.112988797833821053E+01   -0.156256542205810547E+02
    0.862462994087799473E+01    0.462838255055843972E+00    0.139356267452239990E+01    0.939475467387228491E+01    0.822011480250710314E+01   -0.160738021462738701E+01   -0.156222791671752930E+02
    0.842986418342032273E+01    0.414178660395145504E+00    0.471998393535614014E+00    0.943461851229503345E+01    0.821373338833433309E+01   -0.812241357394700492E+00   -0.156125316619873047E+02
    0.869664314012157824E+01    0.672389266043356693E+00    0.226036831736564636E+00    0.916679975813196357E+01    0.727559002153463030E+01   -0.962352930502629489E+00   -0.155679636001586914E+02
    0.832489063766194093E+01    0.275536833350794597E+00    0.122066356241703033E+00    0.974776796206591278E+01    0.786430402797077654E+01   -0.334615130537328831E+00   -0.155388889312744141E+02
    0.871374963806508518E+01    0.655365609108476299E+00    0.856438159942626953E+00    0.901430990561631162E+01    0.745413323579906972E+01   -0.999116469230393989E+00   -0.155366621017456055E+02
    0.871374963806508518E+01    0.655365609108476299E+00    0.856438159942626953E+00    0.901430990561631162E+01    0.745413323579906972E+01   -0.999116469230393989E+00   -0.155366621017456055E+02
    0.828294598166016449E+01    0.338066654160570801E+00    0.129427447915077209E+00    0.955299548698469181E+01    0.799727804343953164E+01   -0.777735350164780570E+00   -0.155349674224853516E+02
    0.828294598166016449E+01    0.338066654160570801E+00    0.129427447915077209E+00    0.955299548698469181E+01    0.799727804343953164E+01   -0.777735350164780570E+00   -0.155349674224853516E+02
    0.835502652973862681E+01    0.402632762402526490E+00    0.321730189025402069E-01    0.935112410045606879E+01    0.763547789260910470E+01   -0.520997691451064782E+00   -0.155337028503417969E+02
    0.835502652973862681E+01    0.402632762402526490E+00    0.321730189025402069E-01    0.935112410045606879E+01    0.763547789260910470E+01   -0.520997691451064782E+00   -0.155337028503417969E+02
    0.834905116462349994E+01    0.483938767283155491E+00    0.168195605278015137E+00    0.924838879439278116E+01    0.821364796443871370E+01   -0.668991799672932652E+00   -0.155268259048461914E+02
    0.852494475702674315E+01    0.469761936666883761E+00    0.131028547883033752E+00    0.947980558922722238E+01    0.767718969748974445E+01   -0.112871774664394287E+01   -0.155149564743041992E+02
    0.842445815741847603E+01    0.275823755552849326E+00    0.370743870735168457E+00    0.987484978384341439E+01    0.792388714588413645E+01   -0.477445915328396087E+00   -0.154763584136962891E+02
    0.866491646464288934E+01    0.659693738456837764E+00    0.513211004436016083E-01    0.914363548241966662E+01    0.748989609893909591E+01   -0.976779803901679733E+00   -0.154674606323242188E+02
    0.866491646464288934E+01    0.659693738456837764E+00    0.513211004436016083E-01    0.914363548241966662E+01    0.748989609893909591E+01   -0.976779803901679733E+00   -0.154674606323242188E+02
    0.861980431490957422E+01    0.503958085392901212E+00    0.118787312507629395E+01    0.925917539992705052E+01    0.758683892549040539E+01   -0.140845474810659566E+01   -0.154671945571899414E+02
    0.845001044026129833E+01    0.386243024121226963E+00    0.144105166196823120E+00    0.957396930017827863E+01    0.792104265631572524E+01   -0.591685070078965092E+00   -0.154035148620605469E+02
    0.845001044026129833E+01    0.386243024121226963E+00    0.144105166196823120E+00    0.957396930017827863E+01    0.792104265631572524E+01   -0.591685070078965092E+00   -0.154035148620605469E+02
    0.850517208487630683E+01    0.314896165699965591E+00    0.168137133121490479E+00    0.989730307810095589E+01    0.802859223068215222E+01   -0.793139394469245529E+00   -0.153828315734863281E+02
    0.844358131094199926E+01    0.400894231612120788E+00    0.963021814823150635E-01    0.962495847202868582E+01    0.849423357575554938E+01   -0.939594403195818106E+00   -0.153805179595947266E+02
    0.838300621662850176E+01    0.319430599117039193E+00    0.347637720406055450E-01    0.968775806367437298E+01    0.814361736435137296E+01   -0.449770220323838066E+00   -0.153585214614868164E+02
    0.838300621662850176E+01    0.319430599117039193E+00    0.347637720406055450E-01    0.968775806367437298E+01    0.814361736435137296E+01   -0.449770220323838066E+00   -0.153585214614868164E+02
    0.852664137271820266E+01    0.287938200283900381E+00    0.576242208480834961E+00    0.993917510679920113E+01    0.802557027174684734E+01   -0.621319518411932670E+00   -0.153556976318359375E+02
    0.852664137271820266E+01    0.287938200283900381E+00    0.576242208480834961E+00    0.993917510679920113E+01    0.802557027174684734E+01   -0.621319518411932670E+00   -0.153556976318359375E+02
    0.865416545348990240E+01    0.567791222568325371E+00    0.163270771503448486E+00    0.939430451348438211E+01    0.823828934312228434E+01   -0.116138388564350237E+01   -0.153387470245361328E+02
    0.854060989267652992E+01    0.532047085548320808E+00    0.417475588619709015E-01    0.929492280149774608E+01    0.767948453266813136E+01   -0.116409418351181615E+01   -0.153264341354370117E+02
    0.851270326144364908E+01    0.359027443870337637E+00    0.322339177131652832E+00    0.970302989523402282E+01    0.763548508197166598E+01   -0.893774925215737648E+00   -0.153151836395263672E+02
    0.851270326144364908E+01    0.359027443870337637E+00    0.322339177131652832E+00    0.970302989523402282E+01    0.763548508197166598E+01   -0.893774925215737648E+00   -0.153151836395263672E+02
    0.832201511790067627E+01    0.323669559373422400E+00    0.801744386553764343E-01    0.967959438717111453E+01    0.850923280336596832E+01   -0.592461403113764717E+00   -0.153130683898925781E+02
    0.832201511790067627E+01    0.323669559373422400E+00    0.801744386553764343E-01    0.967959438717111453E+01    0.850923280336596832E+01   -0.592461403113764717E+00   -0.153130683898925781E+02
    0.863008469363665398E+01    0.502772807306468783E+00    0.130440032482147217E+01    0.927438390220973297E+01    0.783898705633504811E+01   -0.148981686271309277E+01   -0.152871255874633789E+02
    0.863008469363665398E+01    0.502772807306468783E+00    0.130440032482147217E+01    0.927438390220973297E+01    0.783898705633504811E+01   -0.148981686271309277E+01   -0.152871255874633789E+02
    0.835506917829028595E+01    0.489096656261199692E+00    0.166473031044006348E+00    0.923693883489939793E+01    0.787395039297242150E+01   -0.107308223969776084E+01   -0.152869396209716797E+02
    0.842271641756519429E+01    0.388528794975677161E+00    0.521689355373382568E-01    0.956568681182180569E+01    0.831021690908666777E+01   -0.545902393510713013E+00   -0.152661685943603516E+02
    0.842271641756519429E+01    0.388528794975677161E+00    0.521689355373382568E-01    0.956568681182180569E+01    0.831021690908666777E+01   -0.545902393510713013E+00   -0.152661685943603516E+02
    0.868633296924063103E+01    0.639986662337256540E+00    0.787860900163650513E-01    0.937445381157140822E+01    0.845363491810691770E+01   -0.136282159741549247E+01   -0.152635231018066406E+02
    0.868633296924063103E+01    0.639986662337256540E+00    0.787860900163650513E-01    0.937445381157140822E+01    0.845363491810691770E+01   -0.136282159741549247E+01   -0.152635231018066406E+02
    0.831720917033846519E+01    0.339004367855209210E+00    0.342073619365692139E+00    0.954447471021033955E+01    0.815258435321398522E+01   -0.570183127694266600E+00   -0.152357912063598633E+02
    0.850350355619113429E+01    0.468537872983389281E+00    0.563197992742061615E-01    0.942429184374159945E+01    0.727268651032058688E+01   -0.108557013158897608E+01   -0.152311820983886719E+02
    0.871379486415367843E+01    0.625904833792744864E+00    0.228900447487831116E+00    0.940135432236704638E+01    0.847393376059799053E+01   -0.130794466755891414E+01   -0.152296047210693359E+02
    0.871379486415367843E+01    0.625904833792744864E+00    0.228900447487831116E+00    0.940135432236704638E+01    0.847393376059799053E+01   -0.130794466755891414E+01   -0.152296047210693359E+02
    0.836553122979856312E+01    0.399276980814823712E+00    0.201735392212867737E+00    0.944590038737907278E+01    0.780400079646284617E+01   -0.626725283286043044E+00   -0.152060947418212891E+02
    0.836553122979856312E+01    0.399276980814823712E+00    0.201735392212867737E+00    0.944590038737907278E+01    0.780400079646284617E+01   -0.626725283286043044E+00   -0.152060947418212891E+02
    0.854149711369655051E+01    0.611601970360361902E+00    0.139735788106918335E+00    0.922445015548632696E+01    0.815832003585897070E+01   -0.116248482780082329E+01   -0.151529407501220703E+02
    0.856275634673549746E+01    0.526690566064027088E+00    0.534360334277153015E-01    0.942398890236444231E+01    0.840009033583071130E+01   -0.798520021708104100E+00   -0.151493234634399414E+02
    0.847315130345380041E+01    0.543963050059997344E+00    0.808910802006721497E-01    0.915295688048621336E+01    0.760582336151402849E+01   -0.709474954777268518E+00   -0.151244535446166992E+02
    0.847315130345380041E+01    0.543963050059997344E+00    0.808910802006721497E-01    0.915295688048621336E+01    0.760582336151402849E+01   -0.709474954777268518E+00   -0.151244535446166992E+02
    0.841026106496613224E+01    0.447247551371795060E+00    0.355603575706481934E+00    0.933604540212350642E+01    0.813309358230810098E+01   -0.922993869893625973E+00   -0.151128063201904297E+02
    0.848611850718165428E+01    0.416730838718671670E+00    0.673830509185791016E-01    0.951957395296065201E+01    0.775873307119276490E+01   -0.648263250791534462E+00   -0.151094570159912109E+02
    0.848611850718165428E+01    0.416730838718671670E+00    0.673830509185791016E-01    0.951957395296065201E+01    0.775873307119276490E+01   -0.648263250791534462E+00   -0.151094570159912109E+02
    0.852598713641215866E+01    0.304831122755615080E+00    0.210257023572921753E+00    0.995846787818339507E+01    0.842535328101050318E+01   -0.788868202794265505E+00   -0.151074714660644531E+02
    0.838691256443087241E+01    0.504662135707080850E+00    0.173043757677078247E+00    0.918326875939606069E+01    0.773463900969013185E+01   -0.622587544155226880E+00   -0.150999116897583008E+02
    0.838691256443087241E+01    0.504662135707080850E+00    0.173043757677078247E+00    0.918326875939606069E+01    0.773463900969013185E+01   -0.622587544155226880E+00   -0.150999116897583008E+02
    0.847223964541591634E+01    0.313405738371050568E+00    0.476335734128952026E-01    0.985660131511580317E+01    0.809911390608899495E+01   -0.704122533922691529E+00   -0.150909032821655273E+02
    0.852000794634350811E+01    0.508694643692267245E+00    0.451013371348381042E-01    0.930287835052728340E+01    0.739975107179060654E+01   -0.775062803607774242E+00   -0.150872831344604492E+02
    0.852000794634350811E+01    0.508694643692267245E+00    0.451013371348381042E-01    0.930287835052728340E+01    0.739975107179060654E+01   -0.775062803607774242E+00   -0.150872831344604492E+02
    0.864477208716937540E+01    0.587972111834116462E+00    0.570807568728923798E-01    0.928723904914070175E+01    0.764957962051005236E+01   -0.102719812466211957E+01   -0.150604896545410156E+02
    0.864477208716937540E+01    0.587972111834116462E+00    0.570807568728923798E-01    0.928723904914070175E+01    0.764957962051005236E+01   -0.102719812466211957E+01   -0.150604896545410156E+02
    0.858492879105860140E+01    0.526016439069414199E+00    0.240976154804229736E+00    0.940313725172683057E+01    0.824999516259930132E+01   -0.127050105826225845E+01   -0.150559825897216797E+02
    0.851642625801652464E+01    0.497446676240844654E+00    0.419285804033279419E+00    0.929759332337058453E+01    0.752312993005065511E+01   -0.118724339464492123E+01   -0.150426807403564453E+02
    0.849782280879049168E+01    0.518544666066660276E+00    0.127116754651069641E+00    0.925819737352922445E+01    0.755543383115419687E+01   -0.115868891749123937E+01   -0.150179557800292969E+02
    0.853119633192325644E+01    0.593188129959942745E+00    0.375802755355834961E+00    0.922793372003670065E+01    0.828506034701726080E+01   -0.112740860858437597E+01   -0.150106811523437500E+02
    0.853119633192325644E+01    0.593188129959942745E+00    0.375802755355834961E+00    0.922793372003670065E+01    0.828506034701726080E+01   -0.112740860858437597E+01   -0.150106811523437500E+02
    0.868879082883431053E+01    0.623963339578353260E+00    0.767270922660827637E-01    0.926734272765278000E+01    0.740921567292463035E+01   -0.124085660040957446E+01   -0.150084705352783203E+02
    0.868879082883431053E+01    0.623963339578353260E+00    0.767270922660827637E-01    0.926734272765278000E+01    0.740921567292463035E+01   -0.124085660040957446E+01   -0.150084705352783203E+02
    0.867859808380844022E+01    0.569042320469487550E+00    0.168723389506340027E+00    0.937619533606487465E+01    0.754588623377243817E+01   -0.137536340064167506E+01   -0.149833164215087891E+02
    0.845280731267757268E+01    0.498634350664059367E+00    0.162735328078269958E+00    0.923316453317364783E+01    0.728250485775789791E+01   -0.963753157400220273E+00   -0.149634380340576172E+02
    0.843377602098807344E+01    0.320100413857944133E+00    0.232389178127050400E-01    0.982667802610929719E+01    0.857584277593040589E+01   -0.600854362806344078E+00   -0.149529991149902344E+02
    0.843377602098807344E+01    0.320100413857944133E+00    0.232389178127050400E-01    0.982667802610929719E+01    0.857584277593040589E+01   -0.600854362806344078E+00   -0.149529991149902344E+02
    0.848968162173795804E+01    0.466935354324126140E+00    0.317460522055625916E-01    0.944275054756067966E+01    0.788785627534362721E+01   -0.104509711727264687E+01   -0.149501552581787109E+02
    0.855393919089033972E+01    0.383019452618571787E+00    0.619863793253898621E-01    0.969201678515546661E+01    0.804583903402081191E+01   -0.612923467497707986E+00   -0.149477005004882812E+02
    0.855393919089033972E+01    0.383019452618571787E+00    0.619863793253898621E-01    0.969201678515546661E+01    0.804583903402081191E+01   -0.612923467497707986E+00   -0.149477005004882812E+02
    0.864152445395437141E+01    0.589059117888918071E+00    0.195166677236557007E+00    0.926498803866175002E+01    0.725229754971968354E+01   -0.129991276333583716E+01   -0.149183387756347656E+02
    0.853322600292876565E+01    0.325926903270947588E+00    0.368127482943236828E-02    0.991438310214396346E+01    0.809772077220772246E+01   -0.798882032043985113E+00   -0.149031581878662109E+02
    0.860698403585696603E+01    0.593258926076303372E+00    0.247111961245536804E+00    0.921102446458980140E+01    0.724798439947268225E+01   -0.120400590478052028E+01   -0.148968620300292969E+02
    0.825689270764325656E+01    0.313938424079490241E+00    0.201980158686637878E+00    0.955775010547758441E+01    0.808190057534060813E+01   -0.469806886253921752E+00   -0.148967075347900391E+02
    0.825689270764325656E+01    0.313938424079490241E+00    0.201980158686637878E+00    0.955775010547758441E+01    0.808190057534060813E+01   -0.469806886253921752E+00   -0.148967075347900391E+02
    0.842980297545813073E+01    0.452399833893270487E+00    0.274020731449127197E+00    0.934476659844085944E+01    0.807669759158982714E+01   -0.887565863056216431E+00   -0.148750591278076172E+02
    0.842980297545813073E+01    0.452399833893270487E+00    0.274020731449127197E+00    0.934476659844085944E+01    0.807669759158982714E+01   -0.887565863056216431E+00   -0.148750591278076172E+02
    0.855873301083292226E+01    0.589321521206304322E+00    0.344471424818038940E+00    0.918720812537820386E+01    0.758651036399093037E+01   -0.894507217535693400E+00   -0.148717632293701172E+02
    0.859270477444030512E+01    0.336868041714810107E+00    0.487613081932067871E-01    0.990731829565532429E+01    0.800938920842111024E+01   -0.679556503823993019E+00   -0.148590316772460938E+02
    0.867897771383284322E+01    0.585902754513503710E+00    0.797087922692298889E-01    0.940786486994145221E+01    0.823557101416124482E+01   -0.136323993125364251E+01   -0.148526630401611328E+02
    0.852273145127483467E+01    0.532308067068876456E+00    0.475507490336894989E-01    0.932615403362463624E+01    0.809164531463889425E+01   -0.100358097853615069E+01   -0.148053998947143555E+02
    0.836765811883295640E+01    0.498777762842066985E+00    0.129529684782028198E+00    0.917812296113258164E+01    0.731066958455448912E+01   -0.782062374060493060E+00   -0.147972984313964844E+02
    0.836765811883295640E+01    0.498777762842066985E+00    0.129529684782028198E+00    0.917812296113258164E+01    0.731066958455448912E+01   -0.782062374060493060E+00   -0.147972984313964844E+02
    0.833038813623048213E+01    0.403218638545584540E+00    0.366287648677825928E+00    0.928673817017212144E+01    0.735925195577871794E+01   -0.621379007800797911E+00   -0.147825498580932617E+02
    0.833038813623048213E+01    0.403218638545584540E+00    0.366287648677825928E+00    0.928673817017212144E+01    0.735925195577871794E+01   -0.621379007800797911E+00   -0.147825498580932617E+02
    0.847358391013686152E+01    0.454907483315088179E+00    0.218422468751668930E-01    0.948867257084808813E+01    0.821770645306841629E+01   -0.944945883776169726E+00   -0.147804079055786133E+02
    0.836546478602992671E+01    0.425447113946201216E+00    0.203030481934547424E-01    0.932388241859404587E+01    0.738058277051586398E+01   -0.773588797080482671E+00   -0.147690219879150391E+02
    0.836546478602992671E+01    0.425447113946201216E+00    0.203030481934547424E-01    0.932388241859404587E+01    0.738058277051586398E+01   -0.773588797080482671E+00   -0.147690219879150391E+02
    0.850517674172869498E+01    0.488577653832870329E+00    0.253395378589630127E+00    0.941087728073713414E+01    0.834487641012891501E+01   -0.103059807596786102E+01   -0.147618341445922852E+02
    0.844547965377292265E+01    0.438407508308039318E+00    0.149348810315132141E+00    0.950983292354369958E+01    0.847766180448617135E+01   -0.714989832554711713E+00   -0.147457580566406250E+02
    0.844547965377292265E+01    0.438407508308039318E+00    0.149348810315132141E+00    0.950983292354369958E+01    0.847766180448617135E+01   -0.714989832554711713E+00   -0.147457580566406250E+02
    0.864834995636755544E+01    0.626833627552995321E+00    0.162003204226493835E+00    0.934677521442895909E+01    0.844625181410027537E+01   -0.116953776275686616E+01   -0.147344398498535156E+02
    0.864834995636755544E+01    0.626833627552995321E+00    0.162003204226493835E+00    0.934677521442895909E+01    0.844625181410027537E+01   -0.116953776275686616E+01   -0.147344398498535156E+02
    0.853463123482763741E+01    0.485417609702568642E+00    0.395233124494552612E+00    0.946461094592141094E+01    0.848651984859428588E+01   -0.107746494975858287E+01   -0.147257251739501953E+02
    0.853463123482763741E+01    0.485417609702568642E+00    0.395233124494552612E+00    0.946461094592141094E+01    0.848651984859428588E+01   -0.107746494975858287E+01   -0.147257251739501953E+02
    0.846210002738924416E+01    0.450091681118086728E+00    0.306705534458160400E+00    0.936240321844957890E+01    0.782276430321043659E+01   -0.945840512710639292E+00   -0.147194747924804688E+02
    0.846210002738924416E+01    0.450091681118086728E+00    0.306705534458160400E+00    0.936240321844957890E+01    0.782276430321043659E+01   -0.945840512710639292E+00   -0.147194747924804688E+02
    0.858485782333509206E+01    0.613391767405973787E+00    0.344092458486557007E+00    0.920759470344659725E+01    0.811641938190497392E+01   -0.100028750988080661E+01   -0.147184591293334961E+02
    0.844313744842502167E+01    0.441788390567702138E+00    0.242886960506439209E+00    0.949269541561340802E+01    0.855551525741646834E+01   -0.731635772022248165E+00   -0.146891880035400391E+02
    0.844313744842502167E+01    0.441788390567702138E+00    0.242886960506439209E+00    0.949269541561340802E+01    0.855551525741646834E+01   -0.731635772022248165E+00   -0.146891880035400391E+02
    0.859846249156544751E+01    0.634203816888015415E+00    0.135519057512283325E+00    0.920646321778207977E+01    0.821918691698479975E+01   -0.944237647502290889E+00   -0.146874370574951172E+02
    0.850941725399630222E+01    0.606292008045115405E+00    0.309876482933759689E-01    0.919187992574285850E+01    0.801721035658510495E+01   -0.113285667706429671E+01   -0.146691608428955078E+02
    0.850941725399630222E+01    0.606292008045115405E+00    0.309876482933759689E-01    0.919187992574285850E+01    0.801721035658510495E+01   -0.113285667706429671E+01   -0.146691608428955078E+02
    0.864867155333035065E+01    0.574818537165864618E+00    0.245705500245094299E+00    0.931984839945629773E+01    0.779128037601910961E+01   -0.135875356692546578E+01   -0.146616401672363281E+02
    0.829999954991372846E+01    0.264580310608872327E+00    0.133287891745567322E+00    0.989430147533855475E+01    0.886580977979450502E+01   -0.462364082274660859E+00   -0.146601514816284180E+02
    0.829999954991372846E+01    0.264580310608872327E+00    0.133287891745567322E+00    0.989430147533855475E+01    0.886580977979450502E+01   -0.462364082274660859E+00   -0.146601514816284180E+02
    0.833443938362304237E+01    0.249480254461864309E+00    0.919247940182685852E-01    0.995575541147207055E+01    0.868721964422692672E+01   -0.413156264160523090E+00   -0.146589879989624023E+02
    0.830174622529385609E+01    0.422564911201637805E+00    0.214783102273941040E-01    0.931676331517323320E+01    0.808798292817657583E+01   -0.533761387842122348E+00   -0.146517257690429688E+02
    0.854128305950149169E+01    0.492976072673591392E+00    0.356058925390243530E+00    0.934476637921037678E+01    0.760335734126041363E+01   -0.112376763839329374E+01   -0.146506881713867188E+02
    0.829544857336512464E+01    0.451264261444752679E+00    0.211710587143898010E+00    0.917204627522574434E+01    0.736061192842709033E+01   -0.445216347465997808E+00   -0.146454591751098633E+02
    0.840689099934980355E+01    0.468296276426271862E+00    0.340811818838119507E+00    0.928379870022622811E+01    0.798849894136827121E+01   -0.883347776277060515E+00   -0.146198635101318359E+02
    0.840689099934980355E+01    0.468296276426271862E+00    0.340811818838119507E+00    0.928379870022622811E+01    0.798849894136827121E+01   -0.883347776277060515E+00   -0.146198635101318359E+02
    0.866381896323937006E+01    0.565630155342975893E+00    0.480264991521835327E+00    0.936333984280150844E+01    0.825045785285009714E+01   -0.139705989965680244E+01   -0.146112365722656250E+02
    0.866381896323937006E+01    0.565630155342975893E+00    0.480264991521835327E+00    0.936333984280150844E+01    0.825045785285009714E+01   -0.139705989965680244E+01   -0.146112365722656250E+02
    0.843939204373686636E+01    0.468412953855628866E+00    0.441790491342544556E+00    0.940152516323533227E+01    0.853314716960207065E+01   -0.718146644457480887E+00   -0.146023559570312500E+02
    0.850389769992800204E+01    0.360120167487306964E+00    0.152912428602576256E-01    0.971522198031577844E+01    0.823106828782119848E+01   -0.536630777822890481E+00   -0.145681982040405273E+02
    0.831531519424204824E+01    0.376733901331373022E+00    0.782309100031852722E-01    0.942204183224877490E+01    0.781182997462842632E+01   -0.510506303942101836E+00   -0.145671873092651367E+02
    0.831531519424204824E+01    0.376733901331373022E+00    0.782309100031852722E-01    0.942204183224877490E+01    0.781182997462842632E+01   -0.510506303942101836E+00   -0.145671873092651367E+02
    0.856172560201339117E+01    0.523716092486417262E+00    0.172858927398920059E-01    0.936149640238797787E+01    0.770885308738126351E+01   -0.116367733381742577E+01   -0.145491113662719727E+02
    0.856172560201339117E+01    0.523716092486417262E+00    0.172858927398920059E-01    0.936149640238797787E+01    0.770885308738126351E+01   -0.116367733381742577E+01   -0.145491113662719727E+02
    0.847190539544986265E+01    0.372378186382570142E+00    0.263930186629295349E-01    0.965723421423902550E+01    0.788166679385538060E+01   -0.799162562105804275E+00   -0.145425262451171875E+02
    0.832786527787085973E+01    0.268710578918134213E+00    0.639961510896682739E-01    0.986106902008236830E+01    0.821430291006945978E+01   -0.566460811379013940E+00   -0.145406913757324219E+02
    0.832786527787085973E+01    0.268710578918134213E+00    0.639961510896682739E-01    0.986106902008236830E+01    0.821430291006945978E+01   -0.566460811379013940E+00   -0.145406913757324219E+02
    0.843993218112890808E+01    0.339676656474579119E+00    0.244659900665283203E+00    0.974822561057915493E+01    0.858498000786239679E+01   -0.784528624975625810E+00   -0.145400695800781250E+02
    0.843993218112890808E+01    0.339676656474579119E+00    0.244659900665283203E+00    0.974822561057915493E+01    0.858498000786239679E+01   -0.784528624975625810E+00   -0.145400695800781250E+02
    0.865154551558921980E+01    0.616395239388734084E+00    0.108730280771851540E-02    0.928673832530197707E+01    0.790621952302158526E+01   -0.122712385639902100E+01   -0.145375881195068359E+02
    0.856257035527271526E+01    0.583620980944669632E+00    0.603149831295013428E-01    0.929582149658982537E+01    0.817003188479885090E+01   -0.114628008541261051E+01   -0.145313386917114258E+02
    0.863225924635030495E+01    0.567560132014677254E+00    0.148862972855567932E+00    0.931632010958040269E+01    0.775092906391175163E+01   -0.122641497626131168E+01   -0.145302295684814453E+02
    0.855387917937262721E+01    0.318663067116360277E+00    0.114408276975154877E+00    0.989371913781716472E+01    0.762715706506806246E+01   -0.571865966266935866E+00   -0.145291900634765625E+02
    0.836944833629645579E+01    0.356529069808489196E+00    0.158844202756881714E+00    0.964512769854672491E+01    0.861796663750175185E+01   -0.658270431751742047E+00   -0.145260457992553711E+02
    0.839327486750688045E+01    0.417425279964958484E+00    0.214936807751655579E+00    0.933938418320225061E+01    0.743341500763770036E+01   -0.629839570324680853E+00   -0.145223789215087891E+02
    0.850730469949152557E+01    0.527033020719129719E+00    0.875336304306983948E-01    0.936175884861533447E+01    0.835396107514384312E+01   -0.103835786446122502E+01   -0.145186309814453125E+02
    0.845808884752316104E+01    0.500966449598441055E+00    0.450507462024688721E+00    0.934408727170587028E+01    0.848792488918878085E+01   -0.696086345293585484E+00   -0.145078468322753906E+02
    0.845808884752316104E+01    0.500966449598441055E+00    0.450507462024688721E+00    0.934408727170587028E+01    0.848792488918878085E+01   -0.696086345293585484E+00   -0.145078468322753906E+02
    0.829621153778269438E+01    0.376143893691830766E+00    0.591971687972545624E-01    0.936653282225366191E+01    0.746322866105720895E+01   -0.575503275248392843E+00   -0.145046167373657227E+02
    0.850039944365427225E+01    0.514749749113101895E+00    0.140646457672119141E+00    0.926157882302692137E+01    0.754995687414271099E+01   -0.108024831899857876E+01   -0.144975395202636719E+02
    0.850297977139536165E+01    0.488964791981158609E+00    0.145416676998138428E+00    0.945299416810819437E+01    0.853204066874362432E+01   -0.742103929940443940E+00   -0.144969158172607422E+02
    0.853900446249870271E+01    0.502133695662358548E+00    0.308141529560089111E+00    0.936389054762908124E+01    0.810373121375455874E+01   -0.102168783093274262E+01   -0.144912385940551758E+02
    0.836427644454527375E+01    0.351228284891096421E+00    0.193129867315292358E+00    0.968173118843011871E+01    0.873539210697932589E+01   -0.648586285291959719E+00   -0.144872646331787109E+02
    0.851327839476858905E+01    0.553420590734250983E+00    0.270839512348175049E+00    0.929737266249977701E+01    0.836605623218412831E+01   -0.700478033489171592E+00   -0.144806776046752930E+02
    0.851048799379148946E+01    0.533958023285555416E+00    0.520691990852355957E+00    0.931623772436100417E+01    0.844842671540844314E+01   -0.870617825176522642E+00   -0.144706926345825195E+02
    0.851048799379148946E+01    0.533958023285555416E+00    0.520691990852355957E+00    0.931623772436100417E+01    0.844842671540844314E+01   -0.870617825176522642E+00   -0.144706926345825195E+02
    0.846081187305212801E+01    0.469134570026738751E+00    0.617253929376602173E-01    0.943078700392586811E+01    0.837371204347301834E+01   -0.922589319127662399E+00   -0.144686422348022461E+02
    0.851792126024900043E+01    0.490913183504273043E+00    0.243604108691215515E-01    0.946727962019521208E+01    0.837503366962897289E+01   -0.105776179468534925E+01   -0.144677276611328125E+02
    0.835619609762215809E+01    0.485628914864239258E+00    0.243622526526451111E+00    0.918766542212998161E+01    0.774858301320970888E+01   -0.577882742976300268E+00   -0.144660034179687500E+02
    0.835619609762215809E+01    0.485628914864239258E+00    0.243622526526451111E+00    0.918766542212998161E+01    0.774858301320970888E+01   -0.577882742976300268E+00   -0.144660034179687500E+02
    0.835021347227414523E+01    0.388008759505907852E+00    0.202454939484596252E+00    0.939806772170442883E+01    0.700619881886238360E+01   -0.687626220786503595E+00   -0.144615821838378906E+02
    0.854521118601920193E+01    0.389122312305476337E+00    0.584242343902587891E-01    0.968242830041536884E+01    0.801751556068149895E+01   -0.763743744966266069E+00   -0.144576835632324219E+02
    0.854760034820405856E+01    0.550013904843374535E+00    0.157685101032257080E+00    0.927344518757586300E+01    0.780251782122565629E+01   -0.121025857671759995E+01   -0.144567823410034180E+02
    0.859730634248628256E+01    0.537242095879774118E+00    0.175308406352996826E+00    0.932964125843056991E+01    0.763322039492306192E+01   -0.114520757489050418E+01   -0.144483280181884766E+02
    0.851843492702276706E+01    0.489293475909911124E+00    0.261518239974975586E+00    0.933598729584783626E+01    0.718270198125035453E+01   -0.107220653761483198E+01   -0.144432535171508789E+02
    0.832721331509156570E+01    0.407499829572167904E+00    0.254252135753631592E+00    0.929108324616581882E+01    0.749001216344420584E+01   -0.609857724455937333E+00   -0.144306983947753906E+02
    0.849546475033888626E+01    0.334089045003294671E+00    0.415657982230186462E-01    0.981993874207206652E+01    0.797354794408117939E+01   -0.722687591560389420E+00   -0.144260339736938477E+02
    0.851352499186645240E+01    0.318397784680767792E+00    0.138081908226013184E+00    0.987364103181518971E+01    0.823897168753839715E+01   -0.580725915855017760E+00   -0.144209232330322266E+02
    0.846056010329332508E+01    0.494774509356591397E+00    0.238440498709678650E+00    0.924514882145532013E+01    0.701290071514328872E+01   -0.879296143668450991E+00   -0.144159517288208008E+02
    0.836521270615176959E+01    0.337344063994867216E+00    0.376347154378890991E-01    0.966660452300270734E+01    0.840875034069319582E+01   -0.663723137804993923E+00   -0.144046039581298828E+02
    0.851435792886965892E+01    0.577750344461122611E+00    0.413271710276603699E-01    0.922519265336389438E+01    0.754304335729625297E+01   -0.111729984750134492E+01   -0.143888750076293945E+02
    0.848924572164531988E+01    0.333081877785179226E+00    0.989679545164108276E-01    0.979295019195267358E+01    0.794822290545236232E+01   -0.612755320211706200E+00   -0.143790283203125000E+02
    0.859449181333499723E+01    0.523036287195281613E+00    0.133755937218666077E+00    0.936684139783579184E+01    0.753501365783997823E+01   -0.107615005184872814E+01   -0.143784542083740234E+02
    0.846339467986113014E+01    0.387797275565855026E+00    0.110253386199474335E+00    0.969846210545236076E+01    0.877011261889120064E+01   -0.588779525501929468E+00   -0.143640689849853516E+02
    0.834222090051917320E+01    0.271256179546593923E+00    0.181714802980422974E+00    0.980307598763446286E+01    0.778144033259955847E+01   -0.478257452005566686E+00   -0.143578605651855469E+02
    0.850090868344025452E+01    0.505746310438651148E+00    0.131983011960983276E+00    0.927351235621499370E+01    0.727463122605971169E+01   -0.916841523201408659E+00   -0.143503103256225586E+02
    0.845693013994801746E+01    0.285564865625083264E+00    0.214241907000541687E+00    0.988596390514537582E+01    0.754768904708128829E+01   -0.492319183186947784E+00   -0.143491201400756836E+02
    0.844044296854510634E+01    0.440445645673636532E+00    0.421865284442901611E-01    0.942578100260477036E+01    0.766020494182396039E+01   -0.881629157459174140E+00   -0.143437614440917969E+02
    0.862119551181864985E+01    0.557303890447739203E+00    0.472763270139694214E+00    0.937045538137194178E+01    0.837509880867687428E+01   -0.125465324800996791E+01   -0.143435621261596680E+02
    0.841950115154486234E+01    0.458877318858131378E+00    0.137259155511856079E+00    0.930031117408664620E+01    0.713563350766976434E+01   -0.817965246048586003E+00   -0.143400516510009766E+02
    0.844536990394063025E+01    0.536145670847252065E+00    0.172360986471176147E+00    0.919600617384407570E+01    0.750219463704471323E+01   -0.868987236939486207E+00   -0.143219976425170898E+02
    0.849143147402338450E+01    0.353465523108724367E+00    0.783439055085182190E-01    0.971545616094257802E+01    0.820399627248139041E+01   -0.606292800273966703E+00   -0.143169660568237305E+02
    0.831160440456396898E+01    0.367689964887129073E+00    0.201755076646804810E+00    0.950357523837097418E+01    0.833246570709671097E+01   -0.595596238206680617E+00   -0.143160285949707031E+02
    0.838396134377699731E+01    0.405526133607555073E+00    0.230060830712318420E+00    0.939978779604751935E+01    0.742827540238701811E+01   -0.730647929626810688E+00   -0.143151445388793945E+02
    0.849516706157779922E+01    0.549521914274382683E+00    0.314876884222030640E+00    0.918808980182109813E+01    0.755129540302041669E+01   -0.827831533620514870E+00   -0.143145179748535156E+02
    0.852081117321565529E+01    0.499980957885440780E+00    0.148098766803741455E+00    0.930247662672652531E+01    0.714275886807492633E+01   -0.100504954377752465E+01   -0.143137664794921875E+02
    0.839994996113590275E+01    0.443198098025262832E+00    0.999987348914146423E-01    0.936516803263080000E+01    0.808856173348282503E+01   -0.817920005818254525E+00   -0.143051033020019531E+02
    0.850967029428484523E+01    0.504517378625911062E+00    0.243747100234031677E+00    0.932316804568768376E+01    0.801976218363217974E+01   -0.108952991258835152E+01   -0.142983360290527344E+02
    0.830974559292218018E+01    0.264883588839680328E+00    0.973030179738998413E-01    0.979707688493077988E+01    0.793727093061318634E+01   -0.408774824395258474E+00   -0.142971191406250000E+02
    0.858773599314775460E+01    0.547642887380676902E+00    0.529312640428543091E-01    0.931972523950541465E+01    0.713936486702441453E+01   -0.104136278046669428E+01   -0.142911653518676758E+02
    0.860017513834829472E+01    0.538826870658487556E+00    0.223029758781194687E-01    0.942278128382003466E+01    0.823196591182651893E+01   -0.114881637496325339E+01   -0.142864942550659180E+02
    0.861492033015696634E+01    0.578189537991016689E+00    0.864709019660949707E-01    0.934553730189736420E+01    0.824672426791753210E+01   -0.100366019627292391E+01   -0.142841300964355469E+02
    0.843452446345009932E+01    0.552492475523550408E+00    0.636406913399696350E-01    0.922219712139165004E+01    0.779506093549368018E+01   -0.100924130696941572E+01   -0.142791013717651367E+02
    0.862662196824688898E+01    0.650211798086187120E+00    0.171976178884506226E+00    0.926635703533255395E+01    0.836527132439869625E+01   -0.101326755632425236E+01   -0.142777557373046875E+02
    0.844264527813832188E+01    0.462527734905499532E+00    0.903412699699401855E-01    0.937292369537571979E+01    0.822594320445975136E+01   -0.609702631825415287E+00   -0.142740631103515625E+02
    0.844612314607915948E+01    0.543060417886940261E+00    0.881689861416816711E-01    0.922552929380635511E+01    0.761599451903633007E+01   -0.107347881438463055E+01   -0.142694129943847656E+02
    0.849508231146397463E+01    0.483635380887072808E+00    0.187652766704559326E+00    0.951962964713205295E+01    0.868995710282259637E+01   -0.722887103091941485E+00   -0.142657022476196289E+02
    0.840627639576585040E+01    0.416161839509012255E+00    0.126662090420722961E+00    0.942815579573189311E+01    0.765527585907812291E+01   -0.752893176844130485E+00   -0.142417087554931641E+02
    0.843991360968895776E+01    0.446185929566462969E+00    0.213538184762001038E+00    0.935958380714061278E+01    0.736258486056619343E+01   -0.919582608335610008E+00   -0.142400360107421875E+02
    0.839902750257600772E+01    0.483377029188762908E+00    0.192184299230575562E+00    0.926018868528182537E+01    0.784884899496402433E+01   -0.841918703607132057E+00   -0.142372913360595703E+02
    0.845940770408416931E+01    0.526534570612788966E+00    0.124447479844093323E+00    0.927130351931071850E+01    0.813232339221335820E+01   -0.745501465153901810E+00   -0.142316856384277344E+02
    0.860367531680682163E+01    0.625810286975382213E+00    0.316039957106113434E-01    0.916640031482426920E+01    0.706748938898660306E+01   -0.898956530868427972E+00   -0.142114934921264648E+02
    0.850137776533799716E+01    0.531320357284764455E+00    0.169943332672119141E+00    0.924270080270900607E+01    0.759517816739640850E+01   -0.109916876870650615E+01   -0.142105398178100586E+02
    0.837373311489026584E+01    0.501603383578693607E+00    0.298370253294706345E-01    0.915425141402819165E+01    0.717132283173770535E+01   -0.537686082730932435E+00   -0.142093000411987305E+02
    0.843871948338059852E+01    0.536900303182365035E+00    0.163306906819343567E+00    0.923261465522841540E+01    0.820538661126867552E+01   -0.783954106995848443E+00   -0.141881723403930664E+02
    0.836855634645693947E+01    0.336764463917245016E+00    0.255547761917114258E+00    0.962075041585826618E+01    0.779417547335339478E+01   -0.728817649132610823E+00   -0.141863212585449219E+02
    0.860663053888830731E+01    0.551562426997070032E+00    0.112540334463119507E+00    0.938656943708051905E+01    0.825577862398017714E+01   -0.113116720141084159E+01   -0.141859474182128906E+02
    0.831043233483088883E+01    0.380051063514080023E+00    0.392827950417995453E-01    0.938620595905922173E+01    0.767039997542586072E+01   -0.586800383417429128E+00   -0.141798572540283203E+02
    0.856343309082870441E+01    0.528760217613965855E+00    0.209633141756057739E+00    0.929970155783172636E+01    0.726240996539741257E+01   -0.988600645314298365E+00   -0.141764583587646484E+02
    0.843315819176119241E+01    0.520753806872975344E+00    0.198912486433982849E+00    0.918285515413016107E+01    0.790144877667898271E+01   -0.608437424642259028E+00   -0.141726255416870117E+02
    0.856513087224602110E+01    0.518110323958782870E+00    0.153916358947753906E+00    0.932970447805060488E+01    0.747699382142692226E+01   -0.104838992108881524E+01   -0.141553173065185547E+02
    0.856698287326972618E+01    0.562461570201416516E+00    0.216731086373329163E+00    0.931918180916366268E+01    0.832457149498082494E+01   -0.857649085176050541E+00   -0.141283998489379883E+02
    0.849446612550799074E+01    0.547766895446930246E+00    0.148700699210166931E+00    0.912258056269606854E+01    0.710431200042390554E+01   -0.553596252934853705E+00   -0.141224117279052734E+02
    0.845050187600054237E+01    0.451769187140991679E+00    0.196383714675903320E+00    0.930660419752657475E+01    0.713172667607747801E+01   -0.669816311993257196E+00   -0.141216344833374023E+02
    0.847382154672610177E+01    0.320533202638354220E+00    0.145642668940126896E-02    0.984103377284492886E+01    0.844547072934766696E+01   -0.544466324143946023E+00   -0.141195011138916016E+02
    0.851706448768920055E+01    0.504719420251815709E+00    0.242220431566238403E+00    0.928980873759911319E+01    0.744683094632435250E+01   -0.106961329603749689E+01   -0.141119689941406250E+02
    0.830792446818994712E+01    0.269575527429764428E+00    0.116833843290805817E+00    0.979594022332568670E+01    0.825378350897188895E+01   -0.454317508676105986E+00   -0.140942287445068359E+02
    0.838495934233600693E+01    0.359002434895472788E+00    0.126586660742759705E+00    0.958140847310583865E+01    0.773420634587266775E+01   -0.716495551519445106E+00   -0.140911436080932617E+02
    0.833105194401912996E+01    0.375382952435668882E+00    0.291276097297668457E+00    0.939982262595015960E+01    0.757850309223899554E+01   -0.649943693859785343E+00   -0.140827636718750000E+02
    0.841885630382334682E+01    0.433709274972976733E+00    0.352783888578414917E+00    0.934328258576361925E+01    0.794594494116913808E+01   -0.700925808951339491E+00   -0.140754814147949219E+02
    0.842056446145931048E+01    0.281205877427854134E+00    0.394219793379306793E-01    0.993935363684880357E+01    0.856140025106606650E+01   -0.573283147370251100E+00   -0.140736598968505859E+02
    0.830030357528699092E+01    0.239544504853255291E+00    0.668172836303710938E-01    0.997063350380691560E+01    0.875714456927175355E+01   -0.423526474242400086E+00   -0.140690708160400391E+02
    0.832327809726413115E+01    0.357739784788932147E+00    0.538574950769543648E-02    0.955563112319618391E+01    0.818893652199260380E+01   -0.671582857596988214E+00   -0.140674314498901367E+02
    0.848614871276565630E+01    0.510856007329021256E+00    0.128075689077377319E+00    0.933474947757345319E+01    0.823267472031775149E+01   -0.985709204000416284E+00   -0.140666093826293945E+02
    0.835396873612519109E+01    0.250147220498310174E+00    0.455747172236442566E-01    0.998428134134864820E+01    0.870240048274731848E+01   -0.487999255719124836E+00   -0.140545787811279297E+02
    0.851065430477132168E+01    0.514934565759379903E+00    0.228408724069595337E-01    0.930818037713244273E+01    0.777719903200477347E+01   -0.927043340724432730E+00   -0.140460948944091797E+02
    0.838303396243452603E+01    0.291648861942187254E+00    0.732112899422645569E-01    0.984116883012803534E+01    0.863251201078790231E+01   -0.502975578065641304E+00   -0.140436468124389648E+02
    0.830478859499315725E+01    0.246035276664213237E+00    0.115797951817512512E+00    0.988576266041226503E+01    0.754572295071409105E+01   -0.467766234878899345E+00   -0.140359573364257812E+02
    0.838058206692217134E+01    0.490565024257162474E+00    0.208221346139907837E+00    0.916280031131291572E+01    0.717804597287591584E+01   -0.570576337760245966E+00   -0.140285167694091797E+02
    0.860514597228522149E+01    0.597641337716130372E+00    0.142236098647117615E+00    0.932619643585291769E+01    0.833811234278086033E+01   -0.120272722855364722E+01   -0.140269260406494141E+02
    0.850297600292661215E+01    0.579601328523244419E+00    0.107496470212936401E+00    0.924989085438866532E+01    0.819783066307453723E+01   -0.114126215329467451E+01   -0.140056352615356445E+02
    0.843355442053995930E+01    0.453072315100146172E+00    0.208261281251907349E+00    0.931749582139129018E+01    0.724789345645765248E+01   -0.858021115533061263E+00   -0.139947872161865234E+02
    0.849210022176033874E+01    0.478064791658888710E+00    0.391564629971981049E-01    0.936767058214265447E+01    0.784678071347366757E+01   -0.772940001947140187E+00   -0.139877195358276367E+02
    0.836235554348129639E+01    0.284276630826330867E+00    0.116042517125606537E+00    0.980949899513789170E+01    0.820799288701095797E+01   -0.508737431479078239E+00   -0.139815311431884766E+02
    0.847776907503104660E+01    0.468662540930816940E+00    0.110021740198135376E+00    0.935665634796441381E+01    0.702989880053004157E+01   -0.946354565843889217E+00   -0.139800062179565430E+02
    0.831063621969876465E+01    0.371675776595109697E+00    0.435448102653026581E-01    0.944675678475925196E+01    0.771911236364179754E+01   -0.488470074162918877E+00   -0.139749116897583008E+02
    0.847494930741406804E+01    0.469631597171201121E+00    0.431016981601715088E-01    0.934618148838558582E+01    0.765219243113885295E+01   -0.690800099649362176E+00   -0.139628009796142578E+02
    0.854291142506780865E+01    0.542760918424897043E+00    0.308163166046142578E-01    0.936805543729453838E+01    0.836430388706334682E+01   -0.100141743051161036E+01   -0.139576683044433594E+02
    0.849525298572352305E+01    0.502273211560827049E+00    0.161875799298286438E+00    0.927828640805617688E+01    0.725631405591227185E+01   -0.886700303533883627E+00   -0.139455194473266602E+02
    0.833962945995454241E+01    0.270087030195024058E+00    0.576134473085403442E-01    0.988258627409664570E+01    0.868311924605154317E+01   -0.463021688842778056E+00   -0.139404125213623047E+02
    0.843002602745191965E+01    0.455570202251252609E+00    0.308696739375591278E-01    0.932075933579055338E+01    0.765661803043182942E+01   -0.689479400869615677E+00   -0.139227514266967773E+02
    0.835769348387007405E+01    0.402394715579528661E+00    0.167694449424743652E+00    0.935591612468547318E+01    0.703809388890693555E+01   -0.601882937129758266E+00   -0.139173622131347656E+02
    0.835411683847330266E+01    0.307062948403571345E+00    0.380415432155132294E-01    0.971800435659799078E+01    0.788701451097287709E+01   -0.564035665988487533E+00   -0.139164161682128906E+02
    0.846913551600990822E+01    0.294428562786377579E+00    0.118358597159385681E+00    0.990776966719037588E+01    0.806324347873379210E+01   -0.644515172671604075E+00   -0.139162616729736328E+02
    0.837453826266405699E+01    0.443883182383885244E+00    0.765644088387489319E-01    0.929168366689734349E+01    0.770308846694382865E+01   -0.703733815100141769E+00   -0.139126882553100586E+02
    0.834203373991270603E+01    0.261474219686477716E+00    0.259587243199348450E-01    0.988882182914459662E+01    0.820832198410007408E+01   -0.487420878559847059E+00   -0.139109945297241211E+02
    0.854030564883173327E+01    0.550420945438203413E+00    0.107055410742759705E+00    0.928361098959819131E+01    0.793544871949554942E+01   -0.120203581204081789E+01   -0.138869781494140625E+02
    0.843551541811648065E+01    0.433841166458008409E+00    0.103591188788414001E+00    0.944275647231864035E+01    0.796229534180708320E+01   -0.743376831923021175E+00   -0.138831977844238281E+02
    0.853293806850872549E+01    0.524317609822864683E+00    0.643965005874633789E-01    0.930053693641528234E+01    0.721531073934058931E+01   -0.103065111501311502E+01   -0.138665647506713867E+02
    0.840028451551209976E+01    0.249882787158720143E+00    0.149608165025711060E+00    0.999366345092052377E+01    0.794893982917913000E+01   -0.525105386130251262E+00   -0.138656272888183594E+02
    0.835368282432240683E+01    0.403877687970597921E+00    0.311797317117452621E-01    0.940770343540598120E+01    0.804275100969362100E+01   -0.675234299562841089E+00   -0.138473424911499023E+02
    0.839706252183544599E+01    0.409340010367444052E+00    0.181821525096893311E+00    0.940438730874232398E+01    0.724369337848829442E+01   -0.653192577294498422E+00   -0.138219261169433594E+02
    0.836945718598052402E+01    0.405440219061499796E+00    0.462381429970264435E-01    0.944798838974081079E+01    0.787359202211484099E+01   -0.607878630095935790E+00   -0.137993812561035156E+02
    0.843375979342925142E+01    0.454876876743014691E+00    0.777451507747173309E-02    0.944057998928870568E+01    0.841477245521892492E+01   -0.653857233499864243E+00   -0.134772720336914062E+02
    0.843067599326884576E+01    0.462518440808756925E+00    0.519632995128631592E-01    0.931399916755851542E+01    0.779733886748861238E+01   -0.691072259142843315E+00   -0.134769096374511719E+02
    0.843930348080753845E+01    0.447044858953273894E+00    0.110786609351634979E+00    0.936364252391433638E+01    0.791629572094553691E+01   -0.672396821912804477E+00   -0.134896469116210938E+02
    0.840357086976852585E+01    0.271597487633159385E+00    0.629887953400611877E-01    0.991062281567215209E+01    0.818566947883062923E+01   -0.482399990604671647E+00   -0.136817131042480469E+02
    0.837034237961912453E+01    0.278662298399572850E+00    0.108521794900298119E-01    0.990524307562565198E+01    0.875453932057737205E+01   -0.493017431451467036E+00   -0.137649002075195312E+02
    0.842688928154447936E+01    0.341850985143740294E+00    0.858305841684341431E-01    0.967871402354419175E+01    0.804736205512094749E+01   -0.624294223135591020E+00   -0.136429643630981445E+02
    0.846264940383665909E+01    0.342305924100012093E+00    0.103882379829883575E+00    0.970766268228421403E+01    0.803505160732638579E+01   -0.579829648199050363E+00   -0.136692514419555664E+02
    0.849344529647391155E+01    0.349614676592717832E+00    0.373087264597415924E-01    0.974538960321552494E+01    0.818987809068896055E+01   -0.648457164280817233E+00   -0.136153964996337891E+02
    0.853427856846329647E+01    0.559230372360257411E+00    0.487404828891158104E-02    0.933124339198991315E+01    0.832230069996698063E+01   -0.101408480898385234E+01   -0.136150608062744141E+02
    0.851257994665906104E+01    0.587340482981233203E+00    0.427491664886474609E-01    0.921289861695064616E+01    0.787133756772313031E+01   -0.865884155603754646E+00   -0.131583633422851562E+02
    0.848366599988466774E+01    0.526835118608389941E+00    0.501293092966079712E-01    0.928778397068217032E+01    0.805909677577547967E+01   -0.859266575867875471E+00   -0.136537485122680664E+02
    0.854856229356340869E+01    0.540780425560733136E+00    0.817674770951271057E-01    0.935604092579183622E+01    0.829210183032149040E+01   -0.992009147893453846E+00   -0.135765743255615234E+02
    0.852946375825360370E+01    0.561777123580719517E+00    0.254185646772384644E+00    0.915927665044444517E+01    0.732280760142642961E+01   -0.756855191816354189E+00   -0.130362071990966797E+02
    0.855714740580753208E+01    0.552630724878876434E+00    0.160783112049102783E+00    0.933990737306017316E+01    0.830971826097127853E+01   -0.105950633938869809E+01   -0.137347297668457031E+02
    0.847729980846457387E+01    0.474397962833119746E+00    0.683450698852539062E-01    0.933540527090185002E+01    0.773332464272809794E+01   -0.769007338193640644E+00   -0.135395946502685547E+02
    0.857458587455631260E+01    0.605257202863543009E+00    0.211946852505207062E-01    0.917442261557600247E+01    0.727145057946185869E+01   -0.793870711604021784E+00   -0.130036296844482422E+02
    0.850832474526388438E+01    0.519114971564969108E+00    0.324589759111404419E-01    0.926897463031809821E+01    0.725356684099255666E+01   -0.856961377693315152E+00   -0.137204589843750000E+02
    0.844601701147894701E+01    0.452870547280664948E+00    0.817003287374973297E-02    0.934317607130844507E+01    0.720058371244142315E+01   -0.662273830872852409E+00   -0.136732673645019531E+02
    0.837327283934667221E+01    0.514386119939644115E+00    0.189390163868665695E-01    0.919124011500482396E+01    0.738601000923195450E+01   -0.637063462937225378E+00   -0.132296962738037109E+02
    0.858394665431393733E+01    0.558127247924925074E+00    0.147943506017327309E-01    0.928124072156919766E+01    0.757437924769882898E+01   -0.933319177822503177E+00   -0.136810894012451172E+02
    0.846156431446502033E+01    0.542183250079685819E+00    0.315771140158176422E-01    0.917321193066381824E+01    0.710176901658487569E+01   -0.584660270234910850E+00   -0.137209634780883789E+02
    0.842529957128571816E+01    0.446070166855786432E+00    0.810359865427017212E-01    0.934274484751994372E+01    0.746920064866667044E+01   -0.739491672438110204E+00   -0.134546222686767578E+02
    0.841509804894674218E+01    0.431702013211552049E+00    0.212569817900657654E+00    0.933960283816613313E+01    0.744364065910258343E+01   -0.699594715117038524E+00   -0.135728797912597656E+02
    0.851047759115004965E+01    0.557113168585744445E+00    0.177265018224716187E+00    0.917041012143732992E+01    0.745386159948226812E+01   -0.749197437666133892E+00   -0.132664070129394531E+02
    0.853488523707381219E+01    0.569720261249341497E+00    0.137974202632904053E+00    0.915848550586337318E+01    0.745600021507830935E+01   -0.751587822521354365E+00   -0.136216726303100586E+02
    0.845857001073517267E+01    0.275706402004708973E+00    0.135342970490455627E+00    0.995972958668800423E+01    0.805925849297618768E+01   -0.556190457471741562E+00   -0.137547998428344727E+02
