    0.906166721969744593E+01    0.448006887480708937E+00    0.608629640191793442E-02    0.940101978669381033E+01    0.738687645028323470E+01   -0.553683454660078400E+00   -0.174765548706054688E+02
    0.895232355417464376E+01    0.363185719249514150E+00    0.668709695339202881E+00    0.947744085644638723E+01    0.749383043118086434E+01   -0.547939079287963482E+00   -0.172677078247070312E+02
    0.914826224842817304E+01    0.506362983990876092E+00    0.892412185668945312E+00    0.930495374028876654E+01    0.803466574102989739E+01   -0.858806974505556653E+00   -0.171663513183593750E+02
    0.895182890529674324E+01    0.457272478169653052E+00    0.935864090919494629E+00    0.920880693053923061E+01    0.785144369267682940E+01   -0.483279186495296109E+00   -0.170911159515380859E+02
    0.907558058820708524E+01    0.512491257983007875E+00    0.287034332752227783E+00    0.934958863738808610E+01    0.846359935063885871E+01   -0.218441619002970544E+00   -0.168326187133789062E+02
    0.916518826714909807E+01    0.361606359103705088E+00    0.565629787743091583E-01    0.977718689701161559E+01    0.723184948209659328E+01   -0.388300874002085683E+00   -0.166000690460205078E+02
    0.894233274384845878E+01    0.382797100271581203E+00    0.344416499137878418E+00    0.936677261951142448E+01    0.729833864118947773E+01   -0.414157949510685741E+00   -0.164477348327636719E+02
    0.906331544640992881E+01    0.339846755652057131E+00    0.215415269136428833E+00    0.967748716069758252E+01    0.732634529167426507E+01   -0.405347832273538211E+00   -0.163841323852539062E+02
    0.903011524988885661E+01    0.553670208483072690E+00    0.197493582963943481E+00    0.923201389600505173E+01    0.781480533009413403E+01   -0.688231053818451732E+00   -0.162503986358642578E+02
    0.900155966558010157E+01    0.284797924038433292E+00    0.746857762336730957E+00    0.975527606606197928E+01    0.814125535675697876E+01   -0.337544384803288855E+00   -0.160746021270751953E+02
    0.905239735055226902E+01    0.292531949505527633E+00    0.895441949367523193E+00    0.981549997623474724E+01    0.836584529328602144E+01   -0.505324104838744903E+00   -0.160206089019775391E+02
    0.896021481277540843E+01    0.385593799078494504E+00    0.571113638579845428E-01    0.943923417798141173E+01    0.701533861914402745E+01   -0.366338779751406607E+00   -0.157655668258666992E+02
    0.892505700928908396E+01    0.251742925743494717E+00    0.923109352588653564E+00    0.977385739779193763E+01    0.793649272304379316E+01   -0.316364801097626547E+00   -0.157569818496704102E+02
    0.913925190264808762E+01    0.481691221487688559E+00    0.127047908306121826E+01    0.931054607356262132E+01    0.821498574560770756E+01   -0.978935098500508971E+00   -0.157183084487915039E+02
    0.899329157386584654E+01    0.504278003781570727E+00    0.349040895700454712E+00    0.918566616741354203E+01    0.785749098178322924E+01   -0.424081527833883420E+00   -0.156830692291259766E+02
    0.909956984812243164E+01    0.358716843517386308E+00    0.910695910453796387E+00    0.961236205457256965E+01    0.761220190907797978E+01   -0.700799727769320313E+00   -0.156628608703613281E+02
    0.887753001481777915E+01    0.470450657779480808E+00    0.714244320988655090E-01    0.920433214631052721E+01    0.733977728250679551E+01   -0.342186444343813623E+00   -0.156250514984130859E+02
    0.901423197295451928E+01    0.492265259632174212E+00    0.243336170911788940E+00    0.929749228073550071E+01    0.823810926718914871E+01   -0.476950704151747562E+00   -0.155362453460693359E+02
    0.902099025856579040E+01    0.350021266002310538E+00    0.864585161209106445E+00    0.957055432246251492E+01    0.752001320606926793E+01   -0.536337443793780899E+00   -0.155134172439575195E+02
    0.921943291988971403E+01    0.348371464233616479E+00    0.119607053697109222E+00    0.991454514919256624E+01    0.819034407029842093E+01   -0.594433888610354177E+00   -0.154499073028564453E+02
    0.927365109320118108E+01    0.392541987797626113E+00    0.417766928672790527E+00    0.979764065536375028E+01    0.782539736149224030E+01   -0.707959981113140069E+00   -0.154290227890014648E+02
    0.922174932771084599E+01    0.396619212124318499E+00    0.153074627742171288E-01    0.974202770813531238E+01    0.750249052042745035E+01   -0.490899285093020499E+00   -0.153957700729370117E+02
    0.909596896378755915E+01    0.306164631940268828E+00    0.143816602230072021E+01    0.983649629275917192E+01    0.883115245253155834E+01   -0.749773373360342665E+00   -0.153813877105712891E+02
    0.912934336580591754E+01    0.474686266839978777E+00    0.239927381277084351E+00    0.942888327107545798E+01    0.772544206105975118E+01   -0.757214273802817139E+00   -0.152739276885986328E+02
    0.892700259795283380E+01    0.303849321670361050E+00    0.864514708518981934E+00    0.960388995205298102E+01    0.794333129539790850E+01   -0.439808064759388273E+00   -0.151604547500610352E+02
    0.892700259795283380E+01    0.303849321670361050E+00    0.864514708518981934E+00    0.960388995205298102E+01    0.794333129539790850E+01   -0.439808064759388273E+00   -0.151604547500610352E+02
    0.916265695348773690E+01    0.424026903899870133E+00    0.293658137321472168E+00    0.959501767240647752E+01    0.757532402762130008E+01   -0.635502977181930273E+00   -0.150984687805175781E+02
    0.916853720892278723E+01    0.347867692429415898E+00    0.178022637963294983E+00    0.978348223359618707E+01    0.791183172529040846E+01   -0.334674109118171081E+00   -0.150923347473144531E+02
    0.916853720892278723E+01    0.347867692429415898E+00    0.178022637963294983E+00    0.978348223359618707E+01    0.791183172529040846E+01   -0.334674109118171081E+00   -0.150923347473144531E+02
    0.913354278115508933E+01    0.471375271897842396E+00    0.196809172630310059E+00    0.945871029253498108E+01    0.714269578336862931E+01   -0.718699336103429731E+00   -0.150069122314453125E+02
    0.926016938663514821E+01    0.415595468414218461E+00    0.340328872203826904E+00    0.974098168492229810E+01    0.818038717821942463E+01   -0.755253089459197113E+00   -0.149787969589233398E+02
    0.898452160637368280E+01    0.265394204229694786E+00    0.578973770141601562E+00    0.983922879587793808E+01    0.807137608852480959E+01   -0.302624003838402045E+00   -0.149704875946044922E+02
    0.916871026002540646E+01    0.335974404495798407E+00    0.391117393970489502E+00    0.987917074848629539E+01    0.844583378784654926E+01   -0.545028434942111728E+00   -0.148894729614257812E+02
    0.912022864668592170E+01    0.293104982346569565E+00    0.550982117652893066E+00    0.996330781192228976E+01    0.858088731141004857E+01   -0.565307795891362819E+00   -0.148699855804443359E+02
    0.913895522971663965E+01    0.354563536842046334E+00    0.458035200834274292E+00    0.970395755380849678E+01    0.723463127525098937E+01   -0.538607028701570512E+00   -0.148641872406005859E+02
    0.913895522971663965E+01    0.354563536842046334E+00    0.458035200834274292E+00    0.970395755380849678E+01    0.723463127525098937E+01   -0.538607028701570512E+00   -0.148641872406005859E+02
    0.896727489791119581E+01    0.380637397467024852E+00    0.460008308291435242E-01    0.951033947395168511E+01    0.717454274860098984E+01   -0.335635881292362992E+00   -0.147952356338500977E+02
    0.910800835634119110E+01    0.386897171285873198E+00    0.220933526754379272E+00    0.963524511137118367E+01    0.800155379262518984E+01   -0.621138895108974687E+00   -0.147199382781982422E+02
    0.906644553834261835E+01    0.285437735480576771E+00    0.986999630928039551E+00    0.983924123570511533E+01    0.820455160199222888E+01   -0.535009382385928545E+00   -0.146675281524658203E+02
    0.894815780862386134E+01    0.428144848911370501E+00    0.248890340328216553E+00    0.921629150710911205E+01    0.809799510526808319E+01    0.148968746476103142E+00   -0.146092081069946289E+02
    0.894815780862386134E+01    0.428144848911370501E+00    0.248890340328216553E+00    0.921629150710911205E+01    0.809799510526808319E+01    0.148968746476103142E+00   -0.146092081069946289E+02
    0.911781352801671829E+01    0.406307328518286826E+00    0.574160993099212646E+00    0.955746502320021030E+01    0.736772494991868587E+01   -0.726956987622127349E+00   -0.146042137145996094E+02
    0.911781352801671829E+01    0.406307328518286826E+00    0.574160993099212646E+00    0.955746502320021030E+01    0.736772494991868587E+01   -0.726956987622127349E+00   -0.146042137145996094E+02
    0.909435430032490544E+01    0.420971190245805760E+00    0.129494071006774902E+00    0.959195534068610201E+01    0.825476055709263612E+01   -0.683334155362829376E+00   -0.146038646697998047E+02
    0.910243526215362131E+01    0.367022945939664946E+00    0.143147468566894531E+00    0.968591841451199898E+01    0.758525821925691179E+01   -0.530558516803879776E+00   -0.145792064666748047E+02
    0.920854313522819545E+01    0.351556496604576774E+00    0.172864198684692383E+00    0.983229734732818983E+01    0.751690690115390581E+01   -0.385349768671819692E+00   -0.145533313751220703E+02
    0.906319516339209841E+01    0.378528153827479619E+00    0.189831063151359558E+00    0.961093423350846976E+01    0.821070572093065998E+01   -0.429362110614467163E+00   -0.145524969100952148E+02
    0.907318368566328459E+01    0.293633047303374195E+00    0.108489346504211426E+01    0.981619720304258259E+01    0.820531843996044508E+01   -0.635163344189988655E+00   -0.145041313171386719E+02
    0.914870418844074074E+01    0.533526009576806293E+00    0.114141657948493958E+00    0.927534726585714431E+01    0.745704912247136331E+01   -0.534791285342381739E+00   -0.144986152648925781E+02
    0.907052503846814595E+01    0.392570368113234980E+00    0.668132603168487549E+00    0.957011750410035944E+01    0.817622959780646141E+01   -0.766511476625841404E+00   -0.144984207153320312E+02
    0.907052503846814595E+01    0.392570368113234980E+00    0.668132603168487549E+00    0.957011750410035944E+01    0.817622959780646141E+01   -0.766511476625841404E+00   -0.144984207153320312E+02
    0.902824101482069352E+01    0.406806999184486540E+00    0.235448986291885376E+00    0.944044739207131300E+01    0.732243753041420131E+01   -0.393917201850380039E+00   -0.144616756439208984E+02
    0.925179137099866011E+01    0.403672899091568560E+00    0.427646607160568237E+00    0.977444504314369489E+01    0.854788899739225094E+01   -0.689394335839953687E+00   -0.144604873657226562E+02
    0.915915852284177667E+01    0.535745936806380829E+00    0.246291622519493103E+00    0.934431830060428936E+01    0.814048506090493973E+01   -0.851753440026901343E+00   -0.144313030242919922E+02
    0.915915852284177667E+01    0.535745936806380829E+00    0.246291622519493103E+00    0.934431830060428936E+01    0.814048506090493973E+01   -0.851753440026901343E+00   -0.144313030242919922E+02
    0.891711807280336188E+01    0.332450517097933107E+00    0.213922798633575439E+00    0.956066115692448371E+01    0.800969832696440243E+01   -0.273706324786823663E+00   -0.143046073913574219E+02
    0.921634821897436751E+01    0.384035640378179666E+00    0.171011283993721008E+00    0.972300191691898341E+01    0.765270458479901006E+01   -0.410605968736447613E+00   -0.143023805618286133E+02
    0.911793041298752449E+01    0.345226737915799275E+00    0.596294403076171875E-01    0.980112836381395169E+01    0.787504937263766092E+01   -0.548610745986447990E+00   -0.142819585800170898E+02
    0.902645916884116062E+01    0.495087174230460392E+00    0.126042440533638000E+00    0.927694328160818493E+01    0.791030669320238733E+01   -0.491858275005579326E+00   -0.142758369445800781E+02
    0.896689367129552295E+01    0.399218184557802946E+00    0.266834478825330734E-01    0.948115403308179161E+01    0.785405619809120825E+01   -0.500806403087496799E+00   -0.142416591644287109E+02
    0.896689367129552295E+01    0.399218184557802946E+00    0.266834478825330734E-01    0.948115403308179161E+01    0.785405619809120825E+01   -0.500806403087496799E+00   -0.142416591644287109E+02
    0.920516346033243593E+01    0.379863088781885905E+00    0.621221303939819336E+00    0.972785722732892388E+01    0.814441164192445655E+01   -0.717918204247045777E+00   -0.141427726745605469E+02
    0.920516346033243593E+01    0.379863088781885905E+00    0.621221303939819336E+00    0.972785722732892388E+01    0.814441164192445655E+01   -0.717918204247045777E+00   -0.141427726745605469E+02
    0.914007230994094222E+01    0.308048140736480847E+00    0.424685418605804443E+00    0.991603977989433893E+01    0.799959454296775530E+01   -0.553425204396256198E+00   -0.141226596832275391E+02
    0.914007230994094222E+01    0.308048140736480847E+00    0.424685418605804443E+00    0.991603977989433893E+01    0.799959454296775530E+01   -0.553425204396256198E+00   -0.141226596832275391E+02
    0.899253714894572909E+01    0.358816400739448649E+00    0.100949406623840332E+00    0.959192798992160256E+01    0.777081617873611208E+01   -0.378457274730643167E+00   -0.141134099960327148E+02
    0.899253714894572909E+01    0.358816400739448649E+00    0.100949406623840332E+00    0.959192798992160256E+01    0.777081617873611208E+01   -0.378457274730643167E+00   -0.141134099960327148E+02
    0.905433157277595235E+01    0.426116114129210577E+00    0.459268063306808472E+00    0.946647967106039623E+01    0.762336975392443161E+01   -0.755071034276700193E+00   -0.140800638198852539E+02
    0.905433157277595235E+01    0.426116114129210577E+00    0.459268063306808472E+00    0.946647967106039623E+01    0.762336975392443161E+01   -0.755071034276700193E+00   -0.140800638198852539E+02
    0.920309004224860239E+01    0.381255040480821039E+00    0.558283567428588867E+00    0.970767564172558473E+01    0.805580137391532425E+01   -0.573044473894892326E+00   -0.140250797271728516E+02
    0.920309004224860239E+01    0.381255040480821039E+00    0.558283567428588867E+00    0.970767564172558473E+01    0.805580137391532425E+01   -0.573044473894892326E+00   -0.140250797271728516E+02
    0.920806695266060515E+01    0.568242795406731172E+00    0.466093599796295166E+00    0.911555219956509788E+01    0.767664862952441318E+01   -0.112760045448914603E+00   -0.139973258972167969E+02
    0.920806695266060515E+01    0.568242795406731172E+00    0.466093599796295166E+00    0.911555219956509788E+01    0.767664862952441318E+01   -0.112760045448914603E+00   -0.139973258972167969E+02
    0.913469927129650827E+01    0.315403059123892104E+00    0.779202044010162354E+00    0.983728411980027140E+01    0.812932374728334040E+01   -0.586693467294632898E+00   -0.139943199157714844E+02
    0.916850464491619022E+01    0.294378936344005748E+00    0.477735221385955811E+00    0.998486130890701773E+01    0.818108684243102502E+01   -0.435368481513392691E+00   -0.139605655670166016E+02
    0.918292328151585480E+01    0.541517246255823759E+00    0.179300829768180847E+00    0.934491671531056411E+01    0.800483742873340987E+01   -0.735062085849005786E+00   -0.139588212966918945E+02
    0.921606092283949785E+01    0.424641209270698206E+00    0.269593715667724609E+00    0.967579834192088128E+01    0.833366708442689230E+01   -0.664612916136090526E+00   -0.139415082931518555E+02
    0.921606092283949785E+01    0.424641209270698206E+00    0.269593715667724609E+00    0.967579834192088128E+01    0.833366708442689230E+01   -0.664612916136090526E+00   -0.139415082931518555E+02
    0.930172468332930968E+01    0.357846993397341773E+00    0.172697350382804871E+00    0.995996748682476252E+01    0.809911372155384512E+01   -0.557337798780316751E+00   -0.139241018295288086E+02
    0.930172468332930968E+01    0.357846993397341773E+00    0.172697350382804871E+00    0.995996748682476252E+01    0.809911372155384512E+01   -0.557337798780316751E+00   -0.139241018295288086E+02
    0.916077794669286405E+01    0.314195931664622174E+00    0.425202578306198120E+00    0.990082619493326632E+01    0.789765871971491329E+01   -0.452089526628473237E+00   -0.138469314575195312E+02
    0.904840194679341892E+01    0.347575571585669763E+00    0.657761991024017334E-01    0.967568905173542149E+01    0.795939390770401189E+01   -0.347082278951275081E+00   -0.137819700241088867E+02
    0.907495708238674936E+01    0.405561901799614377E+00    0.183788284659385681E+00    0.953584238113735516E+01    0.742483327715786778E+01   -0.513216328669490185E+00   -0.137787151336669922E+02
    0.914103830796904049E+01    0.375807057174060211E+00    0.594169795513153076E+00    0.963058415315773786E+01    0.747977348063976688E+01   -0.643107341503359464E+00   -0.137456684112548828E+02
    0.914103830796904049E+01    0.375807057174060211E+00    0.594169795513153076E+00    0.963058415315773786E+01    0.747977348063976688E+01   -0.643107341503359464E+00   -0.137456684112548828E+02
    0.915239897332712893E+01    0.344745054454452637E+00    0.364026039838790894E+00    0.981825799709610436E+01    0.856178625834760432E+01   -0.443222370264209520E+00   -0.137406063079833984E+02
    0.915239897332712893E+01    0.344745054454452637E+00    0.364026039838790894E+00    0.981825799709610436E+01    0.856178625834760432E+01   -0.443222370264209520E+00   -0.137406063079833984E+02
    0.909504662508703277E+01    0.289496103126698767E+00    0.300795435905456543E+00    0.991992751333474487E+01    0.765963516108072184E+01   -0.402754629146379717E+00   -0.137146911621093750E+02
    0.909504662508703277E+01    0.289496103126698767E+00    0.300795435905456543E+00    0.991992751333474487E+01    0.765963516108072184E+01   -0.402754629146379717E+00   -0.137146911621093750E+02
    0.922986766189264962E+01    0.350950774774937746E+00    0.182559147477149963E+00    0.990464081531891516E+01    0.849503289917924320E+01   -0.434903335905505894E+00   -0.136910705566406250E+02
    0.922986766189264962E+01    0.350950774774937746E+00    0.182559147477149963E+00    0.990464081531891516E+01    0.849503289917924320E+01   -0.434903335905505894E+00   -0.136910705566406250E+02
    0.915300291661081644E+01    0.521733646888941638E+00    0.543385684490203857E+00    0.916722493182143694E+01    0.782689790579541267E+01   -0.103424652052011457E+00   -0.136829347610473633E+02
    0.915300291661081644E+01    0.521733646888941638E+00    0.543385684490203857E+00    0.916722493182143694E+01    0.782689790579541267E+01   -0.103424652052011457E+00   -0.136829347610473633E+02
    0.896248770751902946E+01    0.489833569651250134E+00    0.695061981678009033E-01    0.923896268366403284E+01    0.819321764269097841E+01   -0.115738839572206320E+00   -0.136786823272705078E+02
    0.896248770751902946E+01    0.489833569651250134E+00    0.695061981678009033E-01    0.923896268366403284E+01    0.819321764269097841E+01   -0.115738839572206320E+00   -0.136786823272705078E+02
    0.904772812619936495E+01    0.324989803770747210E+00    0.737658977508544922E+00    0.965875475656319971E+01    0.723855744965704240E+01   -0.501059371308268942E+00   -0.136608581542968750E+02
    0.904772812619936495E+01    0.324989803770747210E+00    0.737658977508544922E+00    0.965875475656319971E+01    0.723855744965704240E+01   -0.501059371308268942E+00   -0.136608581542968750E+02
    0.916862151974019923E+01    0.345451350963546733E+00    0.614767551422119141E+00    0.978863887500417285E+01    0.795369711093772658E+01   -0.635417821276327288E+00   -0.136365776062011719E+02
    0.917290123504784205E+01    0.485787659667752392E+00    0.465853095054626465E+00    0.936874356088600635E+01    0.705387812327383479E+01   -0.667058219886327075E+00   -0.135634717941284180E+02
    0.917290123504784205E+01    0.485787659667752392E+00    0.465853095054626465E+00    0.936874356088600635E+01    0.705387812327383479E+01   -0.667058219886327075E+00   -0.135634717941284180E+02
    0.929802478776343833E+01    0.369243775483728998E+00    0.976603403687477112E-01    0.996023752676015484E+01    0.842832888669082259E+01   -0.607700730705513337E+00   -0.135626983642578125E+02
    0.915035510438756461E+01    0.467864029423931682E+00    0.507142364978790283E+00    0.940313784946985542E+01    0.802228368247761026E+01   -0.600904768035473325E+00   -0.135306777954101562E+02
    0.915035510438756461E+01    0.467864029423931682E+00    0.507142364978790283E+00    0.940313784946985542E+01    0.802228368247761026E+01   -0.600904768035473325E+00   -0.135306777954101562E+02
    0.923845030831994407E+01    0.378779684154140317E+00    0.799875631928443909E-01    0.980519431977719691E+01    0.777318519167689814E+01   -0.473885532450865288E+00   -0.135153484344482422E+02
    0.923845030831994407E+01    0.378779684154140317E+00    0.799875631928443909E-01    0.980519431977719691E+01    0.777318519167689814E+01   -0.473885532450865288E+00   -0.135153484344482422E+02
    0.904500958085964513E+01    0.329882907183752683E+00    0.475733458995819092E+00    0.969473968427498889E+01    0.752878969969244949E+01   -0.502126703810199526E+00   -0.134888114929199219E+02
    0.904500958085964513E+01    0.329882907183752683E+00    0.475733458995819092E+00    0.969473968427498889E+01    0.752878969969244949E+01   -0.502126703810199526E+00   -0.134888114929199219E+02
    0.909891850901356136E+01    0.365310302028756251E+00    0.485701374709606171E-01    0.970264462606376910E+01    0.816688366979500202E+01   -0.396211732626465807E+00   -0.134725713729858398E+02
    0.909891850901356136E+01    0.365310302028756251E+00    0.485701374709606171E-01    0.970264462606376910E+01    0.816688366979500202E+01   -0.396211732626465807E+00   -0.134725713729858398E+02
    0.926928669779579550E+01    0.355158586770908502E+00    0.316296309232711792E+00    0.991994552873393332E+01    0.820112670744353522E+01   -0.579993619955366135E+00   -0.133844804763793945E+02
    0.896986990587739008E+01    0.365273976239864961E+00    0.140491902828216553E+00    0.955435572447527903E+01    0.822580545042202083E+01   -0.360338620082693462E+00   -0.133762836456298828E+02
    0.912987639613369950E+01    0.523440466103621271E+00    0.177315324544906616E+00    0.927758512509675981E+01    0.752844391114054190E+01   -0.581133428989550449E+00   -0.133741321563720703E+02
    0.919611530972027680E+01    0.531211124430580717E+00    0.108165755867958069E+00    0.941331806145467631E+01    0.824758105082939252E+01   -0.695543186740386288E+00   -0.133684768676757812E+02
    0.919611530972027680E+01    0.531211124430580717E+00    0.108165755867958069E+00    0.941331806145467631E+01    0.824758105082939252E+01   -0.695543186740386288E+00   -0.133684768676757812E+02
    0.902117092695843326E+01    0.344346772479247221E+00    0.207317739725112915E+00    0.966333233219108045E+01    0.837245671496729393E+01   -0.301398953519544488E+00   -0.133656368255615234E+02
    0.899962791046684885E+01    0.392303880918466574E+00    0.513264596462249756E+00    0.939347748056728449E+01    0.710932760952072407E+01   -0.421738079299256441E+00   -0.133598079681396484E+02
    0.899962791046684885E+01    0.392303880918466574E+00    0.513264596462249756E+00    0.939347748056728449E+01    0.710932760952072407E+01   -0.421738079299256441E+00   -0.133598079681396484E+02
    0.914903924677623159E+01    0.489402869485212555E+00    0.160889729857444763E+00    0.937889726473690288E+01    0.705192922621213381E+01   -0.544750054487598501E+00   -0.133495311737060547E+02
    0.914903924677623159E+01    0.489402869485212555E+00    0.160889729857444763E+00    0.937889726473690288E+01    0.705192922621213381E+01   -0.544750054487598501E+00   -0.133495311737060547E+02
    0.900292016752330504E+01    0.407052948013024718E+00    0.396540105342864990E+00    0.943791899349282382E+01    0.812962293241892553E+01   -0.512646988855612440E+00   -0.133441305160522461E+02
    0.900292016752330504E+01    0.407052948013024718E+00    0.396540105342864990E+00    0.943791899349282382E+01    0.812962293241892553E+01   -0.512646988855612440E+00   -0.133441305160522461E+02
    0.912566799815334306E+01    0.503002616812280978E+00    0.420176953077316284E+00    0.915810891922794745E+01    0.778495144092371838E+01    0.244142528982269624E-01   -0.133077630996704102E+02
    0.907960053201136397E+01    0.345030595564013942E+00    0.111360959708690643E+00    0.970190286371430055E+01    0.729150552766932059E+01   -0.369688717914880227E+00   -0.132769794464111328E+02
    0.907960053201136397E+01    0.345030595564013942E+00    0.111360959708690643E+00    0.970190286371430055E+01    0.729150552766932059E+01   -0.369688717914880227E+00   -0.132769794464111328E+02
    0.924202160341250334E+01    0.358666063412433345E+00    0.211238101124763489E+00    0.987335796003288202E+01    0.777331850767127541E+01   -0.522679992090808954E+00   -0.132295703887939453E+02
    0.914488898169475561E+01    0.291488627322922633E+00    0.456427752971649170E+00    0.996515212970688502E+01    0.822181075876542167E+01   -0.434716644663477814E+00   -0.132191152572631836E+02
    0.914488898169475561E+01    0.291488627322922633E+00    0.456427752971649170E+00    0.996515212970688502E+01    0.822181075876542167E+01   -0.434716644663477814E+00   -0.132191152572631836E+02
    0.907635234511382905E+01    0.349514949887092252E+00    0.341995656490325928E-01    0.969493068517574308E+01    0.791319729617177359E+01   -0.304076763791189419E+00   -0.132135715484619141E+02
    0.901416256579355490E+01    0.339944242126571261E+00    0.231057927012443542E+00    0.964831511133396269E+01    0.744185458802851230E+01   -0.344525328129328567E+00   -0.131960830688476562E+02
    0.901416256579355490E+01    0.339944242126571261E+00    0.231057927012443542E+00    0.964831511133396269E+01    0.744185458802851230E+01   -0.344525328129328567E+00   -0.131960830688476562E+02
    0.913893923857309431E+01    0.355125114697767030E+00    0.286833822727203369E+00    0.972497453048014648E+01    0.770357146873087206E+01   -0.502185830247439569E+00   -0.131941995620727539E+02
    0.913143031328866250E+01    0.484044611549880988E+00    0.511659324169158936E+00    0.941341876556314539E+01    0.837873460433548445E+01   -0.567363632033225818E+00   -0.131913356781005859E+02
    0.913143031328866250E+01    0.484044611549880988E+00    0.511659324169158936E+00    0.941341876556314539E+01    0.837873460433548445E+01   -0.567363632033225818E+00   -0.131913356781005859E+02
    0.922987099202942929E+01    0.347928413521945035E+00    0.414693176746368408E+00    0.988669067230154752E+01    0.795937968135857865E+01   -0.594392558530612014E+00   -0.131790561676025391E+02
    0.901168487027081255E+01    0.413962013728830791E+00    0.200809121131896973E+00    0.940058777969948522E+01    0.710642450538869852E+01   -0.469977861604118141E+00   -0.131375427246093750E+02
    0.904382558721810703E+01    0.419304310830444893E+00    0.376699388027191162E+00    0.942872042070369787E+01    0.754910860186602051E+01   -0.500337261353910767E+00   -0.131288375854492188E+02
    0.902784685769571738E+01    0.423803103181779384E+00    0.582106746733188629E-01    0.948666699621270482E+01    0.836645027996217650E+01   -0.356755717235669900E+00   -0.131249389648437500E+02
    0.915077296938387796E+01    0.384800117589438051E+00    0.507521688938140869E+00    0.964576194495580630E+01    0.744017669321283481E+01   -0.643582341206673236E+00   -0.131242389678955078E+02
    0.915077296938387796E+01    0.384800117589438051E+00    0.507521688938140869E+00    0.964576194495580630E+01    0.744017669321283481E+01   -0.643582341206673236E+00   -0.131242389678955078E+02
    0.914832438180387797E+01    0.491992382900493075E+00    0.748251900076866150E-01    0.944852356161165474E+01    0.819892478267646396E+01   -0.541911781420282956E+00   -0.130721797943115234E+02
    0.908338658730957071E+01    0.314261977811531257E+00    0.814790427684783936E+00    0.975039702698090949E+01    0.749585483807933528E+01   -0.566389622954066807E+00   -0.130701408386230469E+02
    0.899526452783043773E+01    0.464818188568894508E+00    0.183458551764488220E+00    0.920413424658266521E+01    0.781515503997773564E+01   -0.801275376167120967E-02   -0.130649814605712891E+02
    0.908751718225178529E+01    0.442288296506067213E+00    0.109493382275104523E+00    0.945583899412612183E+01    0.792070395343931377E+01   -0.449564304915617274E+00   -0.130539398193359375E+02
    0.913736065930837427E+01    0.510091890628453726E+00    0.679173111915588379E+00    0.912259057795966832E+01    0.795673537544416831E+01    0.903922533173613374E-01   -0.130231876373291016E+02
    0.905394067448206030E+01    0.388625470747761270E+00    0.146357595920562744E+00    0.955293325183677311E+01    0.767264458857705289E+01   -0.471368884547517686E+00   -0.130156755447387695E+02
    0.914107705901559875E+01    0.494561427153504485E+00    0.208449214696884155E-01    0.942571136550051314E+01    0.781181753340352714E+01   -0.666513345240259625E+00   -0.130144472122192383E+02
    0.911959022961220356E+01    0.330358595566270952E+00    0.840888679027557373E+00    0.973095455993300718E+01    0.700370432754965755E+01   -0.574527946069764539E+00   -0.130120086669921875E+02
    0.918519262125221125E+01    0.331330359788365003E+00    0.432703532278537750E-01    0.989870042804959560E+01    0.778150643294383393E+01   -0.356620210381662250E+00   -0.129855546951293945E+02
    0.919561232792572270E+01    0.525184055212154832E+00    0.364987999200820923E-01    0.937984570313354027E+01    0.729893461702419355E+01   -0.684768118555332483E+00   -0.129851551055908203E+02
    0.919561232792572270E+01    0.525184055212154832E+00    0.364987999200820923E-01    0.937984570313354027E+01    0.729893461702419355E+01   -0.684768118555332483E+00   -0.129851551055908203E+02
    0.918345245440854185E+01    0.404717146141040485E+00    0.980473011732101440E-01    0.966203803168841802E+01    0.767331792604231211E+01   -0.494376486713276719E+00   -0.129788436889648438E+02
    0.919014536744052180E+01    0.550202569849851386E+00    0.151515081524848938E+00    0.928423733350116720E+01    0.714848640941321101E+01   -0.703278128508894262E+00   -0.129136161804199219E+02
    0.915183497151368819E+01    0.392245256996237079E+00    0.805909410119056702E-01    0.971506414558816367E+01    0.839581057572203804E+01   -0.554017210328022758E+00   -0.129106779098510742E+02
    0.910613896806659540E+01    0.407878470014257755E+00    0.117526642978191376E+00    0.959569688128811649E+01    0.719454761546363386E+01   -0.552105612355788367E+00   -0.128702592849731445E+02
    0.908610084035716881E+01    0.392541714741726167E+00    0.992859527468681335E-02    0.962544068536429265E+01    0.725271003680540005E+01   -0.500065641242643411E+00   -0.128692712783813477E+02
    0.908610084035716881E+01    0.392541714741726167E+00    0.992859527468681335E-02    0.962544068536429265E+01    0.725271003680540005E+01   -0.500065641242643411E+00   -0.128692712783813477E+02
    0.920463857610006286E+01    0.379554310899271219E+00    0.515684038400650024E-01    0.978231419646803246E+01    0.771428194830134117E+01   -0.526953899322396779E+00   -0.128297348022460938E+02
    0.906295564316410207E+01    0.375342687185883817E+00    0.339222222566604614E+00    0.964967017004488525E+01    0.847809296472938989E+01   -0.508193535060886159E+00   -0.128180055618286133E+02
    0.920344679432836621E+01    0.378377592721692635E+00    0.343183070421218872E+00    0.973932975747137775E+01    0.742590347159458730E+01   -0.531686753361148456E+00   -0.128025360107421875E+02
    0.910126949611201219E+01    0.432919624808968895E+00    0.681789591908454895E-01    0.951472760824040975E+01    0.776803226716698436E+01   -0.548403329564042696E+00   -0.127780160903930664E+02
    0.910126949611201219E+01    0.432919624808968895E+00    0.681789591908454895E-01    0.951472760824040975E+01    0.776803226716698436E+01   -0.548403329564042696E+00   -0.127780160903930664E+02
    0.913973685703565586E+01    0.403336258333649278E+00    0.346644669771194458E+00    0.962793319671345316E+01    0.813603540142889869E+01   -0.599309279397300054E+00   -0.127741184234619141E+02
    0.913973685703565586E+01    0.403336258333649278E+00    0.346644669771194458E+00    0.962793319671345316E+01    0.813603540142889869E+01   -0.599309279397300054E+00   -0.127741184234619141E+02
    0.916685906816833906E+01    0.350188881805822860E+00    0.283770918846130371E+00    0.978636881822487759E+01    0.821705154318062014E+01   -0.432700124781199680E+00   -0.127561359405517578E+02
    0.916685906816833906E+01    0.350188881805822860E+00    0.283770918846130371E+00    0.978636881822487759E+01    0.821705154318062014E+01   -0.432700124781199680E+00   -0.127561359405517578E+02
    0.909493618322695596E+01    0.464487111610133230E+00    0.313772022724151611E+00    0.935282990901278311E+01    0.783478229996695763E+01   -0.481113941425475922E+00   -0.127459678649902344E+02
    0.920621799331367718E+01    0.339924684886807771E+00    0.368873834609985352E+00    0.988273565943131338E+01    0.822275065308262754E+01   -0.531801744318866065E+00   -0.127416334152221680E+02
    0.904303980162532461E+01    0.456281592455056784E+00    0.120854042470455170E+00    0.940045301075962669E+01    0.828118352551151204E+01   -0.421745219883044475E+00   -0.126936645507812500E+02
    0.907822898186870475E+01    0.431160991161097740E+00    0.182609438896179199E+00    0.949800429752804654E+01    0.746239343792624332E+01   -0.579609916738389908E+00   -0.126861066818237305E+02
    0.907822898186870475E+01    0.431160991161097740E+00    0.182609438896179199E+00    0.949800429752804654E+01    0.746239343792624332E+01   -0.579609916738389908E+00   -0.126861066818237305E+02
    0.911751613131813343E+01    0.390668819535314960E+00    0.806419774889945984E-01    0.962851136819426578E+01    0.753228291753843848E+01   -0.493486577688550865E+00   -0.126765365600585938E+02
    0.903057822288875123E+01    0.430074904422278581E+00    0.200832948088645935E+00    0.944498950568455342E+01    0.766663731626130485E+01   -0.550314177097950052E+00   -0.126726446151733398E+02
    0.911338277474944114E+01    0.338039942446757447E+00    0.385764062404632568E+00    0.976890958962161449E+01    0.830034410435819581E+01   -0.477449560729093392E+00   -0.126581840515136719E+02
    0.921446172824925469E+01    0.362079178254311018E+00    0.152560472488403320E+00    0.983427623175630750E+01    0.762403974515349603E+01   -0.514519800957030649E+00   -0.126511869430541992E+02
    0.916071223256283673E+01    0.366382836049375382E+00    0.160095721483230591E+00    0.980007295595523686E+01    0.861766095895911910E+01   -0.496572934869170313E+00   -0.126508874893188477E+02
    0.916213323630774923E+01    0.542999334414118517E+00    0.151529505848884583E+00    0.928125854297223185E+01    0.760214644353865143E+01   -0.607071551597478276E+00   -0.126137790679931641E+02
    0.916213323630774923E+01    0.542999334414118517E+00    0.151529505848884583E+00    0.928125854297223185E+01    0.760214644353865143E+01   -0.607071551597478276E+00   -0.126137790679931641E+02
    0.906918745652197522E+01    0.511374377979175065E+00    0.209453433752059937E+00    0.929277413298595079E+01    0.801172665181219479E+01   -0.685711411328050247E+00   -0.125984916687011719E+02
    0.905716701322081263E+01    0.397144803610525066E+00    0.204414770007133484E+00    0.955921230896371021E+01    0.806198834093508765E+01   -0.539128570722071432E+00   -0.125882091522216797E+02
    0.905716701322081263E+01    0.397144803610525066E+00    0.204414770007133484E+00    0.955921230896371021E+01    0.806198834093508765E+01   -0.539128570722071432E+00   -0.125882091522216797E+02
    0.911825219786327956E+01    0.468884699576129771E+00    0.225083678960800171E+00    0.940990816760590043E+01    0.710439401242903301E+01   -0.579882007670069921E+00   -0.125749664306640625E+02
    0.914204500577094947E+01    0.519110416778725381E+00    0.544733047485351562E+00    0.905919374560656898E+01    0.727903710985378094E+01    0.157615738904751002E+00   -0.125141744613647461E+02
    0.914204500577094947E+01    0.519110416778725381E+00    0.544733047485351562E+00    0.905919374560656898E+01    0.727903710985378094E+01    0.157615738904751002E+00   -0.125141744613647461E+02
    0.917840986186334895E+01    0.548450835865596065E+00    0.116926230490207672E+00    0.929820392086476311E+01    0.762581789705117785E+01   -0.675237125966213103E+00   -0.125079202651977539E+02
    0.915299423568701620E+01    0.327435891967971959E+00    0.568185858428478241E-01    0.990742957497834098E+01    0.858240307897634835E+01   -0.362906914640684253E+00   -0.125065383911132812E+02
    0.911484394404352294E+01    0.502675627484514331E+00    0.466047823429107666E+00    0.916026354814709798E+01    0.770688457472958088E+01   -0.368576402628097988E-01   -0.125058612823486328E+02
    0.910734168916680886E+01    0.487463713000256260E+00    0.645503044128417969E+00    0.914395026464105243E+01    0.789014073530964577E+01    0.770073043393200152E-01   -0.124895935058593750E+02
    0.909071532513213398E+01    0.529406018822004221E+00    0.152294248342514038E+00    0.923809947779678886E+01    0.734360407785800717E+01   -0.709275892802875729E+00   -0.124769668579101562E+02
    0.914271794030513973E+01    0.510340807964825172E+00    0.574872195720672607E+00    0.907635431489330458E+01    0.740488404381000542E+01    0.186951142030673534E+00   -0.124635314941406250E+02
    0.906889320371864827E+01    0.412659732231338616E+00    0.137381562963128090E-01    0.955567992515436870E+01    0.819829567089657019E+01   -0.433767985387522037E+00   -0.124633560180664062E+02
    0.919897139563588873E+01    0.380034423349185635E+00    0.227851822972297668E+00    0.976385521369055098E+01    0.832198071274914675E+01   -0.526191790691849848E+00   -0.124472160339355469E+02
    0.902937229536754771E+01    0.423447171130520883E+00    0.141169309616088867E+00    0.947450537854695618E+01    0.792743492590384857E+01   -0.550454057932034280E+00   -0.124456539154052734E+02
    0.913769325350765627E+01    0.511296270110962459E+00    0.699636563658714294E-01    0.938022572756408302E+01    0.818451664791468936E+01   -0.624407138773874326E+00   -0.124432506561279297E+02
    0.919013533027596630E+01    0.387805875361310171E+00    0.256738573312759399E+00    0.971887850325387248E+01    0.808177127292252884E+01   -0.541893005201188771E+00   -0.124416599273681641E+02
    0.901262275779174082E+01    0.411308163294346496E+00    0.216788679361343384E+00    0.945415605813631643E+01    0.703808023504500291E+01   -0.535494338153564620E+00   -0.124218635559082031E+02
    0.910410024204573176E+01    0.513556831536073233E+00    0.431596100330352783E+00    0.917178723563602638E+01    0.773437410076586040E+01   -0.136130863178181905E+00   -0.124145889282226562E+02
    0.909776701667458454E+01    0.495702472101947678E+00    0.428849607706069946E+00    0.917708809674240023E+01    0.790709187461573215E+01   -0.867107080281304121E-02   -0.124069595336914062E+02
    0.899477235862689461E+01    0.462589741631157458E+00    0.567581355571746826E+00    0.919571007266302587E+01    0.793538038037908411E+01   -0.148169355593013474E+00   -0.123928947448730469E+02
    0.917513276183104942E+01    0.362946920197419365E+00    0.120412833988666534E+00    0.979170727880743819E+01    0.763986234142624632E+01   -0.508783559268005003E+00   -0.123877182006835938E+02
    0.916688729887469478E+01    0.544257986811851113E+00    0.329733461141586304E+00    0.936838566895058733E+01    0.839139048203113447E+01   -0.601776608372420307E+00   -0.123769960403442383E+02
    0.910058431937469159E+01    0.418960373973007061E+00    0.220158904790878296E+00    0.953281196955393639E+01    0.730337152156225944E+01   -0.584580093919583321E+00   -0.123747816085815430E+02
    0.918079102782613177E+01    0.541532419610645466E+00    0.600305050611495972E-01    0.930965095295107048E+01    0.754753988350819238E+01   -0.660248827993010989E+00   -0.123611354827880859E+02
    0.909745740986701001E+01    0.517187082752393001E+00    0.111134126782417297E+00    0.926692915991300303E+01    0.731108653429038569E+01   -0.642707870803213233E+00   -0.123559360504150391E+02
    0.916934208151923968E+01    0.409019066983735857E+00    0.143185973167419434E+00    0.964225532983442513E+01    0.781121552784595075E+01   -0.569002172003802098E+00   -0.122973270416259766E+02
    0.906822690347290816E+01    0.433563655528940939E+00    0.216421917080879211E+00    0.952532452234679816E+01    0.840810781115746053E+01   -0.589767592313259925E+00   -0.122680616378784180E+02
    0.911952420746075099E+01    0.490659291820189358E+00    0.288774639368057251E+00    0.946029800244711794E+01    0.852555362946319129E+01   -0.518762644344113788E+00   -0.122186784744262695E+02
    0.905285986177726976E+01    0.433932695395854273E+00    0.259927421808242798E+00    0.942688116369632567E+01    0.733042071308020216E+01   -0.538018202057531036E+00   -0.121997184753417969E+02
    0.917212740101599344E+01    0.559198731693791196E+00    0.450003683567047119E+00    0.916040742421014365E+01    0.786518102434059418E+01   -0.256546122131662946E+00   -0.121839609146118164E+02
    0.919928212273003254E+01    0.333003695612684780E+00    0.137591242790222168E+00    0.993161968642920634E+01    0.849171917035799950E+01   -0.433940796725090117E+00   -0.121766242980957031E+02
    0.910203379637218823E+01    0.483497255813730265E+00    0.446219325065612793E+00    0.914443864115794192E+01    0.733775473521043153E+01    0.109108123277787961E+00   -0.121566371917724609E+02
    0.909537240696055349E+01    0.518235111394296233E+00    0.473442450165748596E-01    0.928503268095050949E+01    0.777278255423362729E+01   -0.588190537531109614E+00   -0.121430110931396484E+02
    0.911165802879366993E+01    0.490494294648461171E+00    0.452825665473937988E+00    0.912325431799318132E+01    0.714718438712494386E+01    0.775436270641893799E-01   -0.121209373474121094E+02
    0.902924090526392042E+01    0.421826753367508411E+00    0.935644377022981644E-02    0.951611556096678690E+01    0.830082037940885442E+01   -0.468161896177432757E+00   -0.121208868026733398E+02
    0.909033467503750536E+01    0.464336115494148993E+00    0.281387045979499817E-01    0.937153515635800360E+01    0.773951573626631273E+01   -0.429943417833794639E+00   -0.121117639541625977E+02
    0.905056963870197606E+01    0.481031411674770981E+00    0.306744396686553955E+00    0.933261685819499398E+01    0.819202541790028960E+01   -0.535119901596972314E+00   -0.120813541412353516E+02
    0.910442101739831244E+01    0.510243520852839527E+00    0.176038667559623718E+00    0.937122556864326661E+01    0.831526599347162509E+01   -0.610730380259933536E+00   -0.120639753341674805E+02
    0.894068373970963215E+01    0.400812356392006075E+00    0.470770120620727539E+00    0.919025930884020781E+01    0.742384523086654546E+01    0.171223333915301090E+00   -0.120455455780029297E+02
    0.895858951683060489E+01    0.399623988681238496E+00    0.524775326251983643E+00    0.917976483766459950E+01    0.737407014927584292E+01    0.218510640869596706E+00   -0.120413341522216797E+02
    0.902078472257439756E+01    0.413790618850041092E+00    0.374071240425109863E+00    0.944456415176535913E+01    0.745513039834139946E+01   -0.541911184336242968E+00   -0.120362634658813477E+02
    0.905105174133999313E+01    0.421629391748862381E+00    0.320980995893478394E+00    0.942920826033497228E+01    0.722812630210211626E+01   -0.489823129013273517E+00   -0.119868717193603516E+02
    0.916022025445514743E+01    0.495498703927184203E+00    0.899775624275207520E-01    0.938390895214865850E+01    0.758117878672790102E+01   -0.572964019413156445E+00   -0.119803390502929688E+02
    0.902601557078586048E+01    0.429352086304032154E+00    0.558545172214508057E+00    0.918697674631779115E+01    0.771975110789885655E+01    0.189984399826397699E+00   -0.119681339263916016E+02
    0.915133797059152876E+01    0.531593879868283214E+00    0.472385287284851074E+00    0.914944630629441669E+01    0.743273310420163114E+01   -0.162859537619704398E+00   -0.119671382904052734E+02
    0.910052455953900363E+01    0.516866749293577676E+00    0.140944123268127441E+00    0.925539672277785819E+01    0.702709426130054293E+01   -0.599219492200294246E+00   -0.119667501449584961E+02
    0.912599371463428000E+01    0.513206404360613599E+00    0.183096572756767273E+00    0.928243250387439289E+01    0.708584033223518084E+01   -0.603785524749896885E+00   -0.119295310974121094E+02
    0.907356675070134244E+01    0.435129908691340550E+00    0.265362322330474854E+00    0.942377639039608539E+01    0.708449830059584862E+01   -0.500206392935043542E+00   -0.119207954406738281E+02
    0.912648291957965263E+01    0.496610240615848242E+00    0.209729209542274475E+00    0.936052817037692186E+01    0.800170888461326690E+01   -0.610805815955020703E+00   -0.118985166549682617E+02
    0.911084161164004591E+01    0.461380250058449626E+00    0.302563071250915527E+00    0.940701806367512638E+01    0.799393476727475516E+01   -0.557647048855532068E+00   -0.118881111145019531E+02
    0.909251027689323621E+01    0.464529529308120914E+00    0.176146492362022400E+00    0.946860619123507163E+01    0.842743075340751524E+01   -0.505466225660610613E+00   -0.118566913604736328E+02
    0.911417673019503916E+01    0.477667675170656891E+00    0.819094572216272354E-02    0.936598633397407454E+01    0.700245476663732358E+01   -0.471478162355071895E+00   -0.118440418243408203E+02
    0.914720242181805254E+01    0.530891604565213338E+00    0.236670017242431641E+00    0.927293669596882175E+01    0.725379403500329545E+01   -0.599562216404375903E+00   -0.118302831649780273E+02
    0.906575091719166082E+01    0.497541380131588329E+00    0.287662029266357422E+00    0.915786844977414027E+01    0.703937574284641610E+01   -0.100621268022967225E+00   -0.118272790908813477E+02
    0.909878815604400337E+01    0.480477213334832398E+00    0.105207830667495728E+00    0.933206549052223089E+01    0.702834513024637353E+01   -0.510265268436016495E+00   -0.118020648956298828E+02
    0.909835147527955357E+01    0.469463583854097477E+00    0.190659642219543457E+00    0.943529316067352219E+01    0.835177823881238091E+01   -0.488604123185513384E+00   -0.118005228042602539E+02
    0.913005277618760935E+01    0.524307826530432508E+00    0.232815191149711609E+00    0.926948281118962392E+01    0.718189503585876565E+01   -0.603321138891804276E+00   -0.117922391891479492E+02
    0.911490920013569195E+01    0.516382763805249279E+00    0.193570237606763840E-01    0.928707759859618065E+01    0.711868937945552371E+01   -0.593513486911346755E+00   -0.117897224426269531E+02
    0.910026786447310165E+01    0.488065656560030314E+00    0.122055247426033020E+00    0.932195490299077711E+01    0.733038783021310714E+01   -0.511945842183760380E+00   -0.117893352508544922E+02
    0.906271122804459139E+01    0.442328837802204389E+00    0.104569636285305023E+00    0.940309227153024274E+01    0.716824831179524402E+01   -0.502668309909728883E+00   -0.117748317718505859E+02
    0.911803968928529507E+01    0.528739506946709237E+00    0.621951036155223846E-01    0.927527916905135008E+01    0.701778264613268021E+01   -0.635830392109441700E+00   -0.117621345520019531E+02
    0.915472860937592081E+01    0.524359937048318514E+00    0.326990708708763123E-01    0.930605212600718978E+01    0.751980809338462119E+01   -0.545168277037942239E+00   -0.117483043670654297E+02
    0.911683258248843487E+01    0.524505110658446294E+00    0.817121788859367371E-01    0.928985843620822394E+01    0.780511083800843330E+01   -0.545542650820173058E+00   -0.117422943115234375E+02
    0.908968192406666198E+01    0.450551382243701393E+00    0.779324024915695190E-01    0.942365529773137212E+01    0.734408867211200889E+01   -0.490483301724528031E+00   -0.117361450195312500E+02
    0.915291921459218294E+01    0.500370170576831974E+00    0.161989048123359680E+00    0.935726236747740359E+01    0.745181164918219974E+01   -0.601985811425665984E+00   -0.117189865112304688E+02
    0.915251864135231585E+01    0.489192060737963175E+00    0.480957105755805969E-01    0.939633098499153974E+01    0.709014328210861056E+01   -0.563202115178361273E+00   -0.117103528976440430E+02
    0.910754403847115945E+01    0.491174497082521477E+00    0.203891709446907043E+00    0.931350025156418582E+01    0.760490308971316864E+01   -0.550597498393514684E+00   -0.116783914566040039E+02
    0.911535976134908488E+01    0.521517536421296724E+00    0.538104698061943054E-01    0.930983492763690990E+01    0.792151474667324162E+01   -0.603575964755384664E+00   -0.116572475433349609E+02
    0.897377191194999213E+01    0.405349240637541797E+00    0.580274343490600586E+00    0.917928351620246730E+01    0.746886632626536784E+01    0.202106256053562916E+00   -0.113712053298950195E+02
    0.907255290664565095E+01    0.458989068633671560E+00    0.630811452865600586E+00    0.912855754072946368E+01    0.778711546955257550E+01    0.230973000150140884E+00   -0.114163770675659180E+02
    0.912266888614917981E+01    0.489845018051839109E+00    0.570123136043548584E+00    0.912940841647250778E+01    0.785227239044058134E+01    0.183794420810054149E+00   -0.114537448883056641E+02
    0.910746708213852862E+01    0.516644348449939339E+00    0.335391581058502197E+00    0.917560355006270711E+01    0.763531447397958551E+01   -0.123502800103072019E+00   -0.115742626190185547E+02
    0.899711289180831031E+01    0.404156857200239694E+00    0.752060890197753906E+00    0.916151468950483405E+01    0.718450119097022633E+01    0.228343988777098161E+00   -0.112803335189819336E+02
    0.908874539152501093E+01    0.506538552826912403E+00    0.128370106220245361E+00    0.926136384916363120E+01    0.727239495529001356E+01   -0.528154326262892049E+00   -0.110752105712890625E+02
    0.911108772160368119E+01    0.521034370010922343E+00    0.286062538623809814E+00    0.924586534349910849E+01    0.736654155045763837E+01   -0.597535346507716003E+00   -0.114787340164184570E+02
    0.908720464690666674E+01    0.520312080995421145E+00    0.130469044670462608E-01    0.927110860448832064E+01    0.757503683069598566E+01   -0.576807626093938763E+00   -0.113609848022460938E+02
    0.908170021040293207E+01    0.511960188719922549E+00    0.543131679296493530E-01    0.928008225481631754E+01    0.767017808457157280E+01   -0.539298718399821020E+00   -0.111670150756835938E+02
    0.910552587297189575E+01    0.465121295041163896E+00    0.160489082336425781E+00    0.940650405609318518E+01    0.803449679993141785E+01   -0.508860006832033696E+00   -0.116209230422973633E+02
    0.906623964371788205E+01    0.494073721929855270E+00    0.469275563955307007E-01    0.934295062749886007E+01    0.816138977070949068E+01   -0.485878352360719301E+00   -0.115876893997192383E+02
    0.911948526281021721E+01    0.474607948111892497E+00    0.103920936584472656E+00    0.937804618137347212E+01    0.717214826875013145E+01   -0.511135652728983869E+00   -0.115601434707641602E+02
    0.910855432068142434E+01    0.472309195580734531E+00    0.628579705953598022E-01    0.940744713425506163E+01    0.807579606785559889E+01   -0.481920593998419466E+00   -0.115245285034179688E+02
