    0.819319670073191553E+01    0.479190344942791757E+01    0.757900238037109375E+00    0.786615349471197867E+01    0.104064913732484925E+02   -0.104851547763220143E+01   -0.201038475036621094E+02
    0.784584932029129423E+01    0.497447358859643352E+01    0.459290146827697754E+00    0.759876037657454440E+01    0.842651094560278580E+01   -0.120644046168008745E+01   -0.199372291564941406E+02
    0.838402852935596776E+01    0.691841533164707823E+01    0.209367156028747559E+00    0.834051052412863925E+01    0.897529430440078535E+01   -0.130434440677301255E+01   -0.189654941558837891E+02
    0.824127665753831096E+01    0.614413994587109613E+01    0.510706186294555664E+00    0.754536843000929558E+01    0.752703817842379852E+01   -0.215322655061775947E+01   -0.186009750366210938E+02
    0.742042391100260978E+01    0.702857861232562975E+01    0.890046805143356323E-01    0.625986677788687196E+01    0.708772634011590430E+01   -0.741452553518060942E+00   -0.184751434326171875E+02
    0.791921645941760488E+01    0.566338557387224384E+01    0.427418112754821777E+00    0.739237403138295335E+01    0.852192863783795573E+01    0.132392256213823778E+00   -0.183150138854980469E+02
    0.756623942140447792E+01    0.578187194870218946E+01    0.235820844769477844E+00    0.694137320852653605E+01    0.725741035331073192E+01   -0.123619090820512945E+01   -0.182243824005126953E+02
    0.808329057145416563E+01    0.549924141268522959E+01    0.600482702255249023E+00    0.767893415753023145E+01    0.866405927883535476E+01   -0.939947440604924411E+00   -0.178688507080078125E+02
    0.805168965909978596E+01    0.577471302486125904E+01    0.462398901581764221E-01    0.833948655876436540E+01    0.896798270298466527E+01   -0.163500436695662010E+01   -0.176144886016845703E+02
    0.783845842611062160E+01    0.576526254213306366E+01    0.333025991916656494E+00    0.732379209260930164E+01    0.702230431969915969E+01   -0.209867219277299766E+01   -0.173472061157226562E+02
    0.800069957335173676E+01    0.552940748706334162E+01    0.218638718128204346E+00    0.766089428077339640E+01    0.717512419199448992E+01   -0.147858920836595975E+01   -0.170565109252929688E+02
    0.794854594965733252E+01    0.114682432758983910E+01    0.564007997512817383E+00    0.905668648869311710E+01    0.818788546410108076E+01   -0.602449692199171993E+00   -0.169097442626953125E+02
    0.783847963701970585E+01    0.624733758770058145E+01    0.246303956955671310E-01    0.804226126014030918E+01    0.875189266469511118E+01   -0.165134807531098415E+01   -0.168838272094726562E+02
    0.786099080326700328E+01    0.555111575436196514E+01    0.779480636119842529E-01    0.794389486199661388E+01    0.825041191903458682E+01   -0.261336259348387889E+00   -0.168514499664306641E+02
    0.763368092553806754E+01    0.652694442532114039E+01    0.188711956143379211E+00    0.734915092707798490E+01    0.104624982213894011E+02   -0.579900173839041688E+00   -0.167408466339111328E+02
    0.814933031198633095E+01    0.640476812288414621E+01    0.454454660415649414E+00    0.767413494482671599E+01    0.846679576354084240E+01   -0.203724677835584922E+01   -0.165009517669677734E+02
    0.804657974805265397E+01    0.545854069513655382E+01    0.600944697856903076E+00    0.757626354848442229E+01    0.778493972574116366E+01   -0.109237968589342738E+01   -0.164873104095458984E+02
    0.847228932944103263E+01    0.650016594850459484E+01    0.411573559045791626E+00    0.834373227971632048E+01    0.902141007341236012E+01   -0.175512060031550621E+01   -0.164839229583740234E+02
    0.839404581585643328E+01    0.558122066141345030E+01    0.252412557601928711E+00    0.858212515924557984E+01    0.104893719610795078E+02   -0.140683928344819043E+01   -0.164177875518798828E+02
    0.829445783085596489E+01    0.651712185709924618E+01    0.305561479181051254E-01    0.848488512657271521E+01    0.856378404682480898E+01   -0.116635763413028393E+01   -0.163968486785888672E+02
    0.884424158423332862E+01    0.666932517482054799E+01    0.164804786443710327E+00    0.874470717810912035E+01    0.869673187693025795E+01   -0.869401565952793831E+00   -0.163933029174804688E+02
    0.746140846485557940E+01    0.681426473636271890E+01    0.998388752341270447E-01    0.657407051210106719E+01    0.998409727033855887E+01   -0.154056443893586525E+01   -0.163784255981445312E+02
    0.875823889940747513E+01    0.609031491377526013E+01    0.954326808452606201E+00    0.816036301426690969E+01    0.953318805402362202E+01   -0.356676424207480469E+00   -0.179058818817138672E+02
    0.883560388094216087E+01    0.564997955551822262E+01    0.545979380607604980E+00    0.861709564319229493E+01    0.102695706291048516E+02   -0.660181049229779715E+00   -0.175812454223632812E+02
    0.739433108219105684E+01    0.572810394151104685E+01    0.199934601783752441E+00    0.694525014447487976E+01    0.914556709996469053E+01   -0.802569962560771621E+00   -0.173836746215820312E+02
    0.753601179380031638E+01    0.580056259477778191E+01    0.203767120838165283E-01    0.766667990055817494E+01    0.979176816208505052E+01    0.114026148805502103E+00   -0.171005115509033203E+02
    0.877471421677843999E+01    0.561319269663508980E+01    0.153317952156066895E+01    0.777577823844245941E+01    0.910503120696402490E+01   -0.217653296539290464E+01   -0.170637149810791016E+02
    0.767368540649750308E+01    0.123880132471748872E+01    0.354336500167846680E+00    0.861594693471055351E+01    0.770547810743250761E+01   -0.127504047047150726E+01   -0.170116806030273438E+02
    0.811186479096662438E+01    0.539435134860992793E+01    0.754883170127868652E+00    0.746022848611289646E+01    0.715782118013327473E+01   -0.142027904414152140E+01   -0.169817924499511719E+02
    0.761978590579469817E+01    0.559258235244068302E+01    0.490677021443843842E-01    0.756196628000129234E+01    0.765939188178160624E+01   -0.212488338109172847E+01   -0.168637657165527344E+02
    0.730265149083035059E+01    0.642055979406560162E+01    0.830691009759902954E-01    0.674890248416474137E+01    0.725483744012788989E+01   -0.182640244856444900E+01   -0.167875881195068359E+02
    0.807294307045964743E+01    0.546684402796919322E+01    0.317820221185684204E+00    0.786797563184094706E+01    0.799821150244647150E+01    0.217047666341130263E+00   -0.165935401916503906E+02
    0.888159313237201786E+01    0.551625919051738389E+01    0.205658912658691406E+01    0.763144278247484742E+01    0.835998221050523149E+01   -0.146174452860813875E+01   -0.165916824340820312E+02
    0.884677220164953226E+01    0.642596180502282976E+01    0.367138624191284180E+00    0.867465751669135088E+01    0.916037487335984224E+01   -0.761425541904835246E+00   -0.165467567443847656E+02
    0.935606464052491482E+01    0.630656907460377703E+01    0.133750200271606445E+01    0.883025498988803648E+01    0.930475306541385194E+01   -0.175952788804316906E+01   -0.165143890380859375E+02
    0.804657974805265397E+01    0.545854069513655382E+01    0.600944697856903076E+00    0.757626354848442229E+01    0.778493972574116366E+01   -0.109237968589342738E+01   -0.164873104095458984E+02
    0.888278882801428082E+01    0.531032010102561536E+01    0.799780130386352539E+00    0.876458826918735312E+01    0.924392298926525768E+01   -0.157476326643235942E+01   -0.163995742797851562E+02
    0.829445783085596489E+01    0.651712185709924618E+01    0.305561479181051254E-01    0.848488512657271521E+01    0.856378404682480898E+01   -0.116635763413028393E+01   -0.163968486785888672E+02
    0.746140846485557940E+01    0.681426473636271890E+01    0.998388752341270447E-01    0.657407051210106719E+01    0.998409727033855887E+01   -0.154056443893586525E+01   -0.163784255981445312E+02
    0.822741361586301778E+01    0.680170046571383402E+01    0.409095026552677155E-01    0.836316915669835481E+01    0.879061509217043024E+01   -0.113975236465687635E+01   -0.163124351501464844E+02
    0.833564493235769888E+01    0.588669209506846869E+01    0.594894111156463623E+00    0.798504926092066114E+01    0.840151891813918361E+01   -0.145103514602986117E+01   -0.137282466888427734E+02
    0.833564493235769888E+01    0.588669209506846869E+01    0.594894111156463623E+00    0.798504926092066114E+01    0.840151891813918361E+01   -0.145103514602986117E+01   -0.137282466888427734E+02
    0.833564493235769888E+01    0.588669209506846869E+01    0.594894111156463623E+00    0.798504926092066114E+01    0.840151891813918361E+01   -0.145103514602986117E+01   -0.137282466888427734E+02
    0.864778551810396934E+01    0.568992990114319674E+01    0.137956762313842773E+01    0.768883500970932943E+01    0.794788803025794355E+01   -0.103420174156065037E+01   -0.162601375579833984E+02
    0.880339697845787406E+01    0.554958354766043449E+01    0.142618095874786377E+01    0.810356367253717202E+01    0.801225906036978408E+01   -0.117642622014590348E+01   -0.147636127471923828E+02
    0.849413778070762859E+01    0.584682467714331811E+01    0.109404087066650391E+01    0.757131457744398340E+01    0.768716216656205287E+01   -0.197519849610521137E+01   -0.146364192962646484E+02
    0.863031494912429054E+01    0.595695535107896124E+01    0.109743428230285645E+01    0.794937974131770808E+01    0.796892629768393856E+01   -0.112906379442436333E+01   -0.147909126281738281E+02
    0.815498731001800259E+01    0.616325823126303973E+01    0.467760264873504639E+00    0.757294298893502393E+01    0.787908238030886654E+01   -0.201019518264666841E+01   -0.152817020416259766E+02
    0.857980772728074115E+01    0.611387844622361776E+01    0.850264370441436768E+00    0.805422660561345438E+01    0.827655403972878112E+01   -0.112703714117852627E+01   -0.149017047882080078E+02
    0.837485560108869542E+01    0.596160958596768165E+01    0.854466736316680908E+00    0.758286255731372094E+01    0.717866261396320926E+01   -0.167225287557437352E+01   -0.138578100204467773E+02
    0.837485560108869542E+01    0.596160958596768165E+01    0.854466736316680908E+00    0.758286255731372094E+01    0.717866261396320926E+01   -0.167225287557437352E+01   -0.138578100204467773E+02
    0.837485560108869542E+01    0.596160958596768165E+01    0.854466736316680908E+00    0.758286255731372094E+01    0.717866261396320926E+01   -0.167225287557437352E+01   -0.138578100204467773E+02
    0.874239623131123977E+01    0.535122549601425845E+01    0.128641533851623535E+01    0.814989685515384821E+01    0.803397927573782766E+01   -0.146662712066370737E+01   -0.157071943283081055E+02
    0.886714012929821926E+01    0.540998840888963795E+01    0.508302450180053711E+00    0.875434568911604316E+01    0.858746427935205858E+01   -0.186588571009153825E+01   -0.152563133239746094E+02
    0.933702298998832703E+01    0.565182566642761230E+01    0.852190971374511719E+00    0.832083784766762413E+01    0.723698785901069641E+01   -0.159969635637530505E+01   -0.134205360412597656E+02
    0.933702298998832703E+01    0.565182566642761230E+01    0.852190971374511719E+00    0.832083784766762413E+01    0.723698785901069641E+01   -0.159969635637530505E+01   -0.134205360412597656E+02
    0.933702298998832703E+01    0.565182566642761230E+01    0.852190971374511719E+00    0.832083784766762413E+01    0.723698785901069641E+01   -0.159969635637530505E+01   -0.134205360412597656E+02
    0.933702298998832703E+01    0.565182566642761230E+01    0.852190971374511719E+00    0.832083784766762413E+01    0.723698785901069641E+01   -0.159969635637530505E+01   -0.134205360412597656E+02
    0.933702298998832703E+01    0.565182566642761230E+01    0.852190971374511719E+00    0.832083784766762413E+01    0.723698785901069641E+01   -0.159969635637530505E+01   -0.134205360412597656E+02
    0.899496810457082141E+01    0.568368203828575336E+01    0.541312217712402344E+00    0.818110714095825564E+01    0.740949654951320102E+01   -0.903290421794523901E+00   -0.152844467163085938E+02
    0.868837622711885516E+01    0.559273333434448094E+01    0.817791640758514404E+00    0.820536160172544982E+01    0.821905434298683168E+01   -0.590958461751389219E+00   -0.156346988677978516E+02
    0.876047643271458831E+01    0.641791597967762772E+01    0.788660570979118347E-01    0.863226331418730730E+01    0.834240236758367182E+01   -0.789294299648363173E+00   -0.142901906967163086E+02
    0.876047643271458831E+01    0.641791597967762772E+01    0.788660570979118347E-01    0.863226331418730730E+01    0.834240236758367182E+01   -0.789294299648363173E+00   -0.142901906967163086E+02
    0.856917434790484123E+01    0.624704341962921994E+01    0.148161262273788452E+00    0.846993369376595240E+01    0.820348546733266915E+01   -0.106698163277036406E+01   -0.136989364624023438E+02
    0.856917434790484123E+01    0.624704341962921994E+01    0.148161262273788452E+00    0.846993369376595240E+01    0.820348546733266915E+01   -0.106698163277036406E+01   -0.136989364624023438E+02
    0.856917434790484123E+01    0.624704341962921994E+01    0.148161262273788452E+00    0.846993369376595240E+01    0.820348546733266915E+01   -0.106698163277036406E+01   -0.136989364624023438E+02
    0.819817445650538801E+01    0.612788619129634604E+01    0.462655186653137207E+00    0.776508286385848656E+01    0.914966482509971968E+01   -0.176387464483003620E+01   -0.162830467224121094E+02
    0.889860162586654901E+01    0.625614357174174618E+01    0.100202250480651855E+01    0.841268502380948391E+01    0.881889387805060387E+01   -0.199236072839364953E+01   -0.158086490631103516E+02
    0.899952692201759064E+01    0.596544742765707792E+01    0.636563181877136230E+00    0.886634579442127446E+01    0.910259421338977326E+01   -0.205770792965748006E+01   -0.138745250701904297E+02
    0.899952692201759064E+01    0.596544742765707792E+01    0.636563181877136230E+00    0.886634579442127446E+01    0.910259421338977326E+01   -0.205770792965748006E+01   -0.138745250701904297E+02
    0.899952692201759064E+01    0.596544742765707792E+01    0.636563181877136230E+00    0.886634579442127446E+01    0.910259421338977326E+01   -0.205770792965748006E+01   -0.138745250701904297E+02
    0.847964769474627822E+01    0.552225492588234523E+01    0.872677087783813477E+00    0.808886372576555779E+01    0.102756695752136160E+02   -0.190587160423878776E+01   -0.144254035949707031E+02
    0.847964769474627822E+01    0.552225492588234523E+01    0.872677087783813477E+00    0.808886372576555779E+01    0.102756695752136160E+02   -0.190587160423878776E+01   -0.144254035949707031E+02
    0.901294910122472359E+01    0.536761806679380449E+01    0.184151673316955566E+01    0.832406660119516850E+01    0.987798575791236466E+01   -0.215213212409627230E+01   -0.152736740112304688E+02
    0.867550113706774439E+01    0.583732666125350974E+01    0.939450025558471680E+00    0.824319809607091969E+01    0.976409053383107306E+01   -0.214322976741433902E+01   -0.138246011734008789E+02
    0.867550113706774439E+01    0.583732666125350974E+01    0.939450025558471680E+00    0.824319809607091969E+01    0.976409053383107306E+01   -0.214322976741433902E+01   -0.138246011734008789E+02
    0.867550113706774439E+01    0.583732666125350974E+01    0.939450025558471680E+00    0.824319809607091969E+01    0.976409053383107306E+01   -0.214322976741433902E+01   -0.138246011734008789E+02
    0.859077941801801792E+01    0.606566104522701721E+01    0.107983040809631348E+01    0.794298749690324613E+01    0.102596508479688584E+02   -0.132852963695555859E+01   -0.149487886428833008E+02
    0.866838798308263492E+01    0.617741810034611838E+01    0.122640419006347656E+01    0.790313792414169747E+01    0.104471594514026602E+02   -0.188781053321076753E+01   -0.151365785598754883E+02
    0.845863124650886533E+01    0.560305715209469923E+01    0.978904843330383301E+00    0.790631078586674629E+01    0.103144559081641738E+02   -0.201257860298088698E+01   -0.144845342636108398E+02
    0.845863124650886533E+01    0.560305715209469923E+01    0.978904843330383301E+00    0.790631078586674629E+01    0.103144559081641738E+02   -0.201257860298088698E+01   -0.144845342636108398E+02
    0.817376339361929105E+01    0.604904652081965466E+01    0.421177685260772705E+00    0.785947989655175405E+01    0.935559984879410145E+01   -0.209880733858007584E+01   -0.138513803482055664E+02
    0.817376339361929105E+01    0.604904652081965466E+01    0.421177685260772705E+00    0.785947989655175405E+01    0.935559984879410145E+01   -0.209880733858007584E+01   -0.138513803482055664E+02
    0.817376339361929105E+01    0.604904652081965466E+01    0.421177685260772705E+00    0.785947989655175405E+01    0.935559984879410145E+01   -0.209880733858007584E+01   -0.138513803482055664E+02
    0.852589986781310216E+01    0.571660692735665243E+01    0.101116394996643066E+01    0.789743292286942555E+01    0.861539149279341565E+01   -0.181569132493901786E+01   -0.144085483551025391E+02
    0.852589986781310216E+01    0.571660692735665243E+01    0.101116394996643066E+01    0.789743292286942555E+01    0.861539149279341565E+01   -0.181569132493901786E+01   -0.144085483551025391E+02
    0.880517798819574971E+01    0.603621738697459786E+01    0.152647697925567627E+01    0.787060400981378550E+01    0.840173281811983408E+01   -0.183954825958604529E+01   -0.156436910629272461E+02
    0.874593814523211321E+01    0.537943395609041897E+01    0.122540497779846191E+01    0.824940693504134437E+01    0.887491096108399447E+01   -0.182756723540797283E+01   -0.154793033599853516E+02
    0.881126907117403135E+01    0.567124177772961335E+01    0.928427696228027344E+00    0.850942633695949624E+01    0.966635984847329865E+01   -0.121877308335751744E+01   -0.139506578445434570E+02
    0.881126907117403135E+01    0.567124177772961335E+01    0.928427696228027344E+00    0.850942633695949624E+01    0.966635984847329865E+01   -0.121877308335751744E+01   -0.139506578445434570E+02
    0.888415515781685983E+01    0.608392727887898666E+01    0.141490590572357178E+01    0.827511692626505457E+01    0.978117392522943518E+01   -0.164139694356504418E+01   -0.159271659851074219E+02
    0.867734624123954390E+01    0.587168059345208260E+01    0.800606846809387207E+00    0.838362325709290879E+01    0.957517281781355933E+01   -0.119128041401139773E+01   -0.139193973541259766E+02
    0.867734624123954390E+01    0.587168059345208260E+01    0.800606846809387207E+00    0.838362325709290879E+01    0.957517281781355933E+01   -0.119128041401139773E+01   -0.139193973541259766E+02
    0.867734624123954390E+01    0.587168059345208260E+01    0.800606846809387207E+00    0.838362325709290879E+01    0.957517281781355933E+01   -0.119128041401139773E+01   -0.139193973541259766E+02
    0.876076551061415110E+01    0.637639192664491272E+01    0.221658915281295776E+00    0.883265742927448194E+01    0.968535209343881043E+01   -0.186436859039426550E+01   -0.147614459991455078E+02
    0.854214482596655245E+01    0.637470558204919957E+01    0.348277211189270020E+00    0.850275024034940685E+01    0.102778589428863842E+02   -0.205051213227839035E+01   -0.150745029449462891E+02
    0.871437271928429702E+01    0.619455126594883243E+01    0.164183810353279114E+00    0.881427242651188081E+01    0.993148390710154416E+01   -0.996510411949366848E+00   -0.134809637069702148E+02
    0.871437271928429702E+01    0.619455126594883243E+01    0.164183810353279114E+00    0.881427242651188081E+01    0.993148390710154416E+01   -0.996510411949366848E+00   -0.134809637069702148E+02
    0.871437271928429702E+01    0.619455126594883243E+01    0.164183810353279114E+00    0.881427242651188081E+01    0.993148390710154416E+01   -0.996510411949366848E+00   -0.134809637069702148E+02
    0.871437271928429702E+01    0.619455126594883243E+01    0.164183810353279114E+00    0.881427242651188081E+01    0.993148390710154416E+01   -0.996510411949366848E+00   -0.134809637069702148E+02
    0.836075553045283293E+01    0.567866121206243513E+01    0.228906974196434021E+00    0.852749154265645792E+01    0.102141746726902838E+02   -0.163415058223746956E+01   -0.150929374694824219E+02
    0.844207574818558193E+01    0.608312218188016907E+01    0.205667644739151001E+00    0.860152789996122813E+01    0.999642925033988483E+01   -0.183381859046333662E+01   -0.151036138534545898E+02
    0.818818655080605851E+01    0.546706886597452257E+01    0.217859789729118347E+00    0.829694597823975144E+01    0.972255175951340433E+01   -0.191703057152971712E+01   -0.162143878936767578E+02
    0.880692758268370746E+01    0.605461895599854394E+01    0.277412503957748413E+00    0.879794525153040574E+01    0.998064858449309611E+01   -0.889996585514482241E+00   -0.140189018249511719E+02
    0.880692758268370746E+01    0.605461895599854394E+01    0.277412503957748413E+00    0.879794525153040574E+01    0.998064858449309611E+01   -0.889996585514482241E+00   -0.140189018249511719E+02
    0.880692758268370746E+01    0.605461895599854394E+01    0.277412503957748413E+00    0.879794525153040574E+01    0.998064858449309611E+01   -0.889996585514482241E+00   -0.140189018249511719E+02
    0.832043940194907528E+01    0.634424607300970411E+01    0.385643184185028076E+00    0.819201222015033004E+01    0.969655531412679395E+01   -0.135556718004821586E+01   -0.153388881683349609E+02
    0.843918669428050983E+01    0.565701339597719688E+01    0.734222233295440674E+00    0.805562971807782624E+01    0.843299432587565256E+01   -0.186454135408735278E+01   -0.138080568313598633E+02
    0.843918669428050983E+01    0.565701339597719688E+01    0.734222233295440674E+00    0.805562971807782624E+01    0.843299432587565256E+01   -0.186454135408735278E+01   -0.138080568313598633E+02
    0.843918669428050983E+01    0.565701339597719688E+01    0.734222233295440674E+00    0.805562971807782624E+01    0.843299432587565256E+01   -0.186454135408735278E+01   -0.138080568313598633E+02
    0.844114558352790567E+01    0.582396231583817414E+01    0.311559408903121948E+00    0.828710403965957276E+01    0.800412649337511972E+01   -0.191480307847464415E+01   -0.140624675750732422E+02
    0.844114558352790567E+01    0.582396231583817414E+01    0.311559408903121948E+00    0.828710403965957276E+01    0.800412649337511972E+01   -0.191480307847464415E+01   -0.140624675750732422E+02
    0.918288233306765811E+01    0.568337368348814298E+01    0.286009073257446289E+00    0.879509462964109900E+01    0.833951337409240878E+01   -0.349075898992667666E+00   -0.148057641983032227E+02
    0.845593632377809712E+01    0.554918019428782205E+01    0.585772514343261719E+00    0.825505729284557432E+01    0.941242927373099292E+01   -0.869077547384597304E+00   -0.157913780212402344E+02
    0.843801939065428641E+01    0.560428651198420269E+01    0.330548733472824097E+00    0.836917557679587887E+01    0.860674268030971845E+01   -0.165534067009473396E+01   -0.153397045135498047E+02
    0.826910539375349529E+01    0.601515633634807934E+01    0.231629818677902222E+00    0.826018653156181237E+01    0.843341622069425156E+01   -0.146032040338756564E+01   -0.135674057006835938E+02
    0.826910539375349529E+01    0.601515633634807934E+01    0.231629818677902222E+00    0.826018653156181237E+01    0.843341622069425156E+01   -0.146032040338756564E+01   -0.135674057006835938E+02
    0.826910539375349529E+01    0.601515633634807934E+01    0.231629818677902222E+00    0.826018653156181237E+01    0.843341622069425156E+01   -0.146032040338756564E+01   -0.135674057006835938E+02
    0.826910539375349529E+01    0.601515633634807934E+01    0.231629818677902222E+00    0.826018653156181237E+01    0.843341622069425156E+01   -0.146032040338756564E+01   -0.135674057006835938E+02
    0.836699902629480619E+01    0.589720726393623185E+01    0.134875416755676270E+00    0.830618280630242900E+01    0.798519163684156386E+01   -0.115916285769449212E+01   -0.135918025970458984E+02
    0.836699902629480619E+01    0.589720726393623185E+01    0.134875416755676270E+00    0.830618280630242900E+01    0.798519163684156386E+01   -0.115916285769449212E+01   -0.135918025970458984E+02
    0.836699902629480619E+01    0.589720726393623185E+01    0.134875416755676270E+00    0.830618280630242900E+01    0.798519163684156386E+01   -0.115916285769449212E+01   -0.135918025970458984E+02
    0.836699902629480619E+01    0.589720726393623185E+01    0.134875416755676270E+00    0.830618280630242900E+01    0.798519163684156386E+01   -0.115916285769449212E+01   -0.135918025970458984E+02
    0.859619553469340048E+01    0.595643416410914472E+01    0.146255478262901306E+00    0.862946927554577492E+01    0.927933254107236039E+01   -0.463258859156537195E+00   -0.143375205993652344E+02
    0.859619553469340048E+01    0.595643416410914472E+01    0.146255478262901306E+00    0.862946927554577492E+01    0.927933254107236039E+01   -0.463258859156537195E+00   -0.143375205993652344E+02
    0.840639747840031326E+01    0.609740593978472134E+01    0.210685998201370239E+00    0.832024415450902666E+01    0.852993716379976163E+01   -0.615956198940555533E+00   -0.135568065643310547E+02
    0.840639747840031326E+01    0.609740593978472134E+01    0.210685998201370239E+00    0.832024415450902666E+01    0.852993716379976163E+01   -0.615956198940555533E+00   -0.135568065643310547E+02
    0.840639747840031326E+01    0.609740593978472134E+01    0.210685998201370239E+00    0.832024415450902666E+01    0.852993716379976163E+01   -0.615956198940555533E+00   -0.135568065643310547E+02
    0.840639747840031326E+01    0.609740593978472134E+01    0.210685998201370239E+00    0.832024415450902666E+01    0.852993716379976163E+01   -0.615956198940555533E+00   -0.135568065643310547E+02
    0.830857670637482393E+01    0.568675414747920183E+01    0.333291292190551758E+00    0.818834273993209294E+01    0.840916714089695994E+01   -0.191015770935274798E+01   -0.140790328979492188E+02
    0.830857670637482393E+01    0.568675414747920183E+01    0.333291292190551758E+00    0.818834273993209294E+01    0.840916714089695994E+01   -0.191015770935274798E+01   -0.140790328979492188E+02
    0.830857670637482393E+01    0.568675414747920183E+01    0.333291292190551758E+00    0.818834273993209294E+01    0.840916714089695994E+01   -0.191015770935274798E+01   -0.140790328979492188E+02
    0.837915670759002218E+01    0.546862489906346472E+01    0.231241643428802490E+00    0.840789634970919586E+01    0.957382279199373443E+01   -0.548864181263963857E-02   -0.154175605773925781E+02
    0.853817702061697048E+01    0.605101854011447227E+01    0.293048948049545288E+00    0.838436064983639184E+01    0.848840574254846558E+01   -0.100654313877698187E+01   -0.145846557617187500E+02
    0.853817702061697048E+01    0.605101854011447227E+01    0.293048948049545288E+00    0.838436064983639184E+01    0.848840574254846558E+01   -0.100654313877698187E+01   -0.145846557617187500E+02
    0.848939491624585330E+01    0.573145355372976706E+01    0.106077179312705994E+00    0.860281863701038318E+01    0.955386847619659818E+01   -0.497004482593634611E+00   -0.151522073745727539E+02
    0.770486175696467601E+01    0.606694817809869669E+01    0.199637129902839661E+00    0.731660704374399096E+01    0.859258265505569696E+01   -0.167735930586580340E+01   -0.148017396926879883E+02
    0.760424012935116878E+01    0.602837681688562199E+01    0.395656451582908630E-01    0.754560326683459159E+01    0.857237604535158582E+01   -0.189647953522023371E+01   -0.133197231292724609E+02
    0.760424012935116878E+01    0.602837681688562199E+01    0.395656451582908630E-01    0.754560326683459159E+01    0.857237604535158582E+01   -0.189647953522023371E+01   -0.133197231292724609E+02
    0.760424012935116878E+01    0.602837681688562199E+01    0.395656451582908630E-01    0.754560326683459159E+01    0.857237604535158582E+01   -0.189647953522023371E+01   -0.133197231292724609E+02
    0.760424012935116878E+01    0.602837681688562199E+01    0.395656451582908630E-01    0.754560326683459159E+01    0.857237604535158582E+01   -0.189647953522023371E+01   -0.133197231292724609E+02
    0.760424012935116878E+01    0.602837681688562199E+01    0.395656451582908630E-01    0.754560326683459159E+01    0.857237604535158582E+01   -0.189647953522023371E+01   -0.133197231292724609E+02
    0.766354818161614304E+01    0.612961105537960727E+01    0.247333526611328125E+00    0.733009366642223537E+01    0.780560903548025831E+01   -0.136325202205741380E+01   -0.154088096618652344E+02
    0.792019245547975359E+01    0.593199396227423836E+01    0.210695564746856689E+00    0.784865310464742105E+01    0.827411272745660398E+01   -0.120701188849647045E+01   -0.132659149169921875E+02
    0.792019245547975359E+01    0.593199396227423836E+01    0.210695564746856689E+00    0.784865310464742105E+01    0.827411272745660398E+01   -0.120701188849647045E+01   -0.132659149169921875E+02
    0.792019245547975359E+01    0.593199396227423836E+01    0.210695564746856689E+00    0.784865310464742105E+01    0.827411272745660398E+01   -0.120701188849647045E+01   -0.132659149169921875E+02
    0.792019245547975359E+01    0.593199396227423836E+01    0.210695564746856689E+00    0.784865310464742105E+01    0.827411272745660398E+01   -0.120701188849647045E+01   -0.132659149169921875E+02
    0.792019245547975359E+01    0.593199396227423836E+01    0.210695564746856689E+00    0.784865310464742105E+01    0.827411272745660398E+01   -0.120701188849647045E+01   -0.132659149169921875E+02
    0.779446448371367495E+01    0.610037186762874128E+01    0.286711543798446655E+00    0.721753618370715877E+01    0.751347886406494681E+01   -0.172559288186602711E+01   -0.153279457092285156E+02
    0.799171851917327114E+01    0.613811058885788619E+01    0.300418883562088013E+00    0.745526437394358510E+01    0.734480527651704307E+01   -0.194570384507635419E+01   -0.158810787200927734E+02
    0.736228414871083192E+01    0.617628787765026388E+01    0.101544126868247986E+00    0.681896517648642231E+01    0.739821803916289067E+01   -0.175086941856242584E+01   -0.134067573547363281E+02
    0.736228414871083192E+01    0.617628787765026388E+01    0.101544126868247986E+00    0.681896517648642231E+01    0.739821803916289067E+01   -0.175086941856242584E+01   -0.134067573547363281E+02
    0.736228414871083192E+01    0.617628787765026388E+01    0.101544126868247986E+00    0.681896517648642231E+01    0.739821803916289067E+01   -0.175086941856242584E+01   -0.134067573547363281E+02
    0.736228414871083192E+01    0.617628787765026388E+01    0.101544126868247986E+00    0.681896517648642231E+01    0.739821803916289067E+01   -0.175086941856242584E+01   -0.134067573547363281E+02
    0.736228414871083192E+01    0.617628787765026388E+01    0.101544126868247986E+00    0.681896517648642231E+01    0.739821803916289067E+01   -0.175086941856242584E+01   -0.134067573547363281E+02
    0.746369277633540840E+01    0.627377765792343745E+01    0.121961504220962524E+00    0.631262160857856447E+01    0.882893851727738621E+01   -0.104717019997429506E+01   -0.138866100311279297E+02
    0.746369277633540840E+01    0.627377765792343745E+01    0.121961504220962524E+00    0.631262160857856447E+01    0.882893851727738621E+01   -0.104717019997429506E+01   -0.138866100311279297E+02
    0.746369277633540840E+01    0.627377765792343745E+01    0.121961504220962524E+00    0.631262160857856447E+01    0.882893851727738621E+01   -0.104717019997429506E+01   -0.138866100311279297E+02
    0.755620862418901584E+01    0.601566657242494518E+01    0.248584896326065063E+00    0.647448123550758314E+01    0.770264740849589913E+01   -0.430155032631010181E+00   -0.151341428756713867E+02
    0.747907404589986413E+01    0.615988593147791708E+01    0.116855479776859283E+00    0.710465870043209158E+01    0.716305388809627797E+01   -0.862823459419529204E+00   -0.130990457534790039E+02
    0.747907404589986413E+01    0.615988593147791708E+01    0.116855479776859283E+00    0.710465870043209158E+01    0.716305388809627797E+01   -0.862823459419529204E+00   -0.130990457534790039E+02
    0.747907404589986413E+01    0.615988593147791708E+01    0.116855479776859283E+00    0.710465870043209158E+01    0.716305388809627797E+01   -0.862823459419529204E+00   -0.130990457534790039E+02
    0.747907404589986413E+01    0.615988593147791708E+01    0.116855479776859283E+00    0.710465870043209158E+01    0.716305388809627797E+01   -0.862823459419529204E+00   -0.130990457534790039E+02
    0.747907404589986413E+01    0.615988593147791708E+01    0.116855479776859283E+00    0.710465870043209158E+01    0.716305388809627797E+01   -0.862823459419529204E+00   -0.130990457534790039E+02
    0.747907404589986413E+01    0.615988593147791708E+01    0.116855479776859283E+00    0.710465870043209158E+01    0.716305388809627797E+01   -0.862823459419529204E+00   -0.130990457534790039E+02
    0.731318957470493292E+01    0.607315911567953481E+01    0.804489403963088989E-01    0.623599354109268944E+01    0.756223151801769156E+01   -0.970564380311656150E+00   -0.151987171173095703E+02
    0.740284109590796824E+01    0.600961083733651780E+01    0.103595554828643799E+00    0.608576261250892170E+01    0.774258890136349276E+01   -0.884107258401628293E+00   -0.153180084228515625E+02
    0.724610397362623004E+01    0.624956111308256723E+01    0.206268839538097382E-01    0.604635416219822197E+01    0.809195519949054543E+01   -0.289059369566002422E+00   -0.145465774536132812E+02
    0.735343121558528612E+01    0.681262066680378275E+01    0.588748864829540253E-01    0.642306034895126832E+01    0.855202010965276216E+01   -0.134609208560672311E+01   -0.146055002212524414E+02
    0.735343121558528612E+01    0.681262066680378275E+01    0.588748864829540253E-01    0.642306034895126832E+01    0.855202010965276216E+01   -0.134609208560672311E+01   -0.146055002212524414E+02
    0.745887358456439653E+01    0.630429429324701918E+01    0.150629103183746338E+00    0.633293004811371762E+01    0.816225610228540432E+01    0.218449627172245808E+00   -0.150227966308593750E+02
    0.728638483413235605E+01    0.636793610579360081E+01    0.915563926100730896E-01    0.683157843903360185E+01    0.867178258696646154E+01   -0.425091957012267985E+00   -0.148168153762817383E+02
    0.797109864637962673E+01    0.569426738314514314E+01    0.182242259383201599E+00    0.759569045406886634E+01    0.700508884163807988E+01   -0.158169906659934423E+01   -0.145296478271484375E+02
    0.797109864637962673E+01    0.569426738314514314E+01    0.182242259383201599E+00    0.759569045406886634E+01    0.700508884163807988E+01   -0.158169906659934423E+01   -0.145296478271484375E+02
    0.753122109545996032E+01    0.590597065286710698E+01    0.805000364780426025E-01    0.723489556543034773E+01    0.724192542805868644E+01   -0.214322203825384738E+01   -0.135889291763305664E+02
    0.753122109545996032E+01    0.590597065286710698E+01    0.805000364780426025E-01    0.723489556543034773E+01    0.724192542805868644E+01   -0.214322203825384738E+01   -0.135889291763305664E+02
    0.753122109545996032E+01    0.590597065286710698E+01    0.805000364780426025E-01    0.723489556543034773E+01    0.724192542805868644E+01   -0.214322203825384738E+01   -0.135889291763305664E+02
    0.753122109545996032E+01    0.590597065286710698E+01    0.805000364780426025E-01    0.723489556543034773E+01    0.724192542805868644E+01   -0.214322203825384738E+01   -0.135889291763305664E+02
    0.734200884945756460E+01    0.634016221303118144E+01    0.864882469177246094E-01    0.637359884584310343E+01    0.740519649317485751E+01    0.253806025486142950E-01   -0.144800376892089844E+02
    0.734200884945756460E+01    0.634016221303118144E+01    0.864882469177246094E-01    0.637359884584310343E+01    0.740519649317485751E+01    0.253806025486142950E-01   -0.144800376892089844E+02
    0.723069855149416973E+01    0.637827131920438184E+01    0.562885850667953491E-01    0.669791153143301887E+01    0.813735302445272524E+01   -0.191336975562483858E+00   -0.141223497390747070E+02
    0.723069855149416973E+01    0.637827131920438184E+01    0.562885850667953491E-01    0.669791153143301887E+01    0.813735302445272524E+01   -0.191336975562483858E+00   -0.141223497390747070E+02
    0.757268406461004950E+01    0.625691306837302719E+01    0.657293945550918579E-02    0.763363196953066581E+01    0.888616445160982060E+01   -0.108790167683239813E+01   -0.131060390472412109E+02
    0.757268406461004950E+01    0.625691306837302719E+01    0.657293945550918579E-02    0.763363196953066581E+01    0.888616445160982060E+01   -0.108790167683239813E+01   -0.131060390472412109E+02
    0.757268406461004950E+01    0.625691306837302719E+01    0.657293945550918579E-02    0.763363196953066581E+01    0.888616445160982060E+01   -0.108790167683239813E+01   -0.131060390472412109E+02
    0.757268406461004950E+01    0.625691306837302719E+01    0.657293945550918579E-02    0.763363196953066581E+01    0.888616445160982060E+01   -0.108790167683239813E+01   -0.131060390472412109E+02
    0.757268406461004950E+01    0.625691306837302719E+01    0.657293945550918579E-02    0.763363196953066581E+01    0.888616445160982060E+01   -0.108790167683239813E+01   -0.131060390472412109E+02
    0.757268406461004950E+01    0.625691306837302719E+01    0.657293945550918579E-02    0.763363196953066581E+01    0.888616445160982060E+01   -0.108790167683239813E+01   -0.131060390472412109E+02
    0.765968962912196627E+01    0.617069635713666020E+01    0.838431119918823242E-01    0.770782357016999065E+01    0.880343677425791959E+01   -0.115448619768845573E+01   -0.142057476043701172E+02
    0.765968962912196627E+01    0.617069635713666020E+01    0.838431119918823242E-01    0.770782357016999065E+01    0.880343677425791959E+01   -0.115448619768845573E+01   -0.142057476043701172E+02
    0.730931219458580017E+01    0.602135360240936279E+01    0.478148758411407471E-01    0.681056259205053038E+01    0.993912351131439209E+01   -0.204360601392340069E+01   -0.135587406158447266E+02
    0.730931219458580017E+01    0.602135360240936279E+01    0.478148758411407471E-01    0.681056259205053038E+01    0.993912351131439209E+01   -0.204360601392340069E+01   -0.135587406158447266E+02
    0.730931219458580017E+01    0.602135360240936279E+01    0.478148758411407471E-01    0.681056259205053038E+01    0.993912351131439209E+01   -0.204360601392340069E+01   -0.135587406158447266E+02
    0.730931219458580017E+01    0.602135360240936279E+01    0.478148758411407471E-01    0.681056259205053038E+01    0.993912351131439209E+01   -0.204360601392340069E+01   -0.135587406158447266E+02
    0.732589694288762683E+01    0.652134480766403613E+01    0.265351310372352600E-01    0.685335402593170162E+01    0.101504042752731838E+02   -0.211644923301431653E+01   -0.143426685333251953E+02
    0.732589694288762683E+01    0.652134480766403613E+01    0.265351310372352600E-01    0.685335402593170162E+01    0.101504042752731838E+02   -0.211644923301431653E+01   -0.143426685333251953E+02
    0.742123465144305783E+01    0.609105134850770202E+01    0.116111665964126587E+00    0.707134280647909463E+01    0.966861369286690930E+01   -0.161009089794423366E+01   -0.133374938964843750E+02
    0.742123465144305783E+01    0.609105134850770202E+01    0.116111665964126587E+00    0.707134280647909463E+01    0.966861369286690930E+01   -0.161009089794423366E+01   -0.133374938964843750E+02
    0.742123465144305783E+01    0.609105134850770202E+01    0.116111665964126587E+00    0.707134280647909463E+01    0.966861369286690930E+01   -0.161009089794423366E+01   -0.133374938964843750E+02
    0.742123465144305783E+01    0.609105134850770202E+01    0.116111665964126587E+00    0.707134280647909463E+01    0.966861369286690930E+01   -0.161009089794423366E+01   -0.133374938964843750E+02
    0.742123465144305783E+01    0.609105134850770202E+01    0.116111665964126587E+00    0.707134280647909463E+01    0.966861369286690930E+01   -0.161009089794423366E+01   -0.133374938964843750E+02
    0.732467723599744946E+01    0.630835533723421360E+01    0.302978903055191040E-01    0.723614961073842622E+01    0.961241907949472107E+01   -0.128931526442766264E+01   -0.139587306976318359E+02
    0.732467723599744946E+01    0.630835533723421360E+01    0.302978903055191040E-01    0.723614961073842622E+01    0.961241907949472107E+01   -0.128931526442766264E+01   -0.139587306976318359E+02
    0.732467723599744946E+01    0.630835533723421360E+01    0.302978903055191040E-01    0.723614961073842622E+01    0.961241907949472107E+01   -0.128931526442766264E+01   -0.139587306976318359E+02
    0.810343461106262630E+01    0.624143749717106999E+01    0.431131459772586823E-01    0.825695478475934408E+01    0.972795103546735440E+01   -0.173083605836904209E+01   -0.135621910095214844E+02
    0.810343461106262630E+01    0.624143749717106999E+01    0.431131459772586823E-01    0.825695478475934408E+01    0.972795103546735440E+01   -0.173083605836904209E+01   -0.135621910095214844E+02
    0.810343461106262630E+01    0.624143749717106999E+01    0.431131459772586823E-01    0.825695478475934408E+01    0.972795103546735440E+01   -0.173083605836904209E+01   -0.135621910095214844E+02
    0.810343461106262630E+01    0.624143749717106999E+01    0.431131459772586823E-01    0.825695478475934408E+01    0.972795103546735440E+01   -0.173083605836904209E+01   -0.135621910095214844E+02
    0.740923528667385067E+01    0.602542718780170361E+01    0.574735403060913086E-01    0.718912365083894578E+01    0.980559150840815974E+01   -0.177455111009059441E+01   -0.133253154754638672E+02
    0.740923528667385067E+01    0.602542718780170361E+01    0.574735403060913086E-01    0.718912365083894578E+01    0.980559150840815974E+01   -0.177455111009059441E+01   -0.133253154754638672E+02
    0.740923528667385067E+01    0.602542718780170361E+01    0.574735403060913086E-01    0.718912365083894578E+01    0.980559150840815974E+01   -0.177455111009059441E+01   -0.133253154754638672E+02
    0.740923528667385067E+01    0.602542718780170361E+01    0.574735403060913086E-01    0.718912365083894578E+01    0.980559150840815974E+01   -0.177455111009059441E+01   -0.133253154754638672E+02
    0.740923528667385067E+01    0.602542718780170361E+01    0.574735403060913086E-01    0.718912365083894578E+01    0.980559150840815974E+01   -0.177455111009059441E+01   -0.133253154754638672E+02
    0.779007690653719109E+01    0.570075449985056260E+01    0.193528547883033752E+00    0.764964242141385942E+01    0.103947329699083149E+02   -0.200825866160113042E+01   -0.144508247375488281E+02
    0.773674330868085303E+01    0.627914710371691687E+01    0.312714837491512299E-01    0.777364360668847354E+01    0.887954305500843866E+01   -0.434811696709911821E+00   -0.132879476547241211E+02
    0.773674330868085303E+01    0.627914710371691687E+01    0.312714837491512299E-01    0.777364360668847354E+01    0.887954305500843866E+01   -0.434811696709911821E+00   -0.132879476547241211E+02
    0.773674330868085303E+01    0.627914710371691687E+01    0.312714837491512299E-01    0.777364360668847354E+01    0.887954305500843866E+01   -0.434811696709911821E+00   -0.132879476547241211E+02
    0.773674330868085303E+01    0.627914710371691687E+01    0.312714837491512299E-01    0.777364360668847354E+01    0.887954305500843866E+01   -0.434811696709911821E+00   -0.132879476547241211E+02
    0.773674330868085303E+01    0.627914710371691687E+01    0.312714837491512299E-01    0.777364360668847354E+01    0.887954305500843866E+01   -0.434811696709911821E+00   -0.132879476547241211E+02
    0.789125316985692393E+01    0.601037025323997653E+01    0.175234824419021606E+00    0.787716666522852904E+01    0.100038960168395157E+02   -0.106875429869806937E+01   -0.134421815872192383E+02
    0.789125316985692393E+01    0.601037025323997653E+01    0.175234824419021606E+00    0.787716666522852904E+01    0.100038960168395157E+02   -0.106875429869806937E+01   -0.134421815872192383E+02
    0.789125316985692393E+01    0.601037025323997653E+01    0.175234824419021606E+00    0.787716666522852904E+01    0.100038960168395157E+02   -0.106875429869806937E+01   -0.134421815872192383E+02
    0.789125316985692393E+01    0.601037025323997653E+01    0.175234824419021606E+00    0.787716666522852904E+01    0.100038960168395157E+02   -0.106875429869806937E+01   -0.134421815872192383E+02
    0.789125316985692393E+01    0.601037025323997653E+01    0.175234824419021606E+00    0.787716666522852904E+01    0.100038960168395157E+02   -0.106875429869806937E+01   -0.134421815872192383E+02
    0.812882600270038758E+01    0.606334261422513787E+01    0.454522669315338135E-01    0.825000782952574774E+01    0.980137902877197220E+01   -0.667945786459039903E+00   -0.130875024795532227E+02
    0.812882600270038758E+01    0.606334261422513787E+01    0.454522669315338135E-01    0.825000782952574774E+01    0.980137902877197220E+01   -0.667945786459039903E+00   -0.130875024795532227E+02
    0.812882600270038758E+01    0.606334261422513787E+01    0.454522669315338135E-01    0.825000782952574774E+01    0.980137902877197220E+01   -0.667945786459039903E+00   -0.130875024795532227E+02
    0.812882600270038758E+01    0.606334261422513787E+01    0.454522669315338135E-01    0.825000782952574774E+01    0.980137902877197220E+01   -0.667945786459039903E+00   -0.130875024795532227E+02
    0.812882600270038758E+01    0.606334261422513787E+01    0.454522669315338135E-01    0.825000782952574774E+01    0.980137902877197220E+01   -0.667945786459039903E+00   -0.130875024795532227E+02
    0.812882600270038758E+01    0.606334261422513787E+01    0.454522669315338135E-01    0.825000782952574774E+01    0.980137902877197220E+01   -0.667945786459039903E+00   -0.130875024795532227E+02
    0.772456826469813596E+01    0.613342121743221202E+01    0.140896558761596680E+00    0.752579073472286542E+01    0.101579948599553287E+02   -0.907173709792836291E+00   -0.141633396148681641E+02
    0.772456826469813596E+01    0.613342121743221202E+01    0.140896558761596680E+00    0.752579073472286542E+01    0.101579948599553287E+02   -0.907173709792836291E+00   -0.141633396148681641E+02
    0.804032792290317744E+01    0.610506104144411399E+01    0.343431353569030762E+00    0.770830974200467089E+01    0.102704025942959287E+02   -0.102044107705637743E+01   -0.152300853729248047E+02
    0.805433945022721431E+01    0.605853783281409886E+01    0.397737979888916016E+00    0.767148222561112902E+01    0.976524765553964436E+01   -0.815494447668449141E+00   -0.150461654663085938E+02
    0.809068669038686572E+01    0.659391821945170786E+01    0.411013923585414886E-01    0.822943634158113113E+01    0.875041152728624105E+01   -0.104345623170810420E+01   -0.152506866455078125E+02
    0.783241825511126599E+01    0.611022016090344167E+01    0.679215192794799805E-01    0.787948830168851266E+01    0.100851260500311604E+02   -0.114330725251692122E+01   -0.140561647415161133E+02
    0.783241825511126599E+01    0.611022016090344167E+01    0.679215192794799805E-01    0.787948830168851266E+01    0.100851260500311604E+02   -0.114330725251692122E+01   -0.140561647415161133E+02
    0.760255242920483010E+01    0.620067092949935983E+01    0.650696679949760437E-01    0.753259139832392854E+01    0.948631456688515939E+01   -0.529632611385100205E-02   -0.137292919158935547E+02
    0.760255242920483010E+01    0.620067092949935983E+01    0.650696679949760437E-01    0.753259139832392854E+01    0.948631456688515939E+01   -0.529632611385100205E-02   -0.137292919158935547E+02
    0.760255242920483010E+01    0.620067092949935983E+01    0.650696679949760437E-01    0.753259139832392854E+01    0.948631456688515939E+01   -0.529632611385100205E-02   -0.137292919158935547E+02
    0.726902678568536942E+01    0.625651353175169600E+01    0.880208313465118408E-01    0.680588422758853095E+01    0.103643489451303648E+02    0.210956702980018562E+00   -0.149211378097534180E+02
    0.758050407548143212E+01    0.638988866510810283E+01    0.186104439198970795E-01    0.760976256607950763E+01    0.924804002343720555E+01    0.116873222449657810E+00   -0.154711418151855469E+02
    0.823391887061295868E+01    0.580212850600364494E+01    0.864518620073795319E-02    0.845709253240452519E+01    0.906167899187076031E+01   -0.662803458664007472E-01   -0.143842906951904297E+02
    0.823391887061295868E+01    0.580212850600364494E+01    0.864518620073795319E-02    0.845709253240452519E+01    0.906167899187076031E+01   -0.662803458664007472E-01   -0.143842906951904297E+02
    0.734364707362539271E+01    0.663706031001784957E+01    0.452685207128524780E-01    0.709925745247864803E+01    0.905121463562204198E+01   -0.246097822484754092E+00   -0.149061908721923828E+02
    0.731170770714943874E+01    0.616393563342663509E+01    0.848977342247962952E-01    0.662770638521798716E+01    0.938977895506673299E+01   -0.545113786125832611E-01   -0.139445190429687500E+02
    0.731170770714943874E+01    0.616393563342663509E+01    0.848977342247962952E-01    0.662770638521798716E+01    0.938977895506673299E+01   -0.545113786125832611E-01   -0.139445190429687500E+02
    0.771248374278258630E+01    0.650023824164501995E+01    0.135429501533508301E+00    0.759971869433965086E+01    0.930555200078629063E+01   -0.163779199250779550E+01   -0.151030254364013672E+02
    0.780644499361697441E+01    0.638573649222824269E+01    0.891412496566772461E-01    0.774123644934540955E+01    0.932683662643980327E+01   -0.750897396637161485E+00   -0.136630296707153320E+02
    0.780644499361697441E+01    0.638573649222824269E+01    0.891412496566772461E-01    0.774123644934540955E+01    0.932683662643980327E+01   -0.750897396637161485E+00   -0.136630296707153320E+02
    0.780644499361697441E+01    0.638573649222824269E+01    0.891412496566772461E-01    0.774123644934540955E+01    0.932683662643980327E+01   -0.750897396637161485E+00   -0.136630296707153320E+02
    0.797200674506211371E+01    0.577768276298470962E+01    0.784736797213554382E-01    0.805892423217300369E+01    0.951569319989462947E+01   -0.833324158728766307E+00   -0.147652826309204102E+02
    0.778941275543244416E+01    0.655820079676104939E+01    0.650442438200116158E-02    0.793332730931219743E+01    0.936343253790403907E+01   -0.175973270162125250E+01   -0.157318801879882812E+02
    0.763277514009921010E+01    0.629961261660270466E+01    0.514463447034358978E-01    0.756819926228960949E+01    0.904382110732726829E+01   -0.168980375254792614E+01   -0.134706134796142578E+02
    0.763277514009921010E+01    0.629961261660270466E+01    0.514463447034358978E-01    0.756819926228960949E+01    0.904382110732726829E+01   -0.168980375254792614E+01   -0.134706134796142578E+02
    0.763277514009921010E+01    0.629961261660270466E+01    0.514463447034358978E-01    0.756819926228960949E+01    0.904382110732726829E+01   -0.168980375254792614E+01   -0.134706134796142578E+02
    0.763277514009921010E+01    0.629961261660270466E+01    0.514463447034358978E-01    0.756819926228960949E+01    0.904382110732726829E+01   -0.168980375254792614E+01   -0.134706134796142578E+02
    0.763277514009921010E+01    0.629961261660270466E+01    0.514463447034358978E-01    0.756819926228960949E+01    0.904382110732726829E+01   -0.168980375254792614E+01   -0.134706134796142578E+02
    0.770904495467948170E+01    0.610574799322608275E+01    0.294777572154998779E+00    0.720971979781435568E+01    0.954622869489602088E+01   -0.131155976606078206E+01   -0.149604682922363281E+02
    0.747140947463261273E+01    0.568824046371725789E+01    0.115585364401340485E+00    0.727291188165452596E+01    0.103400747853788566E+02   -0.181847573250513328E+01   -0.151380252838134766E+02
    0.788064095133445086E+01    0.629180002912189540E+01    0.144561707973480225E+00    0.785846229919046202E+01    0.927312680615780494E+01   -0.134344914864849985E+01   -0.135133895874023438E+02
    0.788064095133445086E+01    0.629180002912189540E+01    0.144561707973480225E+00    0.785846229919046202E+01    0.927312680615780494E+01   -0.134344914864849985E+01   -0.135133895874023438E+02
    0.788064095133445086E+01    0.629180002912189540E+01    0.144561707973480225E+00    0.785846229919046202E+01    0.927312680615780494E+01   -0.134344914864849985E+01   -0.135133895874023438E+02
    0.788064095133445086E+01    0.629180002912189540E+01    0.144561707973480225E+00    0.785846229919046202E+01    0.927312680615780494E+01   -0.134344914864849985E+01   -0.135133895874023438E+02
    0.794145565400907039E+01    0.617491264632228454E+01    0.105107322335243225E+00    0.791986369280181357E+01    0.842433597105659437E+01   -0.193127990912513448E+01   -0.134885559082031250E+02
    0.794145565400907039E+01    0.617491264632228454E+01    0.105107322335243225E+00    0.791986369280181357E+01    0.842433597105659437E+01   -0.193127990912513448E+01   -0.134885559082031250E+02
    0.794145565400907039E+01    0.617491264632228454E+01    0.105107322335243225E+00    0.791986369280181357E+01    0.842433597105659437E+01   -0.193127990912513448E+01   -0.134885559082031250E+02
    0.794145565400907039E+01    0.617491264632228454E+01    0.105107322335243225E+00    0.791986369280181357E+01    0.842433597105659437E+01   -0.193127990912513448E+01   -0.134885559082031250E+02
    0.726735711910813276E+01    0.662133490776302658E+01    0.473030619323253632E-01    0.646606049461767007E+01    0.101722153772854895E+02   -0.101458926526385396E+01   -0.144200305938720703E+02
    0.726735711910813276E+01    0.662133490776302658E+01    0.473030619323253632E-01    0.646606049461767007E+01    0.101722153772854895E+02   -0.101458926526385396E+01   -0.144200305938720703E+02
    0.768225854255047302E+01    0.602370441141741964E+01    0.511907301843166351E-01    0.777392648483691140E+01    0.103668377133169276E+02   -0.157393659750180648E+01   -0.137555866241455078E+02
    0.768225854255047302E+01    0.602370441141741964E+01    0.511907301843166351E-01    0.777392648483691140E+01    0.103668377133169276E+02   -0.157393659750180648E+01   -0.137555866241455078E+02
    0.768225854255047302E+01    0.602370441141741964E+01    0.511907301843166351E-01    0.777392648483691140E+01    0.103668377133169276E+02   -0.157393659750180648E+01   -0.137555866241455078E+02
