    0.828607725606914869E+01    0.115650043572199523E+01    0.109631383419036865E+01    0.877879434486178667E+01    0.844363433908748284E+01   -0.106497185974592634E+01   -0.190687980651855469E+02
    0.832707821262668446E+01    0.708166662166528571E+00    0.154802274703979492E+01    0.921511004762843555E+01    0.852801450736785327E+01   -0.195288379879206997E+01   -0.187439041137695312E+02
    0.842330139990060012E+01    0.107839950120364159E+01    0.101619195938110352E+01    0.872035532573489469E+01    0.792734548989768584E+01   -0.631044071592871125E+00   -0.177382392883300781E+02
    0.803014165915122824E+01    0.627711233247537970E+00    0.104165840148925781E+01    0.954918368018060271E+01    0.939172461511184942E+01   -0.931378855348901302E+00   -0.172048568725585938E+02
    0.828732725275691351E+01    0.837710994027499267E+00    0.381905317306518555E+00    0.891350438868291484E+01    0.748932670115470600E+01   -0.133937520963103651E+01   -0.171534080505371094E+02
    0.827306604493031550E+01    0.722831939700069759E+00    0.137541294097900391E+01    0.894360781025627105E+01    0.750241076576354082E+01   -0.920261612744621260E+00   -0.170224647521972656E+02
    0.822582907496392757E+01    0.935403444141812979E+00    0.158820903301239014E+01    0.911256068713825407E+01    0.979605256844305750E+01   -0.693352381401475037E+00   -0.169401397705078125E+02
    0.810161492008803386E+01    0.663966334463014118E+00    0.302140302956104279E-01    0.914085718791832491E+01    0.797452037138087100E+01   -0.111956641248415889E+01   -0.165713577270507812E+02
    0.831052431929203017E+01    0.759906692099451719E+00    0.508132100105285645E+00    0.908246433561623867E+01    0.797416536636713236E+01   -0.937099782426532579E+00   -0.165227031707763672E+02
    0.856669429035541974E+01    0.105190847753667227E+01    0.181151673197746277E+00    0.909880621414975721E+01    0.814698454320747878E+01   -0.166830541861805992E+01   -0.162822914123535156E+02
    0.846071931002261479E+01    0.572035510265943348E+00    0.286976754665374756E+00    0.979709693997330255E+01    0.801493633952157936E+01   -0.160093331865418786E+01   -0.158920726776123047E+02
    0.815969833331623207E+01    0.527162371368626315E+00    0.342707371711730957E+01    0.868065878792554280E+01    0.733850019872380788E+01   -0.322397479479234805E+00   -0.158827390670776367E+02
    0.770221670996133945E+01    0.375783732488075783E+00    0.121552538871765137E+01    0.893085395311637065E+01    0.747679180476883420E+01   -0.142615540728638912E-01   -0.157988348007202148E+02
    0.828288830256103736E+01    0.549678139558826828E+00    0.179874613881111145E+00    0.965229807338631396E+01    0.786621350492273130E+01   -0.151273636240478337E+01   -0.156649589538574219E+02
    0.837496987026342588E+01    0.845988998094362787E+00    0.932352021336555481E-01    0.916026459943541127E+01    0.804443775783355974E+01   -0.160770407068705867E+01   -0.156494855880737305E+02
    0.846956437828550079E+01    0.917696561330330285E+00    0.193438634276390076E+00    0.912760689425929073E+01    0.716890556211813212E+01   -0.136805062403564381E+01   -0.155140457153320312E+02
    0.841353006913194967E+01    0.492775246004254264E+00    0.561049878597259521E+00    0.987480487512751459E+01    0.854132830187055170E+01   -0.121936495094651387E+01   -0.154001464843750000E+02
    0.856227404097403877E+01    0.100479767372988316E+01    0.954936817288398743E-01    0.912409186896762314E+01    0.722557971312947434E+01   -0.184401931068872238E+01   -0.153816509246826172E+02
    0.836700273669535299E+01    0.880610686873755322E+00    0.325167417526245117E+00    0.900025221933441166E+01    0.786559778827996414E+01   -0.590150783620249086E+00   -0.153076162338256836E+02
    0.776113926052086800E+01    0.430635743861268294E+00    0.101169788837432861E+01    0.894840773606325257E+01    0.746474147048400205E+01   -0.294980970421385269E+00   -0.152221984863281250E+02
    0.779590998294906612E+01    0.401486724170620812E+00    0.248832297325134277E+01    0.884486640579637751E+01    0.740001113247158671E+01   -0.892051431789256055E+00   -0.152104282379150391E+02
    0.832155594070317939E+01    0.699892217604400013E+00    0.231171414256095886E+00    0.927630374104286304E+01    0.749345728365054597E+01   -0.103799478135418788E+01   -0.151334037780761719E+02
    0.744671894023306447E+01    0.498206017561794445E+00    0.240141534805297852E+01    0.852327683691117777E+01    0.840175050871206786E+01   -0.484516969096123296E+00   -0.151170377731323242E+02
    0.847074331146007253E+01    0.804021571196059770E+00    0.110568165779113770E+01    0.913674271445416863E+01    0.799347198559395888E+01   -0.109181104304441523E+01   -0.150097198486328125E+02
    0.820235841251773579E+01    0.900998968879920148E+00    0.191355752944946289E+01    0.888059347539594590E+01    0.867874336857006412E+01   -0.107936097390430730E+01   -0.150096740722656250E+02
    0.822628407962381658E+01    0.428431978078992304E+00    0.129976487159729004E+01    0.966478324894620222E+01    0.766606781484116251E+01   -0.115592430383508327E+01   -0.149557437896728516E+02
    0.831000422937494143E+01    0.793864643430455375E+00    0.482007771730422974E+00    0.898771427051461380E+01    0.720251209348493493E+01   -0.547607390150359086E+00   -0.149465351104736328E+02
    0.806203816514102911E+01    0.620107530496900816E+00    0.121478758752346039E+00    0.905023473355493202E+01    0.717943020097266693E+01   -0.387911265414276896E+00   -0.148478355407714844E+02
    0.822180997073609277E+01    0.718152672405746428E+00    0.160365074872970581E+00    0.921798307365031633E+01    0.713896518956796733E+01   -0.101117935439855944E+01   -0.147904624938964844E+02
    0.812468386419242350E+01    0.673504410354109129E+00    0.133904469013214111E+01    0.951269827759693420E+01    0.937131876774106054E+01   -0.818468404212662870E+00   -0.147463102340698242E+02
    0.831068836395965604E+01    0.460448228996075459E+00    0.117068469524383545E+01    0.968070498058026985E+01    0.756132999852260657E+01   -0.126447292853060445E+01   -0.147108821868896484E+02
    0.833436794357979238E+01    0.518278026730408681E+00    0.517205476760864258E+00    0.970249598522175916E+01    0.777187840974122590E+01   -0.178992737396206825E+01   -0.146922607421875000E+02
    0.838092988818291040E+01    0.455183476712452739E+00    0.154417502880096436E+01    0.985954450867653165E+01    0.887025977110632624E+01   -0.178433124303753221E+01   -0.146882133483886719E+02
    0.827729765761297642E+01    0.633904211142606311E+00    0.230725693702697754E+01    0.890428860116287701E+01    0.772299533728862020E+01   -0.164623896680224568E+01   -0.146601915359497070E+02
    0.846864562397948717E+01    0.839799223957176322E+00    0.890496969223022461E+00    0.924621209849695269E+01    0.845653760539842203E+01   -0.177765123849241125E+01   -0.146450777053833008E+02
    0.834156724627140989E+01    0.579772186747127605E+00    0.818913459777832031E+00    0.951800882124743453E+01    0.714317922685665518E+01   -0.156552579206457554E+01   -0.145831661224365234E+02
    0.812898900075581210E+01    0.577285282738410177E+00    0.122442293167114258E+01    0.909042925269226387E+01    0.781616722913104400E+01   -0.638682798986262013E+00   -0.145604190826416016E+02
    0.843784777829723609E+01    0.915025539822879597E+00    0.582349970936775208E-01    0.912488278687079557E+01    0.798704999510322011E+01   -0.135903548316123435E+01   -0.145483760833740234E+02
    0.854628741205075748E+01    0.102167364665357829E+01    0.474114000797271729E+00    0.900265325025259600E+01    0.785697627400852028E+01   -0.165123707953489229E+01   -0.145444450378417969E+02
    0.838258864678322269E+01    0.827904288039873038E+00    0.201067745685577393E+00    0.914880228447512955E+01    0.764070920007871024E+01   -0.934155065877341872E+00   -0.143709115982055664E+02
    0.812693742672094110E+01    0.581258911572112402E+00    0.144480347633361816E+01    0.896763178717746712E+01    0.765177832652671963E+01   -0.874335494955676307E+00   -0.143331365585327148E+02
    0.845398422413206951E+01    0.698105685550690858E+00    0.196260416507720947E+01    0.908536891265552349E+01    0.803988859929290811E+01   -0.182794162174081753E+01   -0.143210573196411133E+02
    0.840464624248117786E+01    0.881814279433796644E+00    0.947824299335479736E+00    0.955939361046413794E+01    0.938511723450621815E+01   -0.912665746486458485E+00   -0.142901153564453125E+02
    0.849440977627252636E+01    0.858667672193770493E+00    0.316163206100463867E+01    0.903793482719265384E+01    0.906139559394971172E+01   -0.175343055827545902E+01   -0.142855453491210938E+02
    0.847655331883789209E+01    0.946590572464185209E+00    0.247151446342468262E+01    0.899733719239706531E+01    0.869274882520834247E+01   -0.141395562887846249E+01   -0.142484264373779297E+02
    0.829236404960138174E+01    0.655891884211214360E+00    0.167729306221008301E+01    0.927338351750401912E+01    0.846335275315223434E+01   -0.123384733449869399E+01   -0.142238349914550781E+02
    0.844058120155863989E+01    0.602018226998649375E+00    0.931553125381469727E+00    0.957218209373463935E+01    0.825623378510429440E+01   -0.190049727215881226E+01   -0.142168264389038086E+02
    0.832702979930606801E+01    0.783937142607328163E+00    0.841345071792602539E+00    0.898003938129201096E+01    0.729179743129504487E+01   -0.115244762180957183E+01   -0.141643533706665039E+02
    0.832702979930606801E+01    0.783937142607328163E+00    0.841345071792602539E+00    0.898003938129201096E+01    0.729179743129504487E+01   -0.115244762180957183E+01   -0.141643533706665039E+02
    0.832074264181795442E+01    0.718000056270189480E+00    0.149819099903106689E+01    0.897865685938776181E+01    0.758817237357192287E+01   -0.148647831032759492E+01   -0.141639013290405273E+02
    0.832074264181795442E+01    0.718000056270189480E+00    0.149819099903106689E+01    0.897865685938776181E+01    0.758817237357192287E+01   -0.148647831032759492E+01   -0.141639013290405273E+02
    0.840000385195176058E+01    0.709293379255635403E+00    0.162647098302841187E+00    0.946493260635119782E+01    0.765751319354793036E+01   -0.181839626171045388E+01   -0.141622257232666016E+02
    0.840000385195176058E+01    0.709293379255635403E+00    0.162647098302841187E+00    0.946493260635119782E+01    0.765751319354793036E+01   -0.181839626171045388E+01   -0.141622257232666016E+02
    0.841236261932094820E+01    0.837246247327516069E+00    0.456152886152267456E+00    0.902050352666140220E+01    0.716129462442317077E+01   -0.551257585173933196E+00   -0.141047086715698242E+02
    0.815038987497029588E+01    0.743710063113071307E+00    0.179621386528015137E+01    0.934831796975310070E+01    0.101489679947990989E+02   -0.900076506489661643E+00   -0.140843334197998047E+02
    0.815038987497029588E+01    0.743710063113071307E+00    0.179621386528015137E+01    0.934831796975310070E+01    0.101489679947990989E+02   -0.900076506489661643E+00   -0.140843334197998047E+02
    0.845086927145152522E+01    0.793497168356316562E+00    0.215991640090942383E+01    0.895664424508533763E+01    0.803769869339970100E+01   -0.137844391691476309E+01   -0.140373077392578125E+02
    0.836613691436519957E+01    0.807661378749019332E+00    0.124772965908050537E+00    0.923276315149175453E+01    0.786302908516948662E+01   -0.156790481262846404E+01   -0.139559640884399414E+02
    0.836613691436519957E+01    0.807661378749019332E+00    0.124772965908050537E+00    0.923276315149175453E+01    0.786302908516948662E+01   -0.156790481262846404E+01   -0.139559640884399414E+02
    0.814988492039040402E+01    0.650360750387761866E+00    0.226663565635681152E+01    0.887865492062713457E+01    0.816619450372661149E+01   -0.123944971606030552E+01   -0.139529056549072266E+02
    0.814988492039040402E+01    0.650360750387761866E+00    0.226663565635681152E+01    0.887865492062713457E+01    0.816619450372661149E+01   -0.123944971606030552E+01   -0.139529056549072266E+02
    0.796080660994384548E+01    0.433033990829866988E+00    0.181622362136840820E+01    0.916886012291587882E+01    0.806623820666085223E+01   -0.446721376543204984E+00   -0.138638610839843750E+02
    0.796080660994384548E+01    0.433033990829866988E+00    0.181622362136840820E+01    0.916886012291587882E+01    0.806623820666085223E+01   -0.446721376543204984E+00   -0.138638610839843750E+02
    0.840703876363176228E+01    0.632812303843665935E+00    0.153180694580078125E+01    0.930944029951726293E+01    0.809690074093313683E+01   -0.192345890091885963E+01   -0.138487882614135742E+02
    0.835033395256710520E+01    0.834335783402603615E+00    0.218915176391601562E+01    0.931367859831636125E+01    0.974332300219088410E+01   -0.132273221435404187E+01   -0.138351345062255859E+02
    0.795597548672458110E+01    0.517789628653748335E+00    0.186487007141113281E+01    0.878697543170578221E+01    0.730312605520553859E+01   -0.683114828714614264E+00   -0.138309535980224609E+02
    0.825165131553911202E+01    0.708064272680074769E+00    0.229447912424802780E-01    0.913662897901092386E+01    0.804965154470421140E+01   -0.445451957572853274E-01   -0.138135280609130859E+02
    0.824947312281110712E+01    0.529148600939495006E+00    0.150007152557373047E+01    0.958837105629493180E+01    0.883876248298518341E+01   -0.145415658552834248E+01   -0.138028697967529297E+02
    0.824947312281110712E+01    0.529148600939495006E+00    0.150007152557373047E+01    0.958837105629493180E+01    0.883876248298518341E+01   -0.145415658552834248E+01   -0.138028697967529297E+02
    0.794360017066516644E+01    0.482874553891537439E+00    0.653189957141876221E+00    0.923724963607070393E+01    0.729588413244135214E+01   -0.116623771722189806E+01   -0.137902965545654297E+02
    0.794360017066516644E+01    0.482874553891537439E+00    0.653189957141876221E+00    0.923724963607070393E+01    0.729588413244135214E+01   -0.116623771722189806E+01   -0.137902965545654297E+02
    0.841887699644548171E+01    0.927008653623383250E+00    0.122434151172637939E+01    0.939007839881400841E+01    0.909859440043630130E+01   -0.117106374399554825E+01   -0.137783966064453125E+02
    0.841887699644548171E+01    0.927008653623383250E+00    0.122434151172637939E+01    0.939007839881400841E+01    0.909859440043630130E+01   -0.117106374399554825E+01   -0.137783966064453125E+02
    0.834245544771408021E+01    0.797225660804383840E+00    0.109087324142456055E+01    0.965472776791111897E+01    0.954072449450285731E+01   -0.999003016337216554E+00   -0.137455701828002930E+02
    0.834245544771408021E+01    0.797225660804383840E+00    0.109087324142456055E+01    0.965472776791111897E+01    0.954072449450285731E+01   -0.999003016337216554E+00   -0.137455701828002930E+02
    0.820339934534358051E+01    0.725975646238611882E+00    0.129724562168121338E+00    0.916385943700110950E+01    0.819293375515898248E+01   -0.544957047711808862E+00   -0.137416915893554688E+02
    0.829270994546495466E+01    0.512246213714692034E+00    0.126593083143234253E+00    0.968739747603803991E+01    0.738045099692836715E+01   -0.109330611107998199E+01   -0.137273035049438477E+02
    0.845485519775248839E+01    0.728984884227654950E+00    0.127283215522766113E+01    0.928801870494091730E+01    0.827756312700551433E+01   -0.212917945383594631E+01   -0.137231559753417969E+02
    0.858413627501441745E+01    0.727930711720618184E+00    0.261668592691421509E+00    0.960789531677039044E+01    0.803950979143466071E+01   -0.206142497400456204E+01   -0.136700735092163086E+02
    0.838349538546281714E+01    0.558509616098541883E+00    0.267641007900238037E+00    0.972863954242042794E+01    0.821299947204173542E+01   -0.167576952812487945E+01   -0.136549682617187500E+02
    0.838349538546281714E+01    0.558509616098541883E+00    0.267641007900238037E+00    0.972863954242042794E+01    0.821299947204173542E+01   -0.167576952812487945E+01   -0.136549682617187500E+02
    0.861666398215813700E+01    0.971006948885459131E+00    0.498894453048706055E+00    0.915181356607955010E+01    0.734570798717427831E+01   -0.216868883526794232E+01   -0.136420192718505859E+02
    0.861666398215813700E+01    0.971006948885459131E+00    0.498894453048706055E+00    0.915181356607955010E+01    0.734570798717427831E+01   -0.216868883526794232E+01   -0.136420192718505859E+02
    0.832572297592209587E+01    0.759491188607307688E+00    0.207630932331085205E+00    0.911076914188003073E+01    0.749032500650931787E+01   -0.443335003970493746E+00   -0.135567588806152344E+02
    0.848566934354329128E+01    0.603015404789388310E+00    0.176898300647735596E+00    0.976533352752950456E+01    0.842453831391265773E+01   -0.176993424677436972E+01   -0.135283737182617188E+02
    0.849743366027199087E+01    0.699972479924378832E+00    0.233657884597778320E+01    0.961784777462400875E+01    0.926669207149450536E+01   -0.169552274090858424E+01   -0.134849720001220703E+02
    0.849743366027199087E+01    0.699972479924378832E+00    0.233657884597778320E+01    0.961784777462400875E+01    0.926669207149450536E+01   -0.169552274090858424E+01   -0.134849720001220703E+02
    0.835375315424611387E+01    0.834539058056377403E+00    0.180904239416122437E+00    0.909440518221206062E+01    0.795150959919026779E+01   -0.765840386464376577E+00   -0.134693508148193359E+02
    0.854989851971807369E+01    0.569216085787010773E+00    0.574481427669525146E+00    0.983719300258971252E+01    0.800174700227183244E+01   -0.212745241825217279E+01   -0.134591617584228516E+02
    0.854989851971807369E+01    0.569216085787010773E+00    0.574481427669525146E+00    0.983719300258971252E+01    0.800174700227183244E+01   -0.212745241825217279E+01   -0.134591617584228516E+02
    0.862923582538880218E+01    0.999096533173405188E+00    0.219699931144714355E+01    0.896124331112829786E+01    0.839521637997171233E+01   -0.198339286540403403E+01   -0.134428195953369141E+02
    0.862923582538880218E+01    0.999096533173405188E+00    0.219699931144714355E+01    0.896124331112829786E+01    0.839521637997171233E+01   -0.198339286540403403E+01   -0.134428195953369141E+02
    0.810278471961674107E+01    0.638746413115045097E+00    0.663262069225311279E+00    0.904191700221898564E+01    0.805949519480991583E+01   -0.581433338771019326E+00   -0.134180879592895508E+02
    0.810278471961674107E+01    0.638746413115045097E+00    0.663262069225311279E+00    0.904191700221898564E+01    0.805949519480991583E+01   -0.581433338771019326E+00   -0.134180879592895508E+02
    0.837843162715101109E+01    0.625478147667843376E+00    0.289618921279907227E+01    0.972195256854097423E+01    0.104148668620994727E+02   -0.156453057871409618E+01   -0.134094638824462891E+02
    0.837843162715101109E+01    0.625478147667843376E+00    0.289618921279907227E+01    0.972195256854097423E+01    0.104148668620994727E+02   -0.156453057871409618E+01   -0.134094638824462891E+02
    0.816004363597570581E+01    0.540231233956491863E+00    0.349266797304153442E+00    0.950610451611978391E+01    0.721141652839888092E+01   -0.151658011423542805E+01   -0.133461561203002930E+02
    0.816004363597570581E+01    0.540231233956491863E+00    0.349266797304153442E+00    0.950610451611978391E+01    0.721141652839888092E+01   -0.151658011423542805E+01   -0.133461561203002930E+02
    0.819489985617266470E+01    0.708878848014748875E+00    0.351105123758316040E+00    0.901290790335237446E+01    0.726133087438451419E+01   -0.796860604671117745E+00   -0.133453884124755859E+02
    0.819489985617266470E+01    0.708878848014748875E+00    0.351105123758316040E+00    0.901290790335237446E+01    0.726133087438451419E+01   -0.796860604671117745E+00   -0.133453884124755859E+02
    0.845332677357389173E+01    0.506558264460884589E+00    0.597104966640472412E+00    0.986116289660913026E+01    0.767539877734747478E+01   -0.200657846242395532E+01   -0.133148355484008789E+02
    0.845332677357389173E+01    0.506558264460884589E+00    0.597104966640472412E+00    0.986116289660913026E+01    0.767539877734747478E+01   -0.200657846242395532E+01   -0.133148355484008789E+02
    0.791559974202292338E+01    0.429910103797377374E+00    0.180455565452575684E+01    0.920316683469490115E+01    0.786503057741742140E+01   -0.940208684264473460E+00   -0.132948503494262695E+02
    0.791559974202292338E+01    0.429910103797377374E+00    0.180455565452575684E+01    0.920316683469490115E+01    0.786503057741742140E+01   -0.940208684264473460E+00   -0.132948503494262695E+02
    0.841806088084360660E+01    0.476948619688022268E+00    0.761168122291564941E+00    0.989522731518264287E+01    0.845102687905813355E+01   -0.198354248571806235E+01   -0.132195177078247070E+02
    0.841806088084360660E+01    0.476948619688022268E+00    0.761168122291564941E+00    0.989522731518264287E+01    0.845102687905813355E+01   -0.198354248571806235E+01   -0.132195177078247070E+02
    0.812631119390649381E+01    0.418809903197670808E+00    0.155205845832824707E+00    0.974557131685577005E+01    0.724612004975330937E+01   -0.125769456212723107E+01   -0.132154197692871094E+02
    0.812631119390649381E+01    0.418809903197670808E+00    0.155205845832824707E+00    0.974557131685577005E+01    0.724612004975330937E+01   -0.125769456212723107E+01   -0.132154197692871094E+02
    0.840503609355943127E+01    0.799245631608770601E+00    0.194063949584960938E+01    0.957943762822320011E+01    0.104647430123805929E+02   -0.141354929031292031E+01   -0.131798286437988281E+02
    0.840503609355943127E+01    0.799245631608770601E+00    0.194063949584960938E+01    0.957943762822320011E+01    0.104647430123805929E+02   -0.141354929031292031E+01   -0.131798286437988281E+02
    0.815243809422101151E+01    0.614166227643760831E+00    0.772814219817519188E-02    0.930198430238277929E+01    0.714179164361813879E+01   -0.142937094417653743E+01   -0.131720771789550781E+02
    0.815243809422101151E+01    0.614166227643760831E+00    0.772814219817519188E-02    0.930198430238277929E+01    0.714179164361813879E+01   -0.142937094417653743E+01   -0.131720771789550781E+02
    0.830625927637339245E+01    0.775376270093894426E+00    0.938008651137351990E-01    0.916791389968442694E+01    0.806689519003981559E+01   -0.763603726699350061E+00   -0.131062965393066406E+02
    0.830625927637339245E+01    0.775376270093894426E+00    0.938008651137351990E-01    0.916791389968442694E+01    0.806689519003981559E+01   -0.763603726699350061E+00   -0.131062965393066406E+02
    0.835815619521229536E+01    0.571658215783894974E+00    0.770119786262512207E+00    0.954797901284780437E+01    0.704763073963538478E+01   -0.180805177249326321E+01   -0.131000938415527344E+02
    0.835815619521229536E+01    0.571658215783894974E+00    0.770119786262512207E+00    0.954797901284780437E+01    0.704763073963538478E+01   -0.180805177249326321E+01   -0.131000938415527344E+02
    0.848865106575349770E+01    0.649055893519446481E+00    0.673596203327178955E+00    0.955311554271486330E+01    0.768294494376473747E+01   -0.205641535857815905E+01   -0.130932826995849609E+02
    0.848865106575349770E+01    0.649055893519446481E+00    0.673596203327178955E+00    0.955311554271486330E+01    0.768294494376473747E+01   -0.205641535857815905E+01   -0.130932826995849609E+02
    0.855165604640571608E+01    0.931754407975225796E+00    0.360270738601684570E+00    0.919246634136989549E+01    0.784660359152781162E+01   -0.200659864106869934E+01   -0.130869216918945312E+02
    0.855165604640571608E+01    0.931754407975225796E+00    0.360270738601684570E+00    0.919246634136989549E+01    0.784660359152781162E+01   -0.200659864106869934E+01   -0.130869216918945312E+02
    0.822353681028736361E+01    0.601239285013064229E+00    0.254166746139526367E+01    0.928952549065756017E+01    0.874277836563316413E+01   -0.987621843220786166E+00   -0.130416316986083984E+02
    0.822353681028736361E+01    0.601239285013064229E+00    0.254166746139526367E+01    0.928952549065756017E+01    0.874277836563316413E+01   -0.987621843220786166E+00   -0.130416316986083984E+02
    0.803868648626054494E+01    0.579674045439504959E+00    0.139097523689270020E+01    0.913531726947566902E+01    0.841190121671633051E+01   -0.822213997301950883E+00   -0.130367374420166016E+02
    0.803868648626054494E+01    0.579674045439504959E+00    0.139097523689270020E+01    0.913531726947566902E+01    0.841190121671633051E+01   -0.822213997301950883E+00   -0.130367374420166016E+02
    0.821085627975153010E+01    0.712202475832358184E+00    0.380121827125549316E+00    0.896555650341559129E+01    0.732007167386699997E+01   -0.375625638963032804E+00   -0.130327205657958984E+02
    0.821085627975153010E+01    0.712202475832358184E+00    0.380121827125549316E+00    0.896555650341559129E+01    0.732007167386699997E+01   -0.375625638963032804E+00   -0.130327205657958984E+02
    0.815192828230764555E+01    0.557628261437434380E+00    0.437527030706405640E+00    0.938626750710522373E+01    0.819087016665536538E+01   -0.855253706777570288E+00   -0.129987535476684570E+02
    0.815192828230764555E+01    0.557628261437434380E+00    0.437527030706405640E+00    0.938626750710522373E+01    0.819087016665536538E+01   -0.855253706777570288E+00   -0.129987535476684570E+02
    0.837012391208285500E+01    0.821890598067239631E+00    0.588966980576515198E-01    0.913129024317671956E+01    0.703194044552378461E+01   -0.908418865607151460E+00   -0.129912939071655273E+02
    0.837012391208285500E+01    0.821890598067239631E+00    0.588966980576515198E-01    0.913129024317671956E+01    0.703194044552378461E+01   -0.908418865607151460E+00   -0.129912939071655273E+02
    0.824459908228692484E+01    0.647008781205683059E+00    0.111848080158233643E+01    0.983267649204111471E+01    0.985819263978510918E+01   -0.115807367375320069E+01   -0.129893894195556641E+02
    0.824459908228692484E+01    0.647008781205683059E+00    0.111848080158233643E+01    0.983267649204111471E+01    0.985819263978510918E+01   -0.115807367375320069E+01   -0.129893894195556641E+02
    0.820793930989207254E+01    0.611197208506270240E+00    0.452722646296024323E-01    0.939233896782799249E+01    0.729683935639295900E+01   -0.155003209030181544E+01   -0.129429044723510742E+02
    0.820793930989207254E+01    0.611197208506270240E+00    0.452722646296024323E-01    0.939233896782799249E+01    0.729683935639295900E+01   -0.155003209030181544E+01   -0.129429044723510742E+02
    0.826410378016830904E+01    0.667484502357215237E+00    0.325448679924011230E+01    0.921750643050081209E+01    0.970766554187544450E+01   -0.137261999693088343E+01   -0.129392557144165039E+02
    0.826410378016830904E+01    0.667484502357215237E+00    0.325448679924011230E+01    0.921750643050081209E+01    0.970766554187544450E+01   -0.137261999693088343E+01   -0.129392557144165039E+02
    0.826705945542017773E+01    0.541374347932198186E+00    0.167657658457756042E+00    0.958949941581882825E+01    0.737643694180474618E+01   -0.185335197062514001E+01   -0.129309253692626953E+02
    0.826705945542017773E+01    0.541374347932198186E+00    0.167657658457756042E+00    0.958949941581882825E+01    0.737643694180474618E+01   -0.185335197062514001E+01   -0.129309253692626953E+02
    0.829978552960342952E+01    0.557089029153689408E+00    0.294936686754226685E+00    0.961566324260081196E+01    0.809598753337757060E+01   -0.140956981049526875E+01   -0.129076995849609375E+02
    0.829978552960342952E+01    0.557089029153689408E+00    0.294936686754226685E+00    0.961566324260081196E+01    0.809598753337757060E+01   -0.140956981049526875E+01   -0.129076995849609375E+02
    0.829978552960342952E+01    0.557089029153689408E+00    0.294936686754226685E+00    0.961566324260081196E+01    0.809598753337757060E+01   -0.140956981049526875E+01   -0.129076995849609375E+02
    0.805510135845032949E+01    0.493927915918706051E+00    0.789724811911582947E-01    0.947869774007384081E+01    0.700782563659689295E+01   -0.121019331293360288E+01   -0.129029130935668945E+02
    0.805510135845032949E+01    0.493927915918706051E+00    0.789724811911582947E-01    0.947869774007384081E+01    0.700782563659689295E+01   -0.121019331293360288E+01   -0.129029130935668945E+02
    0.844743807169640704E+01    0.598856280285440912E+00    0.939836651086807251E-01    0.973499698555865933E+01    0.811565937323490161E+01   -0.174865980639326679E+01   -0.129009447097778320E+02
    0.844743807169640704E+01    0.598856280285440912E+00    0.939836651086807251E-01    0.973499698555865933E+01    0.811565937323490161E+01   -0.174865980639326679E+01   -0.129009447097778320E+02
    0.816874916747905289E+01    0.662206463322301486E+00    0.332593321800231934E+00    0.915284467456881679E+01    0.740470152100217316E+01   -0.909640170362714384E+00   -0.128930091857910156E+02
    0.816874916747905289E+01    0.662206463322301486E+00    0.332593321800231934E+00    0.915284467456881679E+01    0.740470152100217316E+01   -0.909640170362714384E+00   -0.128930091857910156E+02
    0.814281132703871791E+01    0.645856307121244533E+00    0.149095273017883301E+01    0.933962582678536535E+01    0.882626013501088202E+01   -0.852633166557416722E+00   -0.128763647079467773E+02
    0.814281132703871791E+01    0.645856307121244533E+00    0.149095273017883301E+01    0.933962582678536535E+01    0.882626013501088202E+01   -0.852633166557416722E+00   -0.128763647079467773E+02
    0.792133100186852612E+01    0.579458312270691778E+00    0.143563997745513916E+01    0.940893906811567682E+01    0.980281141515438215E+01   -0.125604184858839840E+00   -0.128630685806274414E+02
    0.792133100186852612E+01    0.579458312270691778E+00    0.143563997745513916E+01    0.940893906811567682E+01    0.980281141515438215E+01   -0.125604184858839840E+00   -0.128630685806274414E+02
    0.819279356679474979E+01    0.564286527072748623E+00    0.204009234905242920E+00    0.947748330660665772E+01    0.714415880465048314E+01   -0.129410263355086830E+01   -0.128584747314453125E+02
    0.819279356679474979E+01    0.564286527072748623E+00    0.204009234905242920E+00    0.947748330660665772E+01    0.714415880465048314E+01   -0.129410263355086830E+01   -0.128584747314453125E+02
    0.819279356679474979E+01    0.564286527072748623E+00    0.204009234905242920E+00    0.947748330660665772E+01    0.714415880465048314E+01   -0.129410263355086830E+01   -0.128584747314453125E+02
    0.801457784292532160E+01    0.550139105680455320E+00    0.191033077239990234E+01    0.879643339814016301E+01    0.759691595267880349E+01   -0.726494895018071185E+00   -0.128267021179199219E+02
    0.801457784292532160E+01    0.550139105680455320E+00    0.191033077239990234E+01    0.879643339814016301E+01    0.759691595267880349E+01   -0.726494895018071185E+00   -0.128267021179199219E+02
    0.832446827087383134E+01    0.743027209659204768E+00    0.366121673583984375E+01    0.894323245522295096E+01    0.901747172219839221E+01   -0.148480456959783691E+01   -0.128160972595214844E+02
    0.832446827087383134E+01    0.743027209659204768E+00    0.366121673583984375E+01    0.894323245522295096E+01    0.901747172219839221E+01   -0.148480456959783691E+01   -0.128160972595214844E+02
    0.851642495839228353E+01    0.764551599052558539E+00    0.204023694992065430E+01    0.981792352959475245E+01    0.103325888760735900E+02   -0.149164716268659703E+01   -0.128137073516845703E+02
    0.851642495839228353E+01    0.764551599052558539E+00    0.204023694992065430E+01    0.981792352959475245E+01    0.103325888760735900E+02   -0.149164716268659703E+01   -0.128137073516845703E+02
    0.810406381882007132E+01    0.492644326199737193E+00    0.716216683387756348E+00    0.939810284511323601E+01    0.734027064110415406E+01   -0.964187839451714268E+00   -0.128093242645263672E+02
    0.810406381882007132E+01    0.492644326199737193E+00    0.716216683387756348E+00    0.939810284511323601E+01    0.734027064110415406E+01   -0.964187839451714268E+00   -0.128093242645263672E+02
    0.807598223540262694E+01    0.649458232345529241E+00    0.190076470375061035E+01    0.939823705025764866E+01    0.952614708533872800E+01   -0.688761620438824940E+00   -0.127994689941406250E+02
    0.807598223540262694E+01    0.649458232345529241E+00    0.190076470375061035E+01    0.939823705025764866E+01    0.952614708533872800E+01   -0.688761620438824940E+00   -0.127994689941406250E+02
    0.822320904884858450E+01    0.486907727485205721E+00    0.262563705444335938E+00    0.967694718129736664E+01    0.787584804111906678E+01   -0.152426992215162382E+01   -0.127916851043701172E+02
    0.822320904884858450E+01    0.486907727485205721E+00    0.262563705444335938E+00    0.967694718129736664E+01    0.787584804111906678E+01   -0.152426992215162382E+01   -0.127916851043701172E+02
    0.824753309003231827E+01    0.748084388873971995E+00    0.207294535636901855E+01    0.942633269020043230E+01    0.104930902089127542E+02   -0.121638674878892106E+01   -0.127865362167358398E+02
    0.824753309003231827E+01    0.748084388873971995E+00    0.207294535636901855E+01    0.942633269020043230E+01    0.104930902089127542E+02   -0.121638674878892106E+01   -0.127865362167358398E+02
    0.862198772237642785E+01    0.763464306822684957E+00    0.216199207305908203E+01    0.976161931579438935E+01    0.961669622776787847E+01   -0.203913737246232163E+01   -0.127844352722167969E+02
    0.862198772237642785E+01    0.763464306822684957E+00    0.216199207305908203E+01    0.976161931579438935E+01    0.961669622776787847E+01   -0.203913737246232163E+01   -0.127844352722167969E+02
    0.797164341069471405E+01    0.578358977217635628E+00    0.299771285057067871E+01    0.915717071007730787E+01    0.976780658161029081E+01   -0.648445886328094634E+00   -0.127510910034179688E+02
    0.797164341069471405E+01    0.578358977217635628E+00    0.299771285057067871E+01    0.915717071007730787E+01    0.976780658161029081E+01   -0.648445886328094634E+00   -0.127510910034179688E+02
    0.833408343576900279E+01    0.814461530392512900E+00    0.269162416458129883E+01    0.894988863245539790E+01    0.856382662273664153E+01   -0.123761236260734808E+01   -0.127322902679443359E+02
    0.833408343576900279E+01    0.814461530392512900E+00    0.269162416458129883E+01    0.894988863245539790E+01    0.856382662273664153E+01   -0.123761236260734808E+01   -0.127322902679443359E+02
    0.833408343576900279E+01    0.814461530392512900E+00    0.269162416458129883E+01    0.894988863245539790E+01    0.856382662273664153E+01   -0.123761236260734808E+01   -0.127322902679443359E+02
    0.845763708277520365E+01    0.662003549661174029E+00    0.333072319626808167E-01    0.963364516181084163E+01    0.815426788584871254E+01   -0.188953023377603779E+01   -0.127290782928466797E+02
    0.845763708277520365E+01    0.662003549661174029E+00    0.333072319626808167E-01    0.963364516181084163E+01    0.815426788584871254E+01   -0.188953023377603779E+01   -0.127290782928466797E+02
    0.817868672013586817E+01    0.579737249979253133E+00    0.189946055412292480E+01    0.955465875067147863E+01    0.922735951323095982E+01   -0.816349160464983292E+00   -0.127164134979248047E+02
    0.817868672013586817E+01    0.579737249979253133E+00    0.189946055412292480E+01    0.955465875067147863E+01    0.922735951323095982E+01   -0.816349160464983292E+00   -0.127164134979248047E+02
    0.809362726964534573E+01    0.408664503787032007E+00    0.124142873287200928E+01    0.957824264683680759E+01    0.794215399090139584E+01   -0.143148635274336877E+01   -0.127157583236694336E+02
    0.809362726964534573E+01    0.408664503787032007E+00    0.124142873287200928E+01    0.957824264683680759E+01    0.794215399090139584E+01   -0.143148635274336877E+01   -0.127157583236694336E+02
    0.796949293756350752E+01    0.501196769567670675E+00    0.286693036556243896E+00    0.934623402467466491E+01    0.835576002090412828E+01   -0.738621235437391332E+00   -0.126993780136108398E+02
    0.796949293756350752E+01    0.501196769567670675E+00    0.286693036556243896E+00    0.934623402467466491E+01    0.835576002090412828E+01   -0.738621235437391332E+00   -0.126993780136108398E+02
    0.825697860993401811E+01    0.694534908419807917E+00    0.190585657954216003E+00    0.921610849855475855E+01    0.766860651458482412E+01   -0.186138934956733948E+01   -0.126927852630615234E+02
    0.825697860993401811E+01    0.694534908419807917E+00    0.190585657954216003E+00    0.921610849855475855E+01    0.766860651458482412E+01   -0.186138934956733948E+01   -0.126927852630615234E+02
    0.813784723839772894E+01    0.541520327638245536E+00    0.995676219463348389E+00    0.927369293408207973E+01    0.754163682180306960E+01   -0.159873525005920203E+01   -0.126804628372192383E+02
    0.813784723839772894E+01    0.541520327638245536E+00    0.995676219463348389E+00    0.927369293408207973E+01    0.754163682180306960E+01   -0.159873525005920203E+01   -0.126804628372192383E+02
    0.814575324039808990E+01    0.527725411557528945E+00    0.575947523117065430E+00    0.939966325643668021E+01    0.729978634718669195E+01   -0.122395700787452855E+01   -0.126634960174560547E+02
    0.831624103622134925E+01    0.651001553726925142E+00    0.111323165893554688E+01    0.922430677353904827E+01    0.780891818674268823E+01   -0.212081183259147110E+01   -0.126450939178466797E+02
    0.831624103622134925E+01    0.651001553726925142E+00    0.111323165893554688E+01    0.922430677353904827E+01    0.780891818674268823E+01   -0.212081183259147110E+01   -0.126450939178466797E+02
    0.804685717607298479E+01    0.538155191596638049E+00    0.586450278759002686E+00    0.929837536685372790E+01    0.816882434789141598E+01   -0.116169948696753944E+01   -0.126392259597778320E+02
    0.804685717607298479E+01    0.538155191596638049E+00    0.586450278759002686E+00    0.929837536685372790E+01    0.816882434789141598E+01   -0.116169948696753944E+01   -0.126392259597778320E+02
    0.794614199222697604E+01    0.479450782994585489E+00    0.148689460754394531E+01    0.973159786216477762E+01    0.995071469672664932E+01   -0.237017885404881667E+00   -0.126322269439697266E+02
    0.794614199222697604E+01    0.479450782994585489E+00    0.148689460754394531E+01    0.973159786216477762E+01    0.995071469672664932E+01   -0.237017885404881667E+00   -0.126322269439697266E+02
    0.830853894917486713E+01    0.675751108565996961E+00    0.108887326717376709E+01    0.912042106574272005E+01    0.700879621486986792E+01   -0.114103711555142473E+01   -0.126132268905639648E+02
    0.830853894917486713E+01    0.675751108565996961E+00    0.108887326717376709E+01    0.912042106574272005E+01    0.700879621486986792E+01   -0.114103711555142473E+01   -0.126132268905639648E+02
    0.823337841687161465E+01    0.722626345164050665E+00    0.128130698204040527E+01    0.965904601359994253E+01    0.989599479359302592E+01   -0.932948663079891993E+00   -0.126076040267944336E+02
    0.823337841687161465E+01    0.722626345164050665E+00    0.128130698204040527E+01    0.965904601359994253E+01    0.989599479359302592E+01   -0.932948663079891993E+00   -0.126076040267944336E+02
    0.819689464902156040E+01    0.610759989154848748E+00    0.194095706939697266E+01    0.951721500176428847E+01    0.925189374696476818E+01   -0.809219999459427131E+00   -0.126007118225097656E+02
    0.819689464902156040E+01    0.610759989154848748E+00    0.194095706939697266E+01    0.951721500176428847E+01    0.925189374696476818E+01   -0.809219999459427131E+00   -0.126007118225097656E+02
    0.803609317296371373E+01    0.593238655045887575E+00    0.195684742927551270E+01    0.951055281358275373E+01    0.101622048832086360E+02   -0.381023646081724232E+00   -0.125990371704101562E+02
    0.803609317296371373E+01    0.593238655045887575E+00    0.195684742927551270E+01    0.951055281358275373E+01    0.101622048832086360E+02   -0.381023646081724232E+00   -0.125990371704101562E+02
    0.827883542992375254E+01    0.633411044332905626E+00    0.149437880516052246E+01    0.912880505080179283E+01    0.752410506176128990E+01   -0.143687044509880502E+01   -0.125946998596191406E+02
    0.827883542992375254E+01    0.633411044332905626E+00    0.149437880516052246E+01    0.912880505080179283E+01    0.752410506176128990E+01   -0.143687044509880502E+01   -0.125946998596191406E+02
    0.852513361721152307E+01    0.789620320291902322E+00    0.272214484214782715E+01    0.947433512770917829E+01    0.968387856569301597E+01   -0.166185037349416498E+01   -0.125583906173706055E+02
    0.852513361721152307E+01    0.789620320291902322E+00    0.272214484214782715E+01    0.947433512770917829E+01    0.968387856569301597E+01   -0.166185037349416498E+01   -0.125583906173706055E+02
    0.805672957589003325E+01    0.589326974955280303E+00    0.281889629364013672E+01    0.930109917509255624E+01    0.993382787233828601E+01   -0.562426932144607594E+00   -0.125348138809204102E+02
    0.805672957589003325E+01    0.589326974955280303E+00    0.281889629364013672E+01    0.930109917509255624E+01    0.993382787233828601E+01   -0.562426932144607594E+00   -0.125348138809204102E+02
    0.806100966489800541E+01    0.621614229778128080E+00    0.218933320045471191E+01    0.914446829799677374E+01    0.884415971036320059E+01   -0.609241996613569148E+00   -0.125251331329345703E+02
    0.806100966489800541E+01    0.621614229778128080E+00    0.218933320045471191E+01    0.914446829799677374E+01    0.884415971036320059E+01   -0.609241996613569148E+00   -0.125251331329345703E+02
    0.835577351867823914E+01    0.607432945857616646E+00    0.579269863665103912E-01    0.957491312327839239E+01    0.708164863988110671E+01   -0.207981463261345967E+01   -0.125210456848144531E+02
    0.835577351867823914E+01    0.607432945857616646E+00    0.579269863665103912E-01    0.957491312327839239E+01    0.708164863988110671E+01   -0.207981463261345967E+01   -0.125210456848144531E+02
    0.851755793198904954E+01    0.633404002906616137E+00    0.143433010578155518E+01    0.984904039598572112E+01    0.925059666748495601E+01   -0.177057079698555819E+01   -0.125170068740844727E+02
    0.851755793198904954E+01    0.633404002906616137E+00    0.143433010578155518E+01    0.984904039598572112E+01    0.925059666748495601E+01   -0.177057079698555819E+01   -0.125170068740844727E+02
    0.818705888043813168E+01    0.611848606207028745E+00    0.145353221893310547E+01    0.904561015747506758E+01    0.769843671737162527E+01   -0.114854799101118288E+01   -0.125117673873901367E+02
    0.818705888043813168E+01    0.611848606207028745E+00    0.145353221893310547E+01    0.904561015747506758E+01    0.769843671737162527E+01   -0.114854799101118288E+01   -0.125117673873901367E+02
    0.826710469411822046E+01    0.745928700026972979E+00    0.104540452361106873E+00    0.911695242026804742E+01    0.705697258954714002E+01   -0.100901922306325309E+01   -0.125031089782714844E+02
    0.826710469411822046E+01    0.745928700026972979E+00    0.104540452361106873E+00    0.911695242026804742E+01    0.705697258954714002E+01   -0.100901922306325309E+01   -0.125031089782714844E+02
    0.808730257859070534E+01    0.619988231966496772E+00    0.160842108726501465E+01    0.951641934345298779E+01    0.100537245721365966E+02   -0.133782910970358770E+00   -0.124972677230834961E+02
    0.808730257859070534E+01    0.619988231966496772E+00    0.160842108726501465E+01    0.951641934345298779E+01    0.100537245721365966E+02   -0.133782910970358770E+00   -0.124972677230834961E+02
    0.803039455652517731E+01    0.519462375883553373E+00    0.869675949215888977E-01    0.934534744682402696E+01    0.755020896376436657E+01   -0.121568630672714795E+01   -0.124921417236328125E+02
    0.818498517632894362E+01    0.509774189296104518E+00    0.132401597499847412E+01    0.938070675605601778E+01    0.806241180056705176E+01   -0.145520337212526929E+01   -0.124905691146850586E+02
    0.818498517632894362E+01    0.509774189296104518E+00    0.132401597499847412E+01    0.938070675605601778E+01    0.806241180056705176E+01   -0.145520337212526929E+01   -0.124905691146850586E+02
    0.818299391988398916E+01    0.595546565896520663E+00    0.153914427757263184E+01    0.920103871107479954E+01    0.836859785213149721E+01   -0.933993023126027166E+00   -0.124882965087890625E+02
    0.818299391988398916E+01    0.595546565896520663E+00    0.153914427757263184E+01    0.920103871107479954E+01    0.836859785213149721E+01   -0.933993023126027166E+00   -0.124882965087890625E+02
    0.802633605112270487E+01    0.582083830588628115E+00    0.445463895797729492E+00    0.904040889679318127E+01    0.747407629143714569E+01   -0.340877091364500062E+00   -0.124748554229736328E+02
    0.802633605112270487E+01    0.582083830588628115E+00    0.445463895797729492E+00    0.904040889679318127E+01    0.747407629143714569E+01   -0.340877091364500062E+00   -0.124748554229736328E+02
    0.821020925742014462E+01    0.709648679593257170E+00    0.958237871527671814E-01    0.911026847190395905E+01    0.800330738716255397E+01   -0.358849543621135636E+00   -0.124650678634643555E+02
    0.821020925742014462E+01    0.709648679593257170E+00    0.958237871527671814E-01    0.911026847190395905E+01    0.800330738716255397E+01   -0.358849543621135636E+00   -0.124650678634643555E+02
    0.811685929390653804E+01    0.483173733742646661E+00    0.344425320625305176E+00    0.956064842087602429E+01    0.792214118530316913E+01   -0.123332343329573457E+01   -0.124550743103027344E+02
    0.811685929390653804E+01    0.483173733742646661E+00    0.344425320625305176E+00    0.956064842087602429E+01    0.792214118530316913E+01   -0.123332343329573457E+01   -0.124550743103027344E+02
    0.804488063578390999E+01    0.666045667612339742E+00    0.206511425971984863E+01    0.887275111153542007E+01    0.837758914647804076E+01   -0.246550025240148463E+00   -0.124533348083496094E+02
    0.850470921893564835E+01    0.624087163153474123E+00    0.819397389888763428E+00    0.985186661005876729E+01    0.909967421510835095E+01   -0.179171040485902000E+01   -0.124475898742675781E+02
    0.850470921893564835E+01    0.624087163153474123E+00    0.819397389888763428E+00    0.985186661005876729E+01    0.909967421510835095E+01   -0.179171040485902000E+01   -0.124475898742675781E+02
    0.851742046681408560E+01    0.641925996077715721E+00    0.303463041782379150E-01    0.973457346213668195E+01    0.802921640931287683E+01   -0.207324303387229003E+01   -0.124398002624511719E+02
    0.805146343614078219E+01    0.435153282057892110E+00    0.202899503707885742E+01    0.927404988277718978E+01    0.798902059701221390E+01   -0.149787028508839404E+01   -0.124391860961914062E+02
    0.805146343614078219E+01    0.435153282057892110E+00    0.202899503707885742E+01    0.927404988277718978E+01    0.798902059701221390E+01   -0.149787028508839404E+01   -0.124391860961914062E+02
    0.799856891735945386E+01    0.493663155950845645E+00    0.188760757446289062E+00    0.935222790397082093E+01    0.749631445830475229E+01   -0.101201309414688523E+01   -0.124292325973510742E+02
    0.799856891735945386E+01    0.493663155950845645E+00    0.188760757446289062E+00    0.935222790397082093E+01    0.749631445830475229E+01   -0.101201309414688523E+01   -0.124292325973510742E+02
    0.797528020428667439E+01    0.561785066684694190E+00    0.175035297870635986E+01    0.943935945698363099E+01    0.976083507451946097E+01   -0.577695049832476215E-01   -0.124211807250976562E+02
    0.797528020428667439E+01    0.561785066684694190E+00    0.175035297870635986E+01    0.943935945698363099E+01    0.976083507451946097E+01   -0.577695049832476215E-01   -0.124211807250976562E+02
    0.825527544833364857E+01    0.675440563822685469E+00    0.276822652667760849E-01    0.931049349720039210E+01    0.751884342995707478E+01   -0.163938482128304619E+01   -0.123877725601196289E+02
    0.828804680924057635E+01    0.645490920704056337E+00    0.111955332756042480E+01    0.918239438683551512E+01    0.755216882116682520E+01   -0.202882074589139672E+01   -0.123802938461303711E+02
    0.828804680924057635E+01    0.645490920704056337E+00    0.111955332756042480E+01    0.918239438683551512E+01    0.755216882116682520E+01   -0.202882074589139672E+01   -0.123802938461303711E+02
    0.803005401691594756E+01    0.545574440278989825E+00    0.722294688224792480E+00    0.921916640966469814E+01    0.766432127883146030E+01   -0.129272351242910855E+01   -0.123722372055053711E+02
    0.803005401691594756E+01    0.545574440278989825E+00    0.722294688224792480E+00    0.921916640966469814E+01    0.766432127883146030E+01   -0.129272351242910855E+01   -0.123722372055053711E+02
    0.821250402210032959E+01    0.603964919801747602E+00    0.188172221183776855E+00    0.940161401031961930E+01    0.812042051921134700E+01   -0.116633791996534431E+01   -0.123610420227050781E+02
    0.821250402210032959E+01    0.603964919801747602E+00    0.188172221183776855E+00    0.940161401031961930E+01    0.812042051921134700E+01   -0.116633791996534431E+01   -0.123610420227050781E+02
    0.833176168055239152E+01    0.772216570565862570E+00    0.126066589355468750E+01    0.934892669352065830E+01    0.879237552709890835E+01   -0.957491797850308357E+00   -0.123551664352416992E+02
    0.837416016353865977E+01    0.629722267240299338E+00    0.357856750488281250E+01    0.939778566516672420E+01    0.962534989373192396E+01   -0.169037294911541469E+01   -0.123427581787109375E+02
    0.820636979628978480E+01    0.637437965981818011E+00    0.874348640441894531E+00    0.912656151951923000E+01    0.758914779268583839E+01   -0.109909868161573554E+01   -0.123335847854614258E+02
    0.820636979628978480E+01    0.637437965981818011E+00    0.874348640441894531E+00    0.912656151951923000E+01    0.758914779268583839E+01   -0.109909868161573554E+01   -0.123335847854614258E+02
    0.815490919054310126E+01    0.547178333171204456E+00    0.422890245914459229E+00    0.938895750419231589E+01    0.715734766825117319E+01   -0.139050595500976470E+01   -0.122935066223144531E+02
    0.815490919054310126E+01    0.547178333171204456E+00    0.422890245914459229E+00    0.938895750419231589E+01    0.715734766825117319E+01   -0.139050595500976470E+01   -0.122935066223144531E+02
    0.849728415525020786E+01    0.665430606072072939E+00    0.308633059263229370E+00    0.957693872403479318E+01    0.766453359714460625E+01   -0.207718373932876110E+01   -0.122683629989624023E+02
    0.849728415525020786E+01    0.665430606072072939E+00    0.308633059263229370E+00    0.957693872403479318E+01    0.766453359714460625E+01   -0.207718373932876110E+01   -0.122683629989624023E+02
    0.812104429764117874E+01    0.550962611212911901E+00    0.119184926152229309E+00    0.937026133335754707E+01    0.753399991532542490E+01   -0.122467095989099617E+01   -0.122678308486938477E+02
    0.812104429764117874E+01    0.550962611212911901E+00    0.119184926152229309E+00    0.937026133335754707E+01    0.753399991532542490E+01   -0.122467095989099617E+01   -0.122678308486938477E+02
    0.806006874192996925E+01    0.562890595351220324E+00    0.333029299974441528E+00    0.936379431389632799E+01    0.841236940730406246E+01   -0.127206303963337830E+01   -0.122651329040527344E+02
    0.806006874192996925E+01    0.562890595351220324E+00    0.333029299974441528E+00    0.936379431389632799E+01    0.841236940730406246E+01   -0.127206303963337830E+01   -0.122651329040527344E+02
    0.848863607441445467E+01    0.762511437257658797E+00    0.108557617664337158E+01    0.961114583432826564E+01    0.904029526576235654E+01   -0.164690626324619460E+01   -0.122602596282958984E+02
    0.817008582494205626E+01    0.660780145600411872E+00    0.183789157867431641E+01    0.958202448488433767E+01    0.100201105205730201E+02   -0.594123033706241976E+00   -0.122532691955566406E+02
    0.817008582494205626E+01    0.660780145600411872E+00    0.183789157867431641E+01    0.958202448488433767E+01    0.100201105205730201E+02   -0.594123033706241976E+00   -0.122532691955566406E+02
    0.822946352751277388E+01    0.679113435377656005E+00    0.160920524597167969E+01    0.971283480597730886E+01    0.101772904371989252E+02   -0.907733049203657272E+00   -0.122495174407958984E+02
    0.822946352751277388E+01    0.679113435377656005E+00    0.160920524597167969E+01    0.971283480597730886E+01    0.101772904371989252E+02   -0.907733049203657272E+00   -0.122495174407958984E+02
    0.814152714969672431E+01    0.671637617725725833E+00    0.114747571945190430E+01    0.959063718944575605E+01    0.971593496089141517E+01   -0.213520696962802514E+00   -0.122437477111816406E+02
    0.814152714969672431E+01    0.671637617725725833E+00    0.114747571945190430E+01    0.959063718944575605E+01    0.971593496089141517E+01   -0.213520696962802514E+00   -0.122437477111816406E+02
    0.799251448442215828E+01    0.579273036926422069E+00    0.238337779045104980E+01    0.928802584559515054E+01    0.954364227031894430E+01   -0.639380046652991307E+00   -0.122389144897460938E+02
    0.799251448442215828E+01    0.579273036926422069E+00    0.238337779045104980E+01    0.928802584559515054E+01    0.954364227031894430E+01   -0.639380046652991307E+00   -0.122389144897460938E+02
    0.816970455743860846E+01    0.665360193172655157E+00    0.497825443744659424E+00    0.918675692066797112E+01    0.815489007628988993E+01   -0.974991461307477492E+00   -0.122353181838989258E+02
    0.816005814657875561E+01    0.659436978317326283E+00    0.241421198844909668E+01    0.938753044015073357E+01    0.999044577204202078E+01   -0.535640795821043403E+00   -0.122321405410766602E+02
    0.809835731995712926E+01    0.557964893450343613E+00    0.184660542011260986E+01    0.891964756821476357E+01    0.730260700537448404E+01   -0.942334770758930018E+00   -0.122277784347534180E+02
    0.813812772344417290E+01    0.614920287490451578E+00    0.813565373420715332E+00    0.918443909860044627E+01    0.791447422244959320E+01   -0.132870283828688263E+01   -0.122252101898193359E+02
    0.793176170620422916E+01    0.431536742906552306E+00    0.140530467033386230E+01    0.927480873499374781E+01    0.797937019077120890E+01   -0.121168014276530633E+01   -0.122125921249389648E+02
    0.793176170620422916E+01    0.431536742906552306E+00    0.140530467033386230E+01    0.927480873499374781E+01    0.797937019077120890E+01   -0.121168014276530633E+01   -0.122125921249389648E+02
    0.831047045566540277E+01    0.698613544523850383E+00    0.918364048004150391E+00    0.952271108414455547E+01    0.889916562916059384E+01   -0.128598577432335581E+01   -0.122081317901611328E+02
    0.790959569982052280E+01    0.588504768070745143E+00    0.197911381721496582E+01    0.928770109760043105E+01    0.976981246808145798E+01   -0.638866046206015392E+00   -0.121983203887939453E+02
    0.815327676500350407E+01    0.552405899093313502E+00    0.812177598476409912E+00    0.927628117596943724E+01    0.724887925370836506E+01   -0.156671009445586518E+01   -0.121724967956542969E+02
    0.824107195591764885E+01    0.671874781817960787E+00    0.139747571945190430E+01    0.934516148814961767E+01    0.875291265123925477E+01   -0.943774204217661561E+00   -0.121724662780761719E+02
    0.805590033099085012E+01    0.487122304887102953E+00    0.365231275558471680E+00    0.943599599205116846E+01    0.740631437666647141E+01   -0.113109476767352035E+01   -0.121710195541381836E+02
    0.805590033099085012E+01    0.487122304887102953E+00    0.365231275558471680E+00    0.943599599205116846E+01    0.740631437666647141E+01   -0.113109476767352035E+01   -0.121710195541381836E+02
    0.847099970184160256E+01    0.646462893935293881E+00    0.242892336845397949E+01    0.963152333575145825E+01    0.922790902556246095E+01   -0.168913626327018673E+01   -0.121646099090576172E+02
    0.828239476120938001E+01    0.693184618065512126E+00    0.255468344688415527E+01    0.933380630871962680E+01    0.917604757990154596E+01   -0.130553117317874334E+01   -0.121546068191528320E+02
    0.828239476120938001E+01    0.693184618065512126E+00    0.255468344688415527E+01    0.933380630871962680E+01    0.917604757990154596E+01   -0.130553117317874334E+01   -0.121546068191528320E+02
    0.821480477259874853E+01    0.667834847116313801E+00    0.134179866313934326E+01    0.960483790551221794E+01    0.934119872739558943E+01   -0.105979957330656549E+01   -0.121432523727416992E+02
    0.821514324554999220E+01    0.650981387764370312E+00    0.540625572204589844E+00    0.927894707757437764E+01    0.822348670738954723E+01   -0.152969945040694322E+01   -0.121338405609130859E+02
    0.836290857134111931E+01    0.650172957949052055E+00    0.173322573304176331E+00    0.949537080483400864E+01    0.721759905296313953E+01   -0.192701716867942929E+01   -0.121310710906982422E+02
    0.820300346995306917E+01    0.574020333199362964E+00    0.103450691699981689E+01    0.923566414856529683E+01    0.707759353027604909E+01   -0.149773229868379443E+01   -0.121221885681152344E+02
    0.844392019311659858E+01    0.698055745902811275E+00    0.269239068031311035E+00    0.949347108088613467E+01    0.781997227515905280E+01   -0.209345044993215801E+01   -0.121217527389526367E+02
    0.844392019311659858E+01    0.698055745902811275E+00    0.269239068031311035E+00    0.949347108088613467E+01    0.781997227515905280E+01   -0.209345044993215801E+01   -0.121217527389526367E+02
    0.808945604437916010E+01    0.605195386361349175E+00    0.156108903884887695E+01    0.944102330142676749E+01    0.910333310068740964E+01   -0.492685004641131297E+00   -0.121213808059692383E+02
    0.808945604437916010E+01    0.605195386361349175E+00    0.156108903884887695E+01    0.944102330142676749E+01    0.910333310068740964E+01   -0.492685004641131297E+00   -0.121213808059692383E+02
    0.830642460933577098E+01    0.696644367501568662E+00    0.215620368719100952E+00    0.929965884876823345E+01    0.714179995250255484E+01   -0.166272024069647606E+01   -0.121194419860839844E+02
    0.830642460933577098E+01    0.696644367501568662E+00    0.215620368719100952E+00    0.929965884876823345E+01    0.714179995250255484E+01   -0.166272024069647606E+01   -0.121194419860839844E+02
    0.839217058283703210E+01    0.640634136248703245E+00    0.158301019668579102E+01    0.974001908153839935E+01    0.933214406980185807E+01   -0.150849833239274744E+01   -0.120762310028076172E+02
    0.839217058283703210E+01    0.640634136248703245E+00    0.158301019668579102E+01    0.974001908153839935E+01    0.933214406980185807E+01   -0.150849833239274744E+01   -0.120762310028076172E+02
    0.839393520813635696E+01    0.599307294395917456E+00    0.296875506639480591E+00    0.959087953408731764E+01    0.740227252599329955E+01   -0.208786221097285329E+01   -0.120696163177490234E+02
    0.839393520813635696E+01    0.599307294395917456E+00    0.296875506639480591E+00    0.959087953408731764E+01    0.740227252599329955E+01   -0.208786221097285329E+01   -0.120696163177490234E+02
    0.797584364795719392E+01    0.536556941052677483E+00    0.141508579254150391E+01    0.960475804548422651E+01    0.981425941475983166E+01   -0.123355836354019033E+00   -0.120636196136474609E+02
    0.809607511035592253E+01    0.590212508196489738E+00    0.119377398490905762E+01    0.961595699709543084E+01    0.955548664003390513E+01   -0.193365975004335944E-01   -0.120506391525268555E+02
    0.809607511035592253E+01    0.590212508196489738E+00    0.119377398490905762E+01    0.961595699709543084E+01    0.955548664003390513E+01   -0.193365975004335944E-01   -0.120506391525268555E+02
    0.827939848115055455E+01    0.642325397565542855E+00    0.145272219181060791E+01    0.915929781307617930E+01    0.809035448730819340E+01   -0.152127064809703771E+01   -0.120396347045898438E+02
    0.827939848115055455E+01    0.642325397565542855E+00    0.145272219181060791E+01    0.915929781307617930E+01    0.809035448730819340E+01   -0.152127064809703771E+01   -0.120396347045898438E+02
    0.818553636408876528E+01    0.610206662031398617E+00    0.106983637809753418E+01    0.917313846788082365E+01    0.802376024694132539E+01   -0.938122961165013036E+00   -0.120352115631103516E+02
    0.818553636408876528E+01    0.610206662031398617E+00    0.106983637809753418E+01    0.917313846788082365E+01    0.802376024694132539E+01   -0.938122961165013036E+00   -0.120352115631103516E+02
    0.817426402632776394E+01    0.490570308921977061E+00    0.149739933013916016E+01    0.978381593384984960E+01    0.925852674132756093E+01   -0.772960033007833225E+00   -0.119918594360351562E+02
    0.806609776386955701E+01    0.529716677632261712E+00    0.980034545063972473E-01    0.938786717661440129E+01    0.798432200013239601E+01   -0.100561314147952330E+01   -0.119837398529052734E+02
    0.821382160723295307E+01    0.591811875170785595E+00    0.195229959487915039E+01    0.898880720600710603E+01    0.743101421859979627E+01   -0.115203803545425054E+01   -0.119797506332397461E+02
    0.821382160723295307E+01    0.591811875170785595E+00    0.195229959487915039E+01    0.898880720600710603E+01    0.743101421859979627E+01   -0.115203803545425054E+01   -0.119797506332397461E+02
    0.826320365063838480E+01    0.597973984156962346E+00    0.115338575839996338E+01    0.980272344811588603E+01    0.952690457974960125E+01   -0.370545347695963034E+00   -0.119693870544433594E+02
    0.840297779711754345E+01    0.715476587746745052E+00    0.304260253906250000E+00    0.934002804699346356E+01    0.722863715975935772E+01   -0.218151554243921497E+01   -0.119648065567016602E+02
    0.801697515966312579E+01    0.592561587647605581E+00    0.217996358871459961E+01    0.941479552847053824E+01    0.100897863646505304E+02   -0.403838539860710943E+00   -0.119453029632568359E+02
    0.829759010038278433E+01    0.639739174452871984E+00    0.234646379947662354E+00    0.940264927653878324E+01    0.718960973230381128E+01   -0.187141302566037693E+01   -0.119365339279174805E+02
    0.829759010038278433E+01    0.639739174452871984E+00    0.234646379947662354E+00    0.940264927653878324E+01    0.718960973230381128E+01   -0.187141302566037693E+01   -0.119365339279174805E+02
    0.811092174321699488E+01    0.572212067734921725E+00    0.467174984514713287E-01    0.929224315840702175E+01    0.735785996934212694E+01   -0.750986211662094894E+00   -0.119301948547363281E+02
    0.811092174321699488E+01    0.572212067734921725E+00    0.467174984514713287E-01    0.929224315840702175E+01    0.735785996934212694E+01   -0.750986211662094894E+00   -0.119301948547363281E+02
    0.805327252694354279E+01    0.531239686428760738E+00    0.178859625011682510E-01    0.934948494546349451E+01    0.771529872425807106E+01   -0.841099610953833565E+00   -0.119262981414794922E+02
    0.815589327966817024E+01    0.585902404248539233E+00    0.124374642968177795E+00    0.934224632313991243E+01    0.757567327547760172E+01   -0.110123000033175811E+01   -0.119144144058227539E+02
    0.815589327966817024E+01    0.585902404248539233E+00    0.124374642968177795E+00    0.934224632313991243E+01    0.757567327547760172E+01   -0.110123000033175811E+01   -0.119144144058227539E+02
    0.818319950814049690E+01    0.666454723306854735E+00    0.590052530169487000E-01    0.922934034465824027E+01    0.713570207820361802E+01   -0.129309254262018225E+01   -0.119115190505981445E+02
    0.809975094324680178E+01    0.500822171879357625E+00    0.221078515052795410E+01    0.900986987414247231E+01    0.736934811643746812E+01   -0.104063485587141891E+01   -0.119067316055297852E+02
    0.813179484975931288E+01    0.554186615836477214E+00    0.137370884418487549E+01    0.976504684637095721E+01    0.951155443712408655E+01   -0.115594819343113553E+01   -0.118927955627441406E+02
    0.803967145299834485E+01    0.595979136274509269E+00    0.321334743499755859E+01    0.912538026250180323E+01    0.945033413653308685E+01   -0.906965394190541341E+00   -0.118907489776611328E+02
    0.853533496701114558E+01    0.722674761662897125E+00    0.870711803436279297E+00    0.983029126700813549E+01    0.927696096592899089E+01   -0.176471597362737231E+01   -0.118811950683593750E+02
    0.853533496701114558E+01    0.722674761662897125E+00    0.870711803436279297E+00    0.983029126700813549E+01    0.927696096592899089E+01   -0.176471597362737231E+01   -0.118811950683593750E+02
    0.800238981899077118E+01    0.618789156350091352E+00    0.161456632614135742E+01    0.944369319985889710E+01    0.101175231335362064E+02   -0.279271978744714433E+00   -0.118711900711059570E+02
    0.833801569137958332E+01    0.600307734832648876E+00    0.361285233497619629E+01    0.943185150600472966E+01    0.962762100629299766E+01   -0.156420153414520757E+01   -0.118688068389892578E+02
    0.793861639291930121E+01    0.625466463625966251E+00    0.230659532546997070E+01    0.911669501956951400E+01    0.989141400321651076E+01   -0.500935968795173769E+00   -0.118656873703002930E+02
    0.831938214640030438E+01    0.701969690742297758E+00    0.247884504497051239E-01    0.932679035957646896E+01    0.711650157937656758E+01   -0.187699007999418854E+01   -0.118641271591186523E+02
    0.807870169791389081E+01    0.512994702735786290E+00    0.714253723621368408E+00    0.945419329433289057E+01    0.853171567228595507E+01   -0.124541422571545057E+01   -0.118635101318359375E+02
    0.841277497266760754E+01    0.612447205093014424E+00    0.290853947401046753E+00    0.958565908053600424E+01    0.725709850918828270E+01   -0.209911251171107427E+01   -0.118566875457763672E+02
    0.811145440309467070E+01    0.640526508141568196E+00    0.252436429262161255E+00    0.916682666874392638E+01    0.760887852450303281E+01   -0.106299645633232709E+01   -0.118551216125488281E+02
    0.815111874443726592E+01    0.624016295153485112E+00    0.175914597511291504E+01    0.948885098552845996E+01    0.921246026992787037E+01   -0.767565520150696123E+00   -0.118485441207885742E+02
    0.815111874443726592E+01    0.624016295153485112E+00    0.175914597511291504E+01    0.948885098552845996E+01    0.921246026992787037E+01   -0.767565520150696123E+00   -0.118485441207885742E+02
    0.801665582687520839E+01    0.552629377532009358E+00    0.523822665214538574E+00    0.919802692992311322E+01    0.807966537638364990E+01   -0.653859201727141626E+00   -0.118398485183715820E+02
    0.817437846388705047E+01    0.601498361659093095E+00    0.417943626642227173E+00    0.928219531209689386E+01    0.771042993862878312E+01   -0.142432774095608838E+01   -0.118378906250000000E+02
    0.818096572663262478E+01    0.696584655092717164E+00    0.236408233642578125E+01    0.935497168139229451E+01    0.992267239172728033E+01   -0.976107121540700007E+00   -0.118368892669677734E+02
    0.803115461114109763E+01    0.528382565510656765E+00    0.617549121379852295E+00    0.930365819131614558E+01    0.819006171619792056E+01   -0.887262097129760674E+00   -0.118344612121582031E+02
    0.824646975125956772E+01    0.660171494380394686E+00    0.247917160391807556E+00    0.925988060633687127E+01    0.721826749523746969E+01   -0.166339733828137204E+01   -0.118323621749877930E+02
    0.824646975125956772E+01    0.660171494380394686E+00    0.247917160391807556E+00    0.925988060633687127E+01    0.721826749523746969E+01   -0.166339733828137204E+01   -0.118323621749877930E+02
    0.784583200165227446E+01    0.526677610480127845E+00    0.262715673446655273E+01    0.904760361138374414E+01    0.889035563518062588E+01   -0.552607731839978467E+00   -0.118321056365966797E+02
    0.846974185434406301E+01    0.675406273049417361E+00    0.586506724357604980E-01    0.959375314433929915E+01    0.745062685062743313E+01   -0.217843192862788548E+01   -0.118265590667724609E+02
    0.798443127990137658E+01    0.552470279939853870E+00    0.315009295940399170E+00    0.919382094497318825E+01    0.794278736103991179E+01   -0.783616128068342244E+00   -0.118219375610351562E+02
    0.817400720709829542E+01    0.571788470264431026E+00    0.629269540309906006E+00    0.930406091721483541E+01    0.757652888343400388E+01   -0.144630725368635549E+01   -0.118214149475097656E+02
    0.797238919646606359E+01    0.463589977024567002E+00    0.447603195905685425E+00    0.937174769543800679E+01    0.812957540489168906E+01   -0.840776902390364844E+00   -0.118118515014648438E+02
    0.823770908640861599E+01    0.660574708301433278E+00    0.146040201187133789E+01    0.969458381913924860E+01    0.969172122518732237E+01   -0.124083474628432189E+01   -0.118107318878173828E+02
    0.799340896191479722E+01    0.588562569807539515E+00    0.189058971405029297E+01    0.937280803314132172E+01    0.945909853893244446E+01   -0.545007535264049769E+00   -0.117942619323730469E+02
    0.834260411225690746E+01    0.690757061249939630E+00    0.275194644927978516E+01    0.944295448573334895E+01    0.973801591793638899E+01   -0.153254116622843917E+01   -0.117941322326660156E+02
    0.815778005749027457E+01    0.584764429475310377E+00    0.179310131072998047E+01    0.976886799232536163E+01    0.103763522489515587E+02   -0.936979665084203051E+00   -0.117903690338134766E+02
    0.827234233253676088E+01    0.660928656919172131E+00    0.200635656714439392E+00    0.930498120643475346E+01    0.705932123401254330E+01   -0.168755885318024079E+01   -0.117893695831298828E+02
    0.816945519644401230E+01    0.525640811609187963E+00    0.136634588241577148E+01    0.980243958790009096E+01    0.937141343330714705E+01   -0.881573987361208511E+00   -0.117831249237060547E+02
    0.810243443534027463E+01    0.573166734079717965E+00    0.209666347503662109E+01    0.880683848949639270E+01    0.706934556455120244E+01   -0.736332229884721468E+00   -0.117814960479736328E+02
    0.797696692499567206E+01    0.575229536810951347E+00    0.217054033279418945E+01    0.942943863368679303E+01    0.103178523602452756E+02   -0.817107525244372690E+00   -0.117784137725830078E+02
    0.796199952692807233E+01    0.532274762225096731E+00    0.222391748428344727E+01    0.952567455207851488E+01    0.104908909871015865E+02   -0.915988948837567873E+00   -0.117770948410034180E+02
    0.811961296514673414E+01    0.575119517193778407E+00    0.126952528953552246E+01    0.912022904978046256E+01    0.819014521085735581E+01   -0.575256213006344552E+00   -0.117730426788330078E+02
    0.841203533875737186E+01    0.682206858662584681E+00    0.228996419906616211E+01    0.951177204113599117E+01    0.917789120632593480E+01   -0.161709266813034480E+01   -0.117728929519653320E+02
    0.825689372338132799E+01    0.648232460991656656E+00    0.795057415962219238E+00    0.937397740264624879E+01    0.853225036419117799E+01   -0.140119379332424376E+01   -0.117693634033203125E+02
    0.815847389995064098E+01    0.630120689468236628E+00    0.122881388664245605E+01    0.966044539342444786E+01    0.977334275941590214E+01   -0.192568200519842136E+00   -0.117552261352539062E+02
    0.809675346046011768E+01    0.566377919434101651E+00    0.421263426542282104E+00    0.927175462050190546E+01    0.777467630477377725E+01   -0.112893469172531336E+01   -0.117509708404541016E+02
    0.827588586444817231E+01    0.621774834787659159E+00    0.149426805973052979E+01    0.981657974073704764E+01    0.979397991085031094E+01   -0.601784469680956002E+00   -0.117493314743041992E+02
    0.815909560360915798E+01    0.575286005295124303E+00    0.140539610385894775E+01    0.977569813887492245E+01    0.986546268623093425E+01   -0.309682804477251050E+00   -0.117467870712280273E+02
    0.809129719875426190E+01    0.554997581487267855E+00    0.966897726058959961E+00    0.976462831266850451E+01    0.967808973662929972E+01   -0.157822684066555752E+00   -0.117166557312011719E+02
    0.812776308481565302E+01    0.568475498381549760E+00    0.684694349765777588E+00    0.937647677402937241E+01    0.845928675197330016E+01   -0.103460354882485173E+01   -0.117087707519531250E+02
    0.792800360067196319E+01    0.473824090313800683E+00    0.125982269644737244E+00    0.929750979952892287E+01    0.765446361109986650E+01   -0.592487174591494803E+00   -0.116983671188354492E+02
    0.805855750477733324E+01    0.491372745366476904E+00    0.175084066390991211E+01    0.983085055664327889E+01    0.979414490465441290E+01   -0.764339315963687094E+00   -0.116765441894531250E+02
    0.795222857003987382E+01    0.539796961127792185E+00    0.289176487922668457E+01    0.913129970663752033E+01    0.902020425180839069E+01   -0.887970421489986395E+00   -0.116503877639770508E+02
    0.796849729100302984E+01    0.470332100107057616E+00    0.441915184259414673E+00    0.940550900639943777E+01    0.836770355296171964E+01   -0.817828885961864538E+00   -0.116473379135131836E+02
    0.803842857708150760E+01    0.455273948688364072E+00    0.125549542903900146E+01    0.983878210342079917E+01    0.945141790767097945E+01   -0.581810878725773195E+00   -0.116391716003417969E+02
    0.820988249440776663E+01    0.615227335588164337E+00    0.171657681465148926E+01    0.917612532173986395E+01    0.836429839476375037E+01   -0.983125687300534956E+00   -0.116347198486328125E+02
    0.808760349915945831E+01    0.517674006158779565E+00    0.132818901538848877E+01    0.981046494510475320E+01    0.958689149564424525E+01   -0.866023887851001817E+00   -0.116300039291381836E+02
    0.824489269590731766E+01    0.585327232207872528E+00    0.136709403991699219E+01    0.979547977906505984E+01    0.953423423975936579E+01   -0.549469339948773117E+00   -0.116214275360107422E+02
    0.797149524292862210E+01    0.579326913729210968E+00    0.234380936622619629E+01    0.926786687326677949E+01    0.934243945701931899E+01   -0.638246129940319262E+00   -0.116092243194580078E+02
    0.812997605696800107E+01    0.530386823382643757E+00    0.121305453777313232E+01    0.982544967696909310E+01    0.951390465676515973E+01   -0.718982756849054772E+00   -0.116085767745971680E+02
    0.798347196863551822E+01    0.474921270392940853E+00    0.303474720567464828E-01    0.939175479689352066E+01    0.807362533813699912E+01   -0.573523064504067426E+00   -0.116079845428466797E+02
    0.802654379679988494E+01    0.546209345676428315E+00    0.476067900657653809E+00    0.929887960695033655E+01    0.825585673389659647E+01   -0.890907491905065463E+00   -0.116014223098754883E+02
    0.802284594787461813E+01    0.617487461530771498E+00    0.146909248828887939E+01    0.937203521896358183E+01    0.916758315710591276E+01   -0.486602184341305311E+00   -0.115933542251586914E+02
    0.831802535918033925E+01    0.682287250366963249E+00    0.140418410301208496E+01    0.964046933105012904E+01    0.928355057753387669E+01   -0.125392424051547025E+01   -0.115783700942993164E+02
    0.822855128308201600E+01    0.584708316485278323E+00    0.891277432441711426E+00    0.929242325089816390E+01    0.766645087325418917E+01   -0.184917170718914181E+01   -0.115731277465820312E+02
    0.833183988809266829E+01    0.609570231784260619E+00    0.145679593086242676E+01    0.984990801925837012E+01    0.952916520957355928E+01   -0.913403687080851734E+00   -0.115726461410522461E+02
    0.808720484155104558E+01    0.527294053854855282E+00    0.165724253654479980E+01    0.976799166134176033E+01    0.983824844164862888E+01   -0.475961315171716803E+00   -0.115695161819458008E+02
    0.806229795291015172E+01    0.585307252434883019E+00    0.227679491043090820E+01    0.944542360888983268E+01    0.966515239943424120E+01   -0.113927615748062849E+01   -0.115649871826171875E+02
    0.807304616007289333E+01    0.601618427969977665E+00    0.145120143890380859E+01    0.958783477459630618E+01    0.983692588266887924E+01   -0.273065988857185138E+00   -0.115603580474853516E+02
    0.827113342794137019E+01    0.599153626078394064E+00    0.149269485473632812E+01    0.918533770726811127E+01    0.765892304374100874E+01   -0.203413589187876775E+01   -0.115585012435913086E+02
    0.802832099106141150E+01    0.574303756440606605E+00    0.279779958724975586E+01    0.913308912589310040E+01    0.892468911068580439E+01   -0.807115622520214959E+00   -0.115573110580444336E+02
    0.808077298463918225E+01    0.651995349014011127E+00    0.142686498165130615E+01    0.952951645970794203E+01    0.993742349008146952E+01   -0.432522186435086997E+00   -0.115570955276489258E+02
    0.805818472581017176E+01    0.577886246126794512E+00    0.217317867279052734E+01    0.947089242494655359E+01    0.970049297737299909E+01   -0.553126728196073447E+00   -0.115403890609741211E+02
    0.822186101671199054E+01    0.654233307138814335E+00    0.104085171222686768E+01    0.967154807086809498E+01    0.945121605815064214E+01   -0.285472797862601935E+00   -0.115383930206298828E+02
    0.800317974538502419E+01    0.598488702589437205E+00    0.174335241317749023E+01    0.942309849664643018E+01    0.949605166681175739E+01   -0.631987085232394552E+00   -0.115047435760498047E+02
    0.816478623022947403E+01    0.644352211440673117E+00    0.244300150871276855E+01    0.939736463990988113E+01    0.988213899333244505E+01   -0.128688164672217953E+01   -0.115047302246093750E+02
    0.809099797354631001E+01    0.607507386250650705E+00    0.152006530761718750E+01    0.958003660223513442E+01    0.986078656660625263E+01   -0.167860450733796185E+00   -0.114992437362670898E+02
    0.822905187541328687E+01    0.562634510599134163E+00    0.178911638259887695E+01    0.917574837716141722E+01    0.724681796016618929E+01   -0.197133842064719511E+01   -0.114989547729492188E+02
    0.804779560344665512E+01    0.575162815350278911E+00    0.170835208892822266E+01    0.925537377830215924E+01    0.868878472270303348E+01   -0.805076912089897290E+00   -0.114957818984985352E+02
    0.804573370516158448E+01    0.541208733154063704E+00    0.156077384948730469E+01    0.951692104635783132E+01    0.917121861881780021E+01   -0.462198299012281266E+00   -0.114717979431152344E+02
    0.811974710845269954E+01    0.656952110265670908E+00    0.198630118370056152E+01    0.944508825368611404E+01    0.993489784516984109E+01   -0.839629139441897099E+00   -0.114247636795043945E+02
    0.807621349749748774E+01    0.517049603510026712E+00    0.178772521018981934E+01    0.974326867398599639E+01    0.967073465290843615E+01   -0.922708161174093489E+00   -0.114185838699340820E+02
    0.809232780783973560E+01    0.527709555797810315E+00    0.162922418117523193E+01    0.955482556402983896E+01    0.907316522006455095E+01   -0.888163446934164602E+00   -0.114160356521606445E+02
    0.796190401368427736E+01    0.493515933563150655E+00    0.180661880970001221E+01    0.959428489797785033E+01    0.944822356049007794E+01   -0.590379977413520107E+00   -0.113978500366210938E+02
    0.797277863422630428E+01    0.552399784768768942E+00    0.277691054344177246E+01    0.921227782962898623E+01    0.927225684010503315E+01   -0.859057834621388183E+00   -0.113926448822021484E+02
    0.822611768029248935E+01    0.670761913960526646E+00    0.128305757045745850E+01    0.978471763492556867E+01    0.101391761141552692E+02   -0.856674294524757185E+00   -0.113856029510498047E+02
    0.824032232102602258E+01    0.634800097837701971E+00    0.219222688674926758E+01    0.957000582178226544E+01    0.949260909961149224E+01   -0.105989325033843040E+01   -0.113840990066528320E+02
    0.836099420953101635E+01    0.633540036148793284E+00    0.254241418838500977E+01    0.947684257413523312E+01    0.914112652522668157E+01   -0.174590193125906223E+01   -0.113647861480712891E+02
    0.825056577613364084E+01    0.609164616083990751E+00    0.181638264656066895E+01    0.964386379069722466E+01    0.931521979089210994E+01   -0.101395016010878325E+01   -0.113607864379882812E+02
    0.818317951472026728E+01    0.629496351192519676E+00    0.123301267623901367E+01    0.968905913643682304E+01    0.949937729039881340E+01   -0.928584872834941066E+00   -0.113361768722534180E+02
    0.817676046392126921E+01    0.651890571245274497E+00    0.225909829139709473E+01    0.952030225121246154E+01    0.102849673268659778E+02   -0.863202999333655185E+00   -0.113251562118530273E+02
    0.806660745650472677E+01    0.625036940684633779E+00    0.184342646598815918E+01    0.947787637882160894E+01    0.102272374545642997E+02   -0.451147772013133386E+00   -0.113185405731201172E+02
    0.818041743112611464E+01    0.612317878111143687E+00    0.123783767223358154E+01    0.965062357544038640E+01    0.934086479173014084E+01   -0.784307324397963246E+00   -0.113100128173828125E+02
    0.816249838821537743E+01    0.633203856479416238E+00    0.142064535617828369E+01    0.974103048707076447E+01    0.103616359454384366E+02   -0.723139348168013729E+00   -0.113020658493041992E+02
    0.827639223550530900E+01    0.596270036055011721E+00    0.151285290718078613E+01    0.983303337608169059E+01    0.960913613521579180E+01   -0.771518813188132091E+00   -0.113007135391235352E+02
    0.815916331967692976E+01    0.657281020129550031E+00    0.130678033828735352E+01    0.962436142088996860E+01    0.965188955772590873E+01   -0.683058895170332026E+00   -0.112988510131835938E+02
    0.813376651701948639E+01    0.609902614842453783E+00    0.205228590965270996E+01    0.950357752343828466E+01    0.944932209587542360E+01   -0.113103714373615727E+01   -0.112985868453979492E+02
    0.805669169337135749E+01    0.616136993129856481E+00    0.164732909202575684E+01    0.944374434308016220E+01    0.939560894706008654E+01   -0.410578655276196525E+00   -0.112942123413085938E+02
    0.829312708014733957E+01    0.603780698030440433E+00    0.223858356475830078E+01    0.927674953635234445E+01    0.858363300717756594E+01   -0.167595567802699685E+01   -0.112888631820678711E+02
    0.809244631364265743E+01    0.645557421595800651E+00    0.247889614105224609E+01    0.907403508617553456E+01    0.875250837240702850E+01   -0.720299656575407621E+00   -0.112850837707519531E+02
    0.812818589215370224E+01    0.592087672899806350E+00    0.188359868526458740E+01    0.966824176281495973E+01    0.102451700427107504E+02   -0.693536669988367827E+00   -0.112805080413818359E+02
    0.815601911214031183E+01    0.634011403358151648E+00    0.149869298934936523E+01    0.971952006135841273E+01    0.102316103612454086E+02   -0.662493697789439562E+00   -0.112724151611328125E+02
    0.817060465299264571E+01    0.546830263651226889E+00    0.255572009086608887E+01    0.968236748207574394E+01    0.991777237170111903E+01   -0.126173099940033695E+01   -0.112711133956909180E+02
    0.818859537041080721E+01    0.647087060142488402E+00    0.144949734210968018E+01    0.971028263198097363E+01    0.101456157382628760E+02   -0.539735197882916795E+00   -0.112652635574340820E+02
    0.807208045671634800E+01    0.642927656519688084E+00    0.211393380165100098E+01    0.930685474790213085E+01    0.938878778804590652E+01   -0.708614004207647863E+00   -0.111241970062255859E+02
    0.812295456473742483E+01    0.657348339378448943E+00    0.166149854660034180E+01    0.944315088623097942E+01    0.937603413292270993E+01   -0.663698913362561926E+00   -0.111115674972534180E+02
    0.811219890762598617E+01    0.606503580330408854E+00    0.203457522392272949E+01    0.938381834686262195E+01    0.912590140446278042E+01   -0.786447896718714734E+00   -0.109883384704589844E+02
    0.809994733284838375E+01    0.632517131532195687E+00    0.188638591766357422E+01    0.939703052587345944E+01    0.929305929059321123E+01   -0.792908110452780868E+00   -0.110892953872680664E+02
    0.813449134416035413E+01    0.575990876835003718E+00    0.176028442382812500E+01    0.955948124392512177E+01    0.921376035683698902E+01   -0.101630339006858361E+01   -0.112500572204589844E+02
    0.830727372317889845E+01    0.623623104175349829E+00    0.213479185104370117E+01    0.963152814656640288E+01    0.938635561753656589E+01   -0.139986132857964307E+01   -0.110557050704956055E+02
    0.825037119478097658E+01    0.619888213856761294E+00    0.235035324096679688E+01    0.939712765318870069E+01    0.902758874859664218E+01   -0.148875331836196612E+01   -0.112429084777832031E+02
    0.811416013125500513E+01    0.560098436439048109E+00    0.176165354251861572E+01    0.978041637062516855E+01    0.102167768058310884E+02   -0.797839472887501566E+00   -0.109467487335205078E+02
    0.832377119635925311E+01    0.657142436197154844E+00    0.168554437160491943E+01    0.980542748402846520E+01    0.983570578174484922E+01   -0.110714536763060556E+01   -0.110971202850341797E+02
    0.810464373391130621E+01    0.597432579043373435E+00    0.185432660579681396E+01    0.964320248983906936E+01    0.102024548330902345E+02   -0.758017016999600335E+00   -0.109497985839843750E+02
    0.818566620532365974E+01    0.637101372222764195E+00    0.205127644538879395E+01    0.963267058159223666E+01    0.104947296436873856E+02   -0.105535962933324745E+01   -0.110351047515869141E+02
    0.824632764614374025E+01    0.616041426941968062E+00    0.185648608207702637E+01    0.977649149792215155E+01    0.100056279329275704E+02   -0.102040864833212308E+01   -0.111855182647705078E+02
    0.818318396976097517E+01    0.617724304867897089E+00    0.183839178085327148E+01    0.965496360678437426E+01    0.972742113580193646E+01   -0.106576115479067957E+01   -0.109744167327880859E+02
    0.821865208956022641E+01    0.552588604748658341E+00    0.231511020660400391E+01    0.977592922917441420E+01    0.993740054395200367E+01   -0.132890144128401966E+01   -0.110034904479980469E+02
    0.805226028525675197E+01    0.592876312701992481E+00    0.248799443244934082E+01    0.936539136634383595E+01    0.962650767646265315E+01   -0.921084902423334961E+00   -0.112394990921020508E+02
    0.815562793733254310E+01    0.593932647855220375E+00    0.175084543228149414E+01    0.964386942537977099E+01    0.957152759436244693E+01   -0.583504739336640821E+00   -0.111438169479370117E+02
    0.814786826745499226E+01    0.603176546535297842E+00    0.186193406581878662E+01    0.962151901690770472E+01    0.963710827741300591E+01   -0.789381775275558528E+00   -0.111445312500000000E+02
    0.823016226137484530E+01    0.576286355914971127E+00    0.161324763298034668E+01    0.980332981879140597E+01    0.959622196189920018E+01   -0.831616905660454986E+00   -0.110727376937866211E+02
    0.820352608235268121E+01    0.552771582946819162E+00    0.194412398338317871E+01    0.977525064355275042E+01    0.961829141470978399E+01   -0.121036348121495885E+01   -0.110208377838134766E+02
    0.813032808179409372E+01    0.570943220675067864E+00    0.155005371570587158E+01    0.975353325085367473E+01    0.977361564981318764E+01   -0.599046827133886683E+00   -0.110942430496215820E+02
    0.820854210763133629E+01    0.630838007888514851E+00    0.124920201301574707E+01    0.976385640611994354E+01    0.985548985383432807E+01   -0.319769253227222716E+00   -0.111690073013305664E+02
    0.816647286456388244E+01    0.631957876323206991E+00    0.124078893661499023E+01    0.949771080105178456E+01    0.904654137213073284E+01   -0.712268789985402551E+00   -0.110194702148437500E+02
    0.825748601776233215E+01    0.580876449339839174E+00    0.132367420196533203E+01    0.981675215105684629E+01    0.944667099123137710E+01   -0.102193029134587143E+01   -0.109233407974243164E+02
    0.821672153736924571E+01    0.576209366028034298E+00    0.107440280914306641E+01    0.989308887652883939E+01    0.966754080608479605E+01   -0.752324217394346961E+00   -0.108043079376220703E+02
    0.814569532433515775E+01    0.632704291795184948E+00    0.129581546783447266E+01    0.966753479184393605E+01    0.971244751548782048E+01   -0.638311492456995255E+00   -0.111831579208374023E+02
    0.828121875706118260E+01    0.643913832116600915E+00    0.136920917034149170E+01    0.973234635993293651E+01    0.946539813192880075E+01   -0.810452125832124448E+00   -0.110967674255371094E+02
    0.824977011956465667E+01    0.652075926668215677E+00    0.141467285156250000E+01    0.979047212431531122E+01    0.987313442849353962E+01   -0.102119908173150820E+01   -0.111411800384521484E+02
    0.821940047991072120E+01    0.617722603774339296E+00    0.109998822212219238E+01    0.987243836325775703E+01    0.100097738089161155E+02   -0.438775057161339799E+00   -0.107998123168945312E+02
    0.824709676454603624E+01    0.621099286114596527E+00    0.102172946929931641E+01    0.979899161632931026E+01    0.950092934358940511E+01   -0.735696934947399628E+00   -0.107866401672363281E+02
    0.826429371610091579E+01    0.645967298913844079E+00    0.138373696804046631E+01    0.980639298531026427E+01    0.986297268953900996E+01   -0.788526915398745087E+00   -0.110687026977539062E+02
    0.821939088942251495E+01    0.625615773153029853E+00    0.138375222682952881E+01    0.968922842170117349E+01    0.950499317986755266E+01   -0.559706060433895480E+00   -0.112003564834594727E+02
    0.806220304540400079E+01    0.590281654071979522E+00    0.159684121608734131E+01    0.960767978315601923E+01    0.989983167562288457E+01   -0.501040343288819523E+00   -0.110454988479614258E+02
    0.812316108430793271E+01    0.617447569630923287E+00    0.154645383358001709E+01    0.948119419564097221E+01    0.920665019809112550E+01   -0.687367924089276272E+00   -0.111750850677490234E+02
    0.821229900898377707E+01    0.547051696067800575E+00    0.135283219814300537E+01    0.990274141056047341E+01    0.963966706322919364E+01   -0.112198168551495780E+01   -0.111455307006835938E+02
    0.807174525714831148E+01    0.611394778752043955E+00    0.187299823760986328E+01    0.944936486736490622E+01    0.946406003905318727E+01   -0.652583755322649450E+00   -0.109435682296752930E+02
    0.812372828777866651E+01    0.596246559087763250E+00    0.152584052085876465E+01    0.966138053060658741E+01    0.967186453512446498E+01   -0.643025916138557418E+00   -0.109070644378662109E+02
    0.818699829978215377E+01    0.660436341681023498E+00    0.198495626449584961E+01    0.953971491242023362E+01    0.988442828067779011E+01   -0.844109519512646234E+00   -0.111962347030639648E+02
    0.814769294627837226E+01    0.609233927428946442E+00    0.134070897102355957E+01    0.967745342815753418E+01    0.957383792051275151E+01   -0.742047396465679965E+00   -0.112084388732910156E+02
    0.822238181419261061E+01    0.665436658528990588E+00    0.129157924652099609E+01    0.973477675117769259E+01    0.978604610457145441E+01   -0.813406215568321933E+00   -0.112226734161376953E+02
    0.837392431981630558E+01    0.402673986424308517E+01    0.535912752151489258E+00    0.720193411652512694E+01    0.877117970145267911E+01   -0.215972349674815467E+01   -0.189519710540771484E+02
    0.801261915044335993E+01    0.410395776239731713E+01    0.359085887670516968E+00    0.679017568793223258E+01    0.733872052853258960E+01    0.179096651362448789E+00   -0.166051063537597656E+02
    0.834718374670131524E+01    0.466827921675989099E+01    0.409372359514236450E+00    0.715767605612241908E+01    0.898794256558644022E+01   -0.171269291493435238E+01   -0.164772167205810547E+02
    0.815900465439778522E+01    0.408542087589764336E+01    0.374957740306854248E+00    0.619083775687203008E+01    0.102583760860616611E+02   -0.175256275184629873E+01   -0.162225818634033203E+02
    0.834387863796956708E+01    0.357201003493466018E+01    0.574055731296539307E+00    0.743487392248105294E+01    0.845323477330290629E+01    0.191459383560941276E+00   -0.161637115478515625E+02
    0.837799211390391108E+01    0.419137789622359946E+01    0.474243879318237305E+00    0.717749279683863950E+01    0.963584164028549672E+01   -0.200338701049649837E+01   -0.160149230957031250E+02
    0.806062314335131624E+01    0.376426710548345156E+01    0.458652049303054810E+00    0.659605454489985377E+01    0.100817768470904792E+02   -0.111997119523231126E+01   -0.159002256393432617E+02
    0.792317748501913588E+01    0.369279267931071820E+01    0.407105088233947754E+00    0.677038789592845536E+01    0.704915949886000082E+01    0.588892259895437142E-01   -0.158308258056640625E+02
    0.799824789046170981E+01    0.378847867415897621E+01    0.449070811271667480E+00    0.677330523627294845E+01    0.102503499222022434E+02   -0.524572616476146614E-01   -0.155449581146240234E+02
    0.825748871605567736E+01    0.448497379541723262E+01    0.392035454511642456E+00    0.712168536578414546E+01    0.760179324159031644E+01   -0.161524805560089013E+01   -0.154326944351196289E+02
    0.816919901530778247E+01    0.415407358008540673E+01    0.386261403560638428E+00    0.700634728333509305E+01    0.834429036863176954E+01   -0.173093231647036472E+01   -0.154166698455810547E+02
    0.815715602463214751E+01    0.442756336429599173E+01    0.351033478975296021E+00    0.667794506338670768E+01    0.852317272690672212E+01   -0.216731195620917161E+01   -0.153671712875366211E+02
    0.817158512127195991E+01    0.382501965990742709E+01    0.475319206714630127E+00    0.716664404419976719E+01    0.838842529627869027E+01    0.174144509114033674E+00   -0.149650316238403320E+02
    0.827564722486158111E+01    0.404717894238005726E+01    0.437306880950927734E+00    0.711610532041618260E+01    0.888871924850685602E+01   -0.191871901359108699E+01   -0.146868076324462891E+02
    0.827313242787601766E+01    0.382744518969691683E+01    0.501624464988708496E+00    0.730056171641880791E+01    0.957239297576181158E+01    0.127351360624369470E+00   -0.145780525207519531E+02
    0.827574639162796899E+01    0.364808867192679820E+01    0.549051940441131592E+00    0.731630548450765161E+01    0.941318757088622959E+01    0.174933050836624915E+00   -0.145504627227783203E+02
    0.824211736839977860E+01    0.447415844413229902E+01    0.390314191579818726E+00    0.618086865640091077E+01    0.720224931982890304E+01   -0.159071872187778918E+01   -0.144079933166503906E+02
    0.825030017432674967E+01    0.460074063813335776E+01    0.348065018653869629E+00    0.619668599656280961E+01    0.104111409299114328E+02   -0.184718154384810695E+01   -0.141335391998291016E+02
    0.805486522798350357E+01    0.382135109682201168E+01    0.399704307317733765E+00    0.705581269617990703E+01    0.978913409833004167E+01    0.200949192122785725E+00   -0.134647731781005859E+02
    0.838410351076036875E+01    0.383112356855979064E+01    0.555760622024536133E+00    0.738876073697394631E+01    0.800563073110916612E+01    0.238242009157374035E+00   -0.134124660491943359E+02
    0.818958018150303957E+01    0.377233624376651111E+01    0.444986909627914429E+00    0.724653682575613001E+01    0.100996221058118518E+02    0.236312653578132803E+00   -0.128616886138916016E+02
    0.810410685617554449E+01    0.378476234993887584E+01    0.465570509433746338E+00    0.698486393199751721E+01    0.753184839863005351E+01    0.174979986653842179E+00   -0.124136734008789062E+02
