    0.832482775034297440E+01    0.529339726666302912E+00    0.228297019004821777E+01    0.949410345394456279E+01    0.102095236759096419E+02   -0.122102677452445429E+01   -0.224846954345703125E+02
    0.845706596950933154E+01    0.589521799941943758E+00    0.120936858654022217E+01    0.899103296149641906E+01    0.789729177112664171E+01   -0.659106084359180722E+00   -0.214352664947509766E+02
    0.850270460074971979E+01    0.661844841424781727E+00    0.119862866401672363E+01    0.958999355959286603E+01    0.955091938511336380E+01   -0.109517961096320460E+01   -0.205645408630371094E+02
    0.803961770057996716E+01    0.413437164128018453E+00    0.372017383575439453E+00    0.925831887448004132E+01    0.841210047782011650E+01   -0.380669266781010762E+00   -0.198625354766845703E+02
    0.829532740055731921E+01    0.567662055331824678E+00    0.294192820787429810E+00    0.920634094327517971E+01    0.824314831935365255E+01   -0.120039046488377199E+01   -0.193069534301757812E+02
    0.859948461165223677E+01    0.631880157100778161E+00    0.131178307533264160E+01    0.904512671593485962E+01    0.774987258260174094E+01   -0.152963450321662053E+01   -0.189155044555664062E+02
    0.842389320858728574E+01    0.567462583255749498E+00    0.152526330947875977E+01    0.885996709467688959E+01    0.744292857755485393E+01   -0.127479094490932310E+01   -0.188682212829589844E+02
    0.824584142218677485E+01    0.515275209727028227E+00    0.110179650783538818E+01    0.885229570737085325E+01    0.749747573026214376E+01   -0.579736228479393878E+00   -0.187494926452636719E+02
    0.821829444694672695E+01    0.511482471006491024E+00    0.105616736412048340E+01    0.890384113652289599E+01    0.786544974121012697E+01   -0.751983085051517230E+00   -0.184693031311035156E+02
    0.838573933025606877E+01    0.490993156713438239E+00    0.115434932708740234E+01    0.939300390619755632E+01    0.859362771822103078E+01   -0.125984469990396986E+01   -0.183915615081787109E+02
    0.847570255279537577E+01    0.491411731291559906E+00    0.129455494880676270E+01    0.943283563624015997E+01    0.852260297836357417E+01   -0.179104025776772757E+01   -0.183529949188232422E+02
    0.871581393581173991E+01    0.696461227045622744E+00    0.112886476516723633E+01    0.928353592720792342E+01    0.845830673336738492E+01   -0.193594497181098513E+01   -0.182690162658691406E+02
    0.834933844603362729E+01    0.557729663939260489E+00    0.508400619029998779E+00    0.925378625497573992E+01    0.834459734738164194E+01   -0.913125620282832839E+00   -0.182427024841308594E+02
    0.846067930310207039E+01    0.631057134741794146E+00    0.627789616584777832E+00    0.898900681480924924E+01    0.746112052114284729E+01   -0.141087427282059319E+01   -0.181463451385498047E+02
    0.853136664011830526E+01    0.622410931221076935E+00    0.824037790298461914E+00    0.938837134904817816E+01    0.866327968055687947E+01   -0.146175098153026228E+01   -0.181207065582275391E+02
    0.857712295941545655E+01    0.659352443893304052E+00    0.785103738307952881E+00    0.911239931929317493E+01    0.795388033445172127E+01   -0.121057247645245525E+01   -0.180583457946777344E+02
    0.845704281000911351E+01    0.625773407661631476E+00    0.344437599182128906E+00    0.915951040631834523E+01    0.759061179695111221E+01   -0.127995007588031240E+01   -0.178838005065917969E+02
    0.854282282966468998E+01    0.611205627414971753E+00    0.172543489933013916E+01    0.899622606157041638E+01    0.792921992242217311E+01   -0.123650092855592919E+01   -0.178621864318847656E+02
    0.848425764037737196E+01    0.502663757662706323E+00    0.182714962959289551E+01    0.939051231821678023E+01    0.872801373644614031E+01   -0.175194710732181957E+01   -0.177246265411376953E+02
    0.852940907252238922E+01    0.519107703210340499E+00    0.636837065219879150E+00    0.948332597759501184E+01    0.814727091347601373E+01   -0.202777029109009010E+01   -0.176364994049072266E+02
    0.833336948051405635E+01    0.430159237742969547E+00    0.176315069198608398E+01    0.932435399333339454E+01    0.853224417138913260E+01   -0.184721874342422865E+01   -0.176255302429199219E+02
    0.860885825646297320E+01    0.632375082339768801E+00    0.201165938377380371E+01    0.912423828006821935E+01    0.839833362185634869E+01   -0.155306297119096226E+01   -0.175945549011230469E+02
    0.845830378725111842E+01    0.581576341141605169E+00    0.324392884969711304E+00    0.922111070545104994E+01    0.756506068438503831E+01   -0.151111542986093328E+01   -0.175809364318847656E+02
    0.819469114087753425E+01    0.482670281641938592E+00    0.513221383094787598E+00    0.923725159546277119E+01    0.835404346519985630E+01   -0.668021754523583144E+00   -0.175777225494384766E+02
    0.813026938916464559E+01    0.349719061307523726E+00    0.842448651790618896E+00    0.966372559543983023E+01    0.896480706246636316E+01   -0.979942821223097393E+00   -0.173834762573242188E+02
    0.844245027903924594E+01    0.580415697741781811E+00    0.556792140007019043E+00    0.909377204227079794E+01    0.769400122797837227E+01   -0.974754944008034085E+00   -0.173502006530761719E+02
    0.845152669102907339E+01    0.496899892350000205E+00    0.116638588905334473E+01    0.949349049708732906E+01    0.870714301455116768E+01   -0.140629485445823299E+01   -0.173416175842285156E+02
    0.833336932429788746E+01    0.500257304013694393E+00    0.130424535274505615E+01    0.900013279718254644E+01    0.761235176424399373E+01   -0.999833158986158654E+00   -0.172642440795898438E+02
    0.836005812996287290E+01    0.539900149425343812E+00    0.169684791564941406E+01    0.892859270846287068E+01    0.799917209774754401E+01   -0.988057671709659635E+00   -0.172397422790527344E+02
    0.846009584664768610E+01    0.500919425267802976E+00    0.592430710792541504E+00    0.937219443454252499E+01    0.802295202662838491E+01   -0.194059235265310392E+01   -0.172054443359375000E+02
    0.847499460053310827E+01    0.641031564335208137E+00    0.828553318977355957E+00    0.898357328734445204E+01    0.788280543025844516E+01   -0.939027908806621570E+00   -0.171761608123779297E+02
    0.845032077187404163E+01    0.578250366529981075E+00    0.508803546428680420E+00    0.919370382103169881E+01    0.788156633120192929E+01   -0.191146661934175732E+01   -0.171499080657958984E+02
    0.845623273841447620E+01    0.561269700416660244E+00    0.656685650348663330E+00    0.922117536138157945E+01    0.794441842257024256E+01   -0.191591506004067558E+01   -0.171404438018798828E+02
    0.851693375708554079E+01    0.654850997273343172E+00    0.486755013465881348E+00    0.906712574827452755E+01    0.769821939075877815E+01   -0.954031040212204084E+00   -0.171159267425537109E+02
    0.820041414201499919E+01    0.447656795519351614E+00    0.564215421676635742E+00    0.913614014201093738E+01    0.767006905099172887E+01   -0.474758676702211835E+00   -0.170303707122802734E+02
    0.839266187310050249E+01    0.497661248107159115E+00    0.135658264160156250E+01    0.913012942557991458E+01    0.798882353841059345E+01   -0.111865018421824014E+01   -0.169380645751953125E+02
    0.859119432923141346E+01    0.622251933035320670E+00    0.136022841930389404E+01    0.906457373960309098E+01    0.773692617620440526E+01   -0.152365112931059254E+01   -0.168577709197998047E+02
    0.839619729747953691E+01    0.591056331144252267E+00    0.153874158859252930E+01    0.889989638777712955E+01    0.797315324617598709E+01   -0.818015747265827597E+00   -0.168086013793945312E+02
    0.845635402691976168E+01    0.566009201491420422E+00    0.190357387065887451E+01    0.890075558868431749E+01    0.750941611037262380E+01   -0.112385592603839979E+01   -0.167807979583740234E+02
    0.824179462254859629E+01    0.492119896074781626E+00    0.559537947177886963E+00    0.907022186881518167E+01    0.786976240851871189E+01   -0.728333009866152681E+00   -0.166926460266113281E+02
    0.824179462254859629E+01    0.492119896074781626E+00    0.559537947177886963E+00    0.907022186881518167E+01    0.786976240851871189E+01   -0.728333009866152681E+00   -0.166926460266113281E+02
    0.814338304837036731E+01    0.362041156933962383E+00    0.347165942192077637E+00    0.954045612978376312E+01    0.846347782183187292E+01   -0.138730407887450680E+01   -0.166883087158203125E+02
    0.836275075236298804E+01    0.559036069264366442E+00    0.614441752433776855E+00    0.904876084622444132E+01    0.779001582547442339E+01   -0.105392722423353091E+01   -0.166380119323730469E+02
    0.838826765268113661E+01    0.526009230373614134E+00    0.301358044147491455E+00    0.925081170809416520E+01    0.771522440315286318E+01   -0.176181635490721900E+01   -0.165885314941406250E+02
    0.838826765268113661E+01    0.526009230373614134E+00    0.301358044147491455E+00    0.925081170809416520E+01    0.771522440315286318E+01   -0.176181635490721900E+01   -0.165885314941406250E+02
    0.819746235461653683E+01    0.454624595157715639E+00    0.310537576675415039E+00    0.927454776075596143E+01    0.803778264895966288E+01   -0.111713873372880124E+01   -0.165413703918457031E+02
    0.819746235461653683E+01    0.454624595157715639E+00    0.310537576675415039E+00    0.927454776075596143E+01    0.803778264895966288E+01   -0.111713873372880124E+01   -0.165413703918457031E+02
    0.825970589459447702E+01    0.321996754376891736E+00    0.105098414421081543E+01    0.986894103894152153E+01    0.910381299186878579E+01   -0.938718182886593144E+00   -0.165062541961669922E+02
    0.844428301989621310E+01    0.507196117060429330E+00    0.654800534248352051E+00    0.934306689861137585E+01    0.785055316455849539E+01   -0.146074491966787301E+01   -0.164941005706787109E+02
    0.844428301989621310E+01    0.507196117060429330E+00    0.654800534248352051E+00    0.934306689861137585E+01    0.785055316455849539E+01   -0.146074491966787301E+01   -0.164941005706787109E+02
    0.828412335690631352E+01    0.525265077768699240E+00    0.723428666591644287E+00    0.902134453335292008E+01    0.793649922763455340E+01   -0.718681012712895306E+00   -0.164494056701660156E+02
    0.850864787841369186E+01    0.637433577744885738E+00    0.119032037258148193E+01    0.893120678349808550E+01    0.753751597284567953E+01   -0.123012347217602924E+01   -0.163646259307861328E+02
    0.850864787841369186E+01    0.637433577744885738E+00    0.119032037258148193E+01    0.893120678349808550E+01    0.753751597284567953E+01   -0.123012347217602924E+01   -0.163646259307861328E+02
    0.839062957081926086E+01    0.538673844007391378E+00    0.147622585296630859E+01    0.924425736320996450E+01    0.852253445344349458E+01   -0.132243628339183639E+01   -0.162509040832519531E+02
    0.839062957081926086E+01    0.538673844007391378E+00    0.147622585296630859E+01    0.924425736320996450E+01    0.852253445344349458E+01   -0.132243628339183639E+01   -0.162509040832519531E+02
    0.824253997288497686E+01    0.507192479917931260E+00    0.724539458751678467E+00    0.923048183359333230E+01    0.838378581148305457E+01   -0.119736825616830611E+01   -0.162430896759033203E+02
    0.824253997288497686E+01    0.507192479917931260E+00    0.724539458751678467E+00    0.923048183359333230E+01    0.838378581148305457E+01   -0.119736825616830611E+01   -0.162430896759033203E+02
    0.840116636343681478E+01    0.580192251878498322E+00    0.159983837604522705E+01    0.880226427750433871E+01    0.747571605128569150E+01   -0.999413353517724312E+00   -0.162071857452392578E+02
    0.840116636343681478E+01    0.580192251878498322E+00    0.159983837604522705E+01    0.880226427750433871E+01    0.747571605128569150E+01   -0.999413353517724312E+00   -0.162071857452392578E+02
    0.845231213020016448E+01    0.562300956264537355E+00    0.828834176063537598E+00    0.913416557982791488E+01    0.754946965812495652E+01   -0.136574550576921183E+01   -0.161120147705078125E+02
    0.845231213020016448E+01    0.562300956264537355E+00    0.828834176063537598E+00    0.913416557982791488E+01    0.754946965812495652E+01   -0.136574550576921183E+01   -0.161120147705078125E+02
    0.813006369625202829E+01    0.349829373841216817E+00    0.423093885183334351E+00    0.957020804482369059E+01    0.853760676065663837E+01   -0.136018794818383348E+01   -0.161031322479248047E+02
    0.813006369625202829E+01    0.349829373841216817E+00    0.423093885183334351E+00    0.957020804482369059E+01    0.853760676065663837E+01   -0.136018794818383348E+01   -0.161031322479248047E+02
    0.836722012612424848E+01    0.453764421783424077E+00    0.118143117427825928E+01    0.968154200368150875E+01    0.909121526212814501E+01   -0.121888173097176322E+01   -0.160852203369140625E+02
    0.836722012612424848E+01    0.453764421783424077E+00    0.118143117427825928E+01    0.968154200368150875E+01    0.909121526212814501E+01   -0.121888173097176322E+01   -0.160852203369140625E+02
    0.849803265372996819E+01    0.547675686143266893E+00    0.110215926170349121E+01    0.922141183771469919E+01    0.806180968490483352E+01   -0.204240705701375180E+01   -0.160372505187988281E+02
    0.849803265372996819E+01    0.547675686143266893E+00    0.110215926170349121E+01    0.922141183771469919E+01    0.806180968490483352E+01   -0.204240705701375180E+01   -0.160372505187988281E+02
    0.826070965520997902E+01    0.469444293738702778E+00    0.780957162380218506E+00    0.917525408895539663E+01    0.800220325716778014E+01   -0.756268122357429240E+00   -0.160150680541992188E+02
    0.826070965520997902E+01    0.469444293738702778E+00    0.780957162380218506E+00    0.917525408895539663E+01    0.800220325716778014E+01   -0.756268122357429240E+00   -0.160150680541992188E+02
    0.860801641741890755E+01    0.609240935098650738E+00    0.138589966297149658E+01    0.916403762684668877E+01    0.807676669186927398E+01   -0.188969416041359595E+01   -0.160124435424804688E+02
    0.860801641741890755E+01    0.609240935098650738E+00    0.138589966297149658E+01    0.916403762684668877E+01    0.807676669186927398E+01   -0.188969416041359595E+01   -0.160124435424804688E+02
    0.838557902897738217E+01    0.544667808642201656E+00    0.996194481849670410E+00    0.902146069249149285E+01    0.743713652910512302E+01   -0.916226101863325537E+00   -0.159829158782958984E+02
    0.838557902897738217E+01    0.544667808642201656E+00    0.996194481849670410E+00    0.902146069249149285E+01    0.743713652910512302E+01   -0.916226101863325537E+00   -0.159829158782958984E+02
    0.843878203878024458E+01    0.561470954756172480E+00    0.806657016277313232E+00    0.915584897151044785E+01    0.796639617376749776E+01   -0.161003080243088714E+01   -0.159771089553833008E+02
    0.843878203878024458E+01    0.561470954756172480E+00    0.806657016277313232E+00    0.915584897151044785E+01    0.796639617376749776E+01   -0.161003080243088714E+01   -0.159771089553833008E+02
    0.826787638500839428E+01    0.472043072240758810E+00    0.934817075729370117E+00    0.907808930121360369E+01    0.754767222741004318E+01   -0.997222705860535630E+00   -0.159737987518310547E+02
    0.826787638500839428E+01    0.472043072240758810E+00    0.934817075729370117E+00    0.907808930121360369E+01    0.754767222741004318E+01   -0.997222705860535630E+00   -0.159737987518310547E+02
    0.853095542401672624E+01    0.650521317789213516E+00    0.878682911396026611E+00    0.906428533349724930E+01    0.798883427780896671E+01   -0.135348881785101849E+01   -0.159479312896728516E+02
    0.853095542401672624E+01    0.650521317789213516E+00    0.878682911396026611E+00    0.906428533349724930E+01    0.798883427780896671E+01   -0.135348881785101849E+01   -0.159479312896728516E+02
    0.837107627046753322E+01    0.470877962210186518E+00    0.247287422418594360E+00    0.950398211711326546E+01    0.813733796517179897E+01   -0.143027782022656735E+01   -0.159400072097778320E+02
    0.837107627046753322E+01    0.470877962210186518E+00    0.247287422418594360E+00    0.950398211711326546E+01    0.813733796517179897E+01   -0.143027782022656735E+01   -0.159400072097778320E+02
    0.828702911060874392E+01    0.316120091518630464E+00    0.100692629814147949E+01    0.992304916630085287E+01    0.911933022656867820E+01   -0.132926354576672523E+01   -0.158890762329101562E+02
    0.828702911060874392E+01    0.316120091518630464E+00    0.100692629814147949E+01    0.992304916630085287E+01    0.911933022656867820E+01   -0.132926354576672523E+01   -0.158890762329101562E+02
    0.830173291119285572E+01    0.496466689398892380E+00    0.123290717601776123E+01    0.900527824164539759E+01    0.782530818317030263E+01   -0.948647659741654659E+00   -0.158858604431152344E+02
    0.830173291119285572E+01    0.496466689398892380E+00    0.123290717601776123E+01    0.900527824164539759E+01    0.782530818317030263E+01   -0.948647659741654659E+00   -0.158858604431152344E+02
    0.841115228701093898E+01    0.528048448003277437E+00    0.186897253990173340E+01    0.892719550011176999E+01    0.736157181450101472E+01   -0.129393278249139598E+01   -0.158632860183715820E+02
    0.821576171290372059E+01    0.464665374841013834E+00    0.457133531570434570E+00    0.913837167960442898E+01    0.761171917934241904E+01   -0.782716151632305568E+00   -0.158597660064697266E+02
    0.823927821402455152E+01    0.458665790911782612E+00    0.177077972888946533E+01    0.888869481608391254E+01    0.755475700597437960E+01   -0.753805307356951726E+00   -0.158345584869384766E+02
    0.837154205626877967E+01    0.549726493308784869E+00    0.551607489585876465E+00    0.916106592788415597E+01    0.762373668800638793E+01   -0.153788368989495128E+01   -0.158052368164062500E+02
    0.833929335449385434E+01    0.333465372926865011E+00    0.176037037372589111E+01    0.984195276004081876E+01    0.912635983106755155E+01   -0.143429960800248191E+01   -0.157961330413818359E+02
    0.833929335449385434E+01    0.333465372926865011E+00    0.176037037372589111E+01    0.984195276004081876E+01    0.912635983106755155E+01   -0.143429960800248191E+01   -0.157961330413818359E+02
    0.849962875578712129E+01    0.610716013633365251E+00    0.125291204452514648E+01    0.900986163741583823E+01    0.791118265933844533E+01   -0.146998814434920844E+01   -0.157857580184936523E+02
    0.849962875578712129E+01    0.610716013633365251E+00    0.125291204452514648E+01    0.900986163741583823E+01    0.791118265933844533E+01   -0.146998814434920844E+01   -0.157857580184936523E+02
    0.837567283507137361E+01    0.530382217940567391E+00    0.946407854557037354E+00    0.907316028286456877E+01    0.759749919229676429E+01   -0.914842482395273437E+00   -0.157465629577636719E+02
    0.837567283507137361E+01    0.530382217940567391E+00    0.946407854557037354E+00    0.907316028286456877E+01    0.759749919229676429E+01   -0.914842482395273437E+00   -0.157465629577636719E+02
    0.832884624225338044E+01    0.367037823888161086E+00    0.110945296287536621E+01    0.969145541942380895E+01    0.884131586504813960E+01   -0.182718285862124574E+01   -0.157351961135864258E+02
    0.832884624225338044E+01    0.367037823888161086E+00    0.110945296287536621E+01    0.969145541942380895E+01    0.884131586504813960E+01   -0.182718285862124574E+01   -0.157351961135864258E+02
    0.837323873827677545E+01    0.463981059292621956E+00    0.425551801919937134E+00    0.942991224322707922E+01    0.789362377963238160E+01   -0.139328810286302929E+01   -0.157043075561523438E+02
    0.826999205940767368E+01    0.448745625204923504E+00    0.446787178516387939E+00    0.929443719361607634E+01    0.782861240790078661E+01   -0.156578704648054190E+01   -0.156844921112060547E+02
    0.826999205940767368E+01    0.448745625204923504E+00    0.446787178516387939E+00    0.929443719361607634E+01    0.782861240790078661E+01   -0.156578704648054190E+01   -0.156844921112060547E+02
    0.847869975517993524E+01    0.591203738615528995E+00    0.134524202346801758E+01    0.907817063299768101E+01    0.816804980394108782E+01   -0.143055133484901997E+01   -0.156769428253173828E+02
    0.847869975517993524E+01    0.591203738615528995E+00    0.134524202346801758E+01    0.907817063299768101E+01    0.816804980394108782E+01   -0.143055133484901997E+01   -0.156769428253173828E+02
    0.831261522313396561E+01    0.480334675041136638E+00    0.957395255565643311E+00    0.929816864975498802E+01    0.842628855195223281E+01   -0.152063101721857841E+01   -0.156677017211914062E+02
    0.831261522313396561E+01    0.480334675041136638E+00    0.957395255565643311E+00    0.929816864975498802E+01    0.842628855195223281E+01   -0.152063101721857841E+01   -0.156677017211914062E+02
    0.835719000017385660E+01    0.454302872381421807E+00    0.382454156875610352E+00    0.945838854634901693E+01    0.816912205599305885E+01   -0.185820778669736253E+01   -0.156554946899414062E+02
    0.842941673136535030E+01    0.504050307723864166E+00    0.508880019187927246E+00    0.938608530811612951E+01    0.811111621521017945E+01   -0.176634092239756635E+01   -0.156521263122558594E+02
    0.842941673136535030E+01    0.504050307723864166E+00    0.508880019187927246E+00    0.938608530811612951E+01    0.811111621521017945E+01   -0.176634092239756635E+01   -0.156521263122558594E+02
    0.833718260576417336E+01    0.543717670809727327E+00    0.430361211299896240E+00    0.907437930573168750E+01    0.742860098958803228E+01   -0.929213884922295064E+00   -0.156451454162597656E+02
    0.825854850154252773E+01    0.416531106949522556E+00    0.203286480903625488E+01    0.905493881712941295E+01    0.780741914870197018E+01   -0.116747910122904464E+01   -0.156429710388183594E+02
    0.825854850154252773E+01    0.416531106949522556E+00    0.203286480903625488E+01    0.905493881712941295E+01    0.780741914870197018E+01   -0.116747910122904464E+01   -0.156429710388183594E+02
    0.828443154574254770E+01    0.435252327520754823E+00    0.189927637577056885E+00    0.946056169717383000E+01    0.812584594106268909E+01   -0.119663997734040661E+01   -0.156009960174560547E+02
    0.843547980030162314E+01    0.533795488944294738E+00    0.876261472702026367E+00    0.925207368060481450E+01    0.803040091652073151E+01   -0.161229951247330128E+01   -0.155958175659179688E+02
    0.832513922808198181E+01    0.541726469284842693E+00    0.119739162921905518E+01    0.888590653051128143E+01    0.748603188297531563E+01   -0.765402940780723018E+00   -0.155404758453369141E+02
    0.832513922808198181E+01    0.541726469284842693E+00    0.119739162921905518E+01    0.888590653051128143E+01    0.748603188297531563E+01   -0.765402940780723018E+00   -0.155404758453369141E+02
    0.827664284700341213E+01    0.511335456517428066E+00    0.518906474113464355E+00    0.931532798052288058E+01    0.850490092138898923E+01   -0.108366932269078076E+01   -0.155388612747192383E+02
    0.813758714739791600E+01    0.377288527634816795E+00    0.522768139839172363E+00    0.942449736261048088E+01    0.841765317936282109E+01   -0.970372029048501172E+00   -0.154908199310302734E+02
    0.841274751741043403E+01    0.577316826842286579E+00    0.896281003952026367E+00    0.902811127386551604E+01    0.767788628958839503E+01   -0.120144164362845052E+01   -0.154871215820312500E+02
    0.838808829682091073E+01    0.454109305451571799E+00    0.123660349845886230E+01    0.957054963763265931E+01    0.884125671742571129E+01   -0.141110251268008757E+01   -0.154782295227050781E+02
    0.836837548175465074E+01    0.429589113897584418E+00    0.253682553768157959E+00    0.957670541260578823E+01    0.798388099975065302E+01   -0.154681055909885368E+01   -0.154345827102661133E+02
    0.836837548175465074E+01    0.429589113897584418E+00    0.253682553768157959E+00    0.957670541260578823E+01    0.798388099975065302E+01   -0.154681055909885368E+01   -0.154345827102661133E+02
    0.850958293292326218E+01    0.579225370544158236E+00    0.379310339689254761E+00    0.927492797473787611E+01    0.780972582590098252E+01   -0.202112433735075170E+01   -0.154086074829101562E+02
    0.850958293292326218E+01    0.579225370544158236E+00    0.379310339689254761E+00    0.927492797473787611E+01    0.780972582590098252E+01   -0.202112433735075170E+01   -0.154086074829101562E+02
    0.846057760498378819E+01    0.543853261065445848E+00    0.777576744556427002E+00    0.935661525973938168E+01    0.845865234696350043E+01   -0.150483697743353106E+01   -0.154073038101196289E+02
    0.846057760498378819E+01    0.543853261065445848E+00    0.777576744556427002E+00    0.935661525973938168E+01    0.845865234696350043E+01   -0.150483697743353106E+01   -0.154073038101196289E+02
    0.845223942182897225E+01    0.586559299361833486E+00    0.624614715576171875E+00    0.913027755076444869E+01    0.765369598566218112E+01   -0.151583184415779604E+01   -0.154059591293334961E+02
    0.845223942182897225E+01    0.586559299361833486E+00    0.624614715576171875E+00    0.913027755076444869E+01    0.765369598566218112E+01   -0.151583184415779604E+01   -0.154059591293334961E+02
    0.839784825537517499E+01    0.559849097888416858E+00    0.365667283535003662E+00    0.925468431962021221E+01    0.808766065449901639E+01   -0.153026011772701342E+01   -0.153899059295654297E+02
    0.839784825537517499E+01    0.559849097888416858E+00    0.365667283535003662E+00    0.925468431962021221E+01    0.808766065449901639E+01   -0.153026011772701342E+01   -0.153899059295654297E+02
    0.844887420491398267E+01    0.534938155283727679E+00    0.494126379489898682E+00    0.928368554829182280E+01    0.774255516211083350E+01   -0.168019182393458699E+01   -0.153859815597534180E+02
    0.845737675198309447E+01    0.474038942772631866E+00    0.120067632198333740E+01    0.957838752659717763E+01    0.882493370951984168E+01   -0.170747925774160891E+01   -0.153681430816650391E+02
    0.845737675198309447E+01    0.474038942772631866E+00    0.120067632198333740E+01    0.957838752659717763E+01    0.882493370951984168E+01   -0.170747925774160891E+01   -0.153681430816650391E+02
    0.821728946075090683E+01    0.396859077927707804E+00    0.104198169708251953E+01    0.936361254871056659E+01    0.829385123794145684E+01   -0.126073184801563243E+01   -0.153404369354248047E+02
    0.833866263546769027E+01    0.518352992091855702E+00    0.127794575691223145E+01    0.897133010503695871E+01    0.767883843049640369E+01   -0.110057681182718081E+01   -0.153398323059082031E+02
    0.833866263546769027E+01    0.518352992091855702E+00    0.127794575691223145E+01    0.897133010503695871E+01    0.767883843049640369E+01   -0.110057681182718081E+01   -0.153398323059082031E+02
    0.840060934372941226E+01    0.521378398807475052E+00    0.367247730493545532E+00    0.936324877807572520E+01    0.831659571902815209E+01   -0.172988973839121440E+01   -0.153347930908203125E+02
    0.830552732093802604E+01    0.437906800039658151E+00    0.928843736648559570E+00    0.935203111428563005E+01    0.833919941790125563E+01   -0.167349356298719809E+01   -0.153247909545898438E+02
    0.840890060295741648E+01    0.532121311152939147E+00    0.205447137355804443E+00    0.929809596372733260E+01    0.782550319343409484E+01   -0.173206100292357723E+01   -0.153091907501220703E+02
    0.838839340837404634E+01    0.566776513593535092E+00    0.125393962860107422E+01    0.894039230106804261E+01    0.758755386739676041E+01   -0.119617706453533179E+01   -0.153028049468994141E+02
    0.838839340837404634E+01    0.566776513593535092E+00    0.125393962860107422E+01    0.894039230106804261E+01    0.758755386739676041E+01   -0.119617706453533179E+01   -0.153028049468994141E+02
    0.837343749044773134E+01    0.505211904666425182E+00    0.146991169452667236E+01    0.903093862715594220E+01    0.772573947962218099E+01   -0.131920351401275537E+01   -0.152856178283691406E+02
    0.830445406393047492E+01    0.436628697482309758E+00    0.898590207099914551E+00    0.952389152235758907E+01    0.874216711371511046E+01   -0.133521754329809017E+01   -0.152793941497802734E+02
    0.830445406393047492E+01    0.436628697482309758E+00    0.898590207099914551E+00    0.952389152235758907E+01    0.874216711371511046E+01   -0.133521754329809017E+01   -0.152793941497802734E+02
    0.849389935278011876E+01    0.559289011529256919E+00    0.300001859664916992E+00    0.937050821657365063E+01    0.822539873241029085E+01   -0.200660226164829636E+01   -0.152742156982421875E+02
    0.849389935278011876E+01    0.559289011529256919E+00    0.300001859664916992E+00    0.937050821657365063E+01    0.822539873241029085E+01   -0.200660226164829636E+01   -0.152742156982421875E+02
    0.837590384997257686E+01    0.537510228292691128E+00    0.187598541378974915E+00    0.933873540283233083E+01    0.831517757306406224E+01   -0.153925173035001017E+01   -0.152371482849121094E+02
    0.848953489487272961E+01    0.490295912172817872E+00    0.111568856239318848E+01    0.953827846876859908E+01    0.872990301818658665E+01   -0.192446817266748682E+01   -0.152306394577026367E+02
    0.848953489487272961E+01    0.490295912172817872E+00    0.111568856239318848E+01    0.953827846876859908E+01    0.872990301818658665E+01   -0.192446817266748682E+01   -0.152306394577026367E+02
    0.828143954041086872E+01    0.458454927465601181E+00    0.568664491176605225E+00    0.930792141738936429E+01    0.818501406041357349E+01   -0.159136113469516838E+01   -0.152301559448242188E+02
    0.824336074960672072E+01    0.497338025752722568E+00    0.542324244976043701E+00    0.918747158758826465E+01    0.811145059911119048E+01   -0.127253123394227430E+01   -0.152240152359008789E+02
    0.824336074960672072E+01    0.497338025752722568E+00    0.542324244976043701E+00    0.918747158758826465E+01    0.811145059911119048E+01   -0.127253123394227430E+01   -0.152240152359008789E+02
    0.837991531368590614E+01    0.522517228561663494E+00    0.126740550994873047E+01    0.905375231969652283E+01    0.786861402138695354E+01   -0.118048520713492233E+01   -0.152116355895996094E+02
    0.836071418416881507E+01    0.457772164837585316E+00    0.359072834253311157E+00    0.947645570766227863E+01    0.824869407886237305E+01   -0.177856657549845165E+01   -0.151871414184570312E+02
    0.846773681012758672E+01    0.598193665707922650E+00    0.550256371498107910E+00    0.916945051465521921E+01    0.778144660821646994E+01   -0.169649311646054612E+01   -0.151763706207275391E+02
    0.842252910435871094E+01    0.451735132579355714E+00    0.120300364494323730E+01    0.954265113701297096E+01    0.873198607825753825E+01   -0.176959056875496268E+01   -0.151608448028564453E+02
    0.827434604921053918E+01    0.436552938478337260E+00    0.216480597853660583E+00    0.944639346319079998E+01    0.801306755795521397E+01   -0.158219048358006686E+01   -0.151600589752197266E+02
    0.835015849787457931E+01    0.438287369998879905E+00    0.117792224884033203E+01    0.937588535963699599E+01    0.832567200874763103E+01   -0.173001522962194065E+01   -0.151435651779174805E+02
    0.841067113229579277E+01    0.536438032929911879E+00    0.134866321086883545E+01    0.903849667154201697E+01    0.754703303270639481E+01   -0.122858489418494754E+01   -0.151392107009887695E+02
    0.835043582971427867E+01    0.486089398685196294E+00    0.143292593955993652E+01    0.909769146673539275E+01    0.796717670226225838E+01   -0.129197425465671301E+01   -0.151264533996582031E+02
    0.832434317115746936E+01    0.359615519500028846E+00    0.106075239181518555E+01    0.971915109206259586E+01    0.882456600966218296E+01   -0.150281468873060531E+01   -0.151200647354125977E+02
    0.821680824913694607E+01    0.451660285130524808E+00    0.181976526975631714E+00    0.936152151740609284E+01    0.832838041189788747E+01   -0.958730795388115009E+00   -0.151115560531616211E+02
    0.828706275527737013E+01    0.452068715345004812E+00    0.552506558597087860E-01    0.946092995975866380E+01    0.801512675750891113E+01   -0.128957747621532604E+01   -0.151030616760253906E+02
    0.836282054579896794E+01    0.502421720580464637E+00    0.650429248809814453E+00    0.928785912355267662E+01    0.809932240047751861E+01   -0.155249900644348848E+01   -0.150962848663330078E+02
    0.836282054579896794E+01    0.502421720580464637E+00    0.650429248809814453E+00    0.928785912355267662E+01    0.809932240047751861E+01   -0.155249900644348848E+01   -0.150962848663330078E+02
    0.838140860129804821E+01    0.485590417912957595E+00    0.511482477188110352E+00    0.934784882669173811E+01    0.805899867362124134E+01   -0.186555025041762801E+01   -0.150941028594970703E+02
    0.831594920126369352E+01    0.455631776658465326E+00    0.123768351972103119E+00    0.951329686180973866E+01    0.837599685552756945E+01   -0.123431543545620115E+01   -0.150914392471313477E+02
    0.824829204574712804E+01    0.489616082454114088E+00    0.204224377870559692E+00    0.930867401120462645E+01    0.833715766865010366E+01   -0.128765407078277794E+01   -0.150818128585815430E+02
    0.828925363371950397E+01    0.479119535347502290E+00    0.619563519954681396E+00    0.926337559977956460E+01    0.814462306182751128E+01   -0.153554762624039243E+01   -0.150745506286621094E+02
    0.831978427352673577E+01    0.436105094594801290E+00    0.275584340095520020E+00    0.949370369154475746E+01    0.804271787339546051E+01   -0.161091493708680056E+01   -0.150521774291992188E+02
    0.839835781299623463E+01    0.514961331913439402E+00    0.156784296035766602E+01    0.902390217023188690E+01    0.774172722037769301E+01   -0.137569852360672695E+01   -0.150068340301513672E+02
    0.832329444754438086E+01    0.421549570150244912E+00    0.117213153839111328E+01    0.955630556650678109E+01    0.878470954467779208E+01   -0.142732904190185539E+01   -0.149968910217285156E+02
    0.843510049795104422E+01    0.549320082845350610E+00    0.554422497749328613E+00    0.924561456005971039E+01    0.787633064542899497E+01   -0.170356428627668133E+01   -0.149940252304077148E+02
    0.827690146676825300E+01    0.388348542421303289E+00    0.463385164737701416E+00    0.955271160899823890E+01    0.807963718730913349E+01   -0.133044029266082586E+01   -0.149915084838867188E+02
    0.839935175145673618E+01    0.503659144252672997E+00    0.143645215034484863E+01    0.907334211214941355E+01    0.763740957236384244E+01   -0.146283694799797548E+01   -0.149807453155517578E+02
    0.820197597088347585E+01    0.366791464999768446E+00    0.398267239332199097E+00    0.959133582617822533E+01    0.848398044911958138E+01   -0.137907355010492649E+01   -0.149721174240112305E+02
    0.816437499753286744E+01    0.373268305638367937E+00    0.651595711708068848E+00    0.941663949483666585E+01    0.825351415472524508E+01   -0.134492710715023644E+01   -0.149656200408935547E+02
    0.825783581419765511E+01    0.408218289391009015E+00    0.612261116504669189E+00    0.948221669098124664E+01    0.843694933628865407E+01   -0.160405675168451722E+01   -0.149569654464721680E+02
    0.811045270628682680E+01    0.390688614318898453E+00    0.479550510644912720E+00    0.934287356222273146E+01    0.824992500462580658E+01   -0.103920496544433671E+01   -0.149568758010864258E+02
    0.806954268937871078E+01    0.283614372735280618E+00    0.308918207883834839E+00    0.969529839180905029E+01    0.845241813633435690E+01   -0.956828084990101857E+00   -0.149194679260253906E+02
    0.829412030297803859E+01    0.397507651302191678E+00    0.156318056583404541E+01    0.936077291661180411E+01    0.829473708888713901E+01   -0.150963249155726742E+01   -0.149096279144287109E+02
    0.844065971400335613E+01    0.542178412849364966E+00    0.109306168556213379E+01    0.914301351110174743E+01    0.778172616581492793E+01   -0.133438186202835452E+01   -0.148829250335693359E+02
    0.838413032132122993E+01    0.546664615568855039E+00    0.343539834022521973E+00    0.922517837360541115E+01    0.787009291062511185E+01   -0.166587821530099833E+01   -0.148663024902343750E+02
    0.842551041054539596E+01    0.469837411374974590E+00    0.121617722511291504E+01    0.942902087066479488E+01    0.855623964349180532E+01   -0.183323346386976804E+01   -0.148522167205810547E+02
    0.841746344955011061E+01    0.458409234216216821E+00    0.109685933589935303E+01    0.940856131114511030E+01    0.831763412449325124E+01   -0.179816620089756096E+01   -0.148518857955932617E+02
    0.834472821034702861E+01    0.421038235746762635E+00    0.348861157894134521E+00    0.956318948494496368E+01    0.811721327329169107E+01   -0.143156733542735504E+01   -0.148232688903808594E+02
    0.826895035105618703E+01    0.473836712100700164E+00    0.924228906631469727E+00    0.918382695224754286E+01    0.780343786841034603E+01   -0.146074716818794692E+01   -0.148079767227172852E+02
    0.839468064717341989E+01    0.470086874494549056E+00    0.133963227272033691E+01    0.927415289885327887E+01    0.813544288021542883E+01   -0.172526966696830231E+01   -0.147889280319213867E+02
    0.842034096947795696E+01    0.497584105320480752E+00    0.971976995468139648E+00    0.938381392171511131E+01    0.846438053936832269E+01   -0.158781802863436683E+01   -0.147762184143066406E+02
    0.836749818475712281E+01    0.503481913846787532E+00    0.146423244476318359E+01    0.905011783161679162E+01    0.782705555400060060E+01   -0.123690115104762155E+01   -0.147748575210571289E+02
    0.836167723470229873E+01    0.460749383705991000E+00    0.608788251876831055E+00    0.937260429363162118E+01    0.791548170402934836E+01   -0.138997733547287305E+01   -0.147687664031982422E+02
    0.833587761942236583E+01    0.421092861966325838E+00    0.660580992698669434E+00    0.948168186760540976E+01    0.810199432534083464E+01   -0.186421544641416337E+01   -0.147671575546264648E+02
    0.829748893421564127E+01    0.463800770392579054E+00    0.379054039716720581E+00    0.934004058599727216E+01    0.812841393861370420E+01   -0.136021618976559999E+01   -0.147523460388183594E+02
    0.822800499511813932E+01    0.421904799623859517E+00    0.493285179138183594E+00    0.936115433304475530E+01    0.809837609341196085E+01   -0.116421441641260115E+01   -0.147500762939453125E+02
    0.821372335314052116E+01    0.356957453253509915E+00    0.157204806804656982E+00    0.961641634638105991E+01    0.798564324932136049E+01   -0.114252889556524040E+01   -0.147469615936279297E+02
    0.822078499024858012E+01    0.367373588087675285E+00    0.340728849172592163E+00    0.960098778430439737E+01    0.836985486282566882E+01   -0.121991984872872949E+01   -0.147316455841064453E+02
    0.827246552350094611E+01    0.438021790595764682E+00    0.356033056974411011E+00    0.939286899222735805E+01    0.808109647879424564E+01   -0.119804628699110682E+01   -0.147208976745605469E+02
    0.838093822788177789E+01    0.442758903475541643E+00    0.118591892719268799E+01    0.933789281031089402E+01    0.794892829287376657E+01   -0.186302199052092576E+01   -0.146984577178955078E+02
    0.835329965191443513E+01    0.479867751646461727E+00    0.742045164108276367E+00    0.938414565615106966E+01    0.847671002097327531E+01   -0.160407303892621544E+01   -0.146937847137451172E+02
    0.828500608519784265E+01    0.434483924735691585E+00    0.566485524177551270E+00    0.938577246115167441E+01    0.811384156587596017E+01   -0.133066161263409155E+01   -0.146811876296997070E+02
    0.837297673231791784E+01    0.515710000648994193E+00    0.105406594276428223E+01    0.915835644632915091E+01    0.801117880169476493E+01   -0.129298280419481415E+01   -0.146450319290161133E+02
    0.839253931256221719E+01    0.493928396364017919E+00    0.925392627716064453E+00    0.925165827970828047E+01    0.780105869100841964E+01   -0.161003909882847829E+01   -0.146299934387207031E+02
    0.843599237962728665E+01    0.487302722840286084E+00    0.871931731700897217E+00    0.931504149066245013E+01    0.759498929418467661E+01   -0.197944176565601060E+01   -0.146296882629394531E+02
    0.844370714034156578E+01    0.513416490366548350E+00    0.492072492837905884E+00    0.934168669232603399E+01    0.777534139049923745E+01   -0.183581168563867503E+01   -0.146245050430297852E+02
    0.830086368340262126E+01    0.401723641881062299E+00    0.143178808689117432E+01    0.935942063083503406E+01    0.825303353609329804E+01   -0.157622369702856213E+01   -0.146088380813598633E+02
    0.845212446626799263E+01    0.519003038770429748E+00    0.316235631704330444E+00    0.939740704503035218E+01    0.810503425257643073E+01   -0.175376793390633479E+01   -0.146072177886962891E+02
    0.825683386125724539E+01    0.445555076640384129E+00    0.559394299983978271E+00    0.932498307687093941E+01    0.816534824018530614E+01   -0.146913273552836721E+01   -0.145900945663452148E+02
    0.836274655980456849E+01    0.479416502030468372E+00    0.222133010625839233E+00    0.942748448198854838E+01    0.799637949449538699E+01   -0.150761560268966344E+01   -0.145845127105712891E+02
    0.848507551880898347E+01    0.475336831782455560E+00    0.279621452093124390E+00    0.955561431231454428E+01    0.788172249796968316E+01   -0.196777345836635087E+01   -0.145829057693481445E+02
    0.833338724800809594E+01    0.417146894687026148E+00    0.118206894397735596E+01    0.935452746748397246E+01    0.796144560245419264E+01   -0.164651800756728406E+01   -0.145712661743164062E+02
    0.827459284754032964E+01    0.426527866909811870E+00    0.387964010238647461E+00    0.940836606280867471E+01    0.781988810491118791E+01   -0.125142365224936025E+01   -0.145205039978027344E+02
    0.825746964830330832E+01    0.410066294117016839E+00    0.276463571935892105E-01    0.953125852497567649E+01    0.782113492104399821E+01   -0.127293175040030615E+01   -0.145049190521240234E+02
    0.827764673565443587E+01    0.470569067986935485E+00    0.421842187643051147E+00    0.940312654337390441E+01    0.851055822508837601E+01   -0.123154688337460660E+01   -0.144887800216674805E+02
    0.832444541766790991E+01    0.445206895032430272E+00    0.838909983634948730E+00    0.932143812428104646E+01    0.786703913853952130E+01   -0.171895914092169133E+01   -0.144682779312133789E+02
    0.830688219340978762E+01    0.435852241636363713E+00    0.401351809501647949E+00    0.944994058472876475E+01    0.785457510632581801E+01   -0.166357100723573481E+01   -0.144618072509765625E+02
    0.819855968929146428E+01    0.409418795056448181E+00    0.254534572362899780E+00    0.943588748047855574E+01    0.835312076045921970E+01   -0.101989171121198252E+01   -0.144366760253906250E+02
    0.835147108054305143E+01    0.430364678840803094E+00    0.759211838245391846E+00    0.946364269264742219E+01    0.818332481719411575E+01   -0.185430544508265771E+01   -0.144365959167480469E+02
    0.829695053046737030E+01    0.408896551879795345E+00    0.844492614269256592E+00    0.948781848391580596E+01    0.839019011165385287E+01   -0.156573769908863136E+01   -0.144201030731201172E+02
    0.831479782026396919E+01    0.433523444698940219E+00    0.640431106090545654E+00    0.942437321898485969E+01    0.826190499443612403E+01   -0.144000073889186631E+01   -0.144105834960937500E+02
    0.830097924236127227E+01    0.439445565793341320E+00    0.275624483823776245E+00    0.943972652121459710E+01    0.785202507635600533E+01   -0.124420252139039222E+01   -0.144007091522216797E+02
    0.835142209415999126E+01    0.520171439837890603E+00    0.566192567348480225E+00    0.927778840632432988E+01    0.826949998072556447E+01   -0.147171932558090246E+01   -0.143747348785400391E+02
    0.826357965483183854E+01    0.402610003047621567E+00    0.196472361683845520E+00    0.956412947387546097E+01    0.828322828808150646E+01   -0.124922550645809016E+01   -0.143656902313232422E+02
    0.819895931017469337E+01    0.381485512446992414E+00    0.127855658531188965E+00    0.951703782734654524E+01    0.769335094849212719E+01   -0.114739420948025517E+01   -0.143400020599365234E+02
    0.819122363162336953E+01    0.403238680661719584E+00    0.144260361790657043E+00    0.950551503096844463E+01    0.843344466430269790E+01   -0.125892735077000717E+01   -0.143335857391357422E+02
    0.821154748184048877E+01    0.386923681330609004E+00    0.527781128883361816E+00    0.942540367386909672E+01    0.772479138935439114E+01   -0.116081404367554675E+01   -0.143041410446166992E+02
    0.829743296560147670E+01    0.479027413062727503E+00    0.288586080074310303E+00    0.933685107166754946E+01    0.814858761200401815E+01   -0.133907977913071674E+01   -0.143022899627685547E+02
    0.830175006927419012E+01    0.452392496118289189E+00    0.219896703958511353E+00    0.943540982241764503E+01    0.819055238548975950E+01   -0.131705198266713497E+01   -0.142624664306640625E+02
    0.823081684002721303E+01    0.414615998644194239E+00    0.837625488638877869E-01    0.950441156654146369E+01    0.811588984511357125E+01   -0.128281941336363481E+01   -0.141617498397827148E+02
    0.813523796145686795E+01    0.340234083782794350E+00    0.774801671504974365E-01    0.959795113794193888E+01    0.819678107307005810E+01   -0.894374807834226182E+00   -0.142503776550292969E+02
    0.819742801289935485E+01    0.367498696260122104E+00    0.715782791376113892E-01    0.959396734399436646E+01    0.821647562564968936E+01   -0.108109419667559647E+01   -0.141149616241455078E+02
    0.832910610507375715E+01    0.477069294132830835E+00    0.713628530502319336E-01    0.944231967862181421E+01    0.831483541697284068E+01   -0.140556596596213890E+01   -0.141007404327392578E+02
    0.827916395251707726E+01    0.452050111090987250E+00    0.272031813859939575E+00    0.933872537224005228E+01    0.785313380004576800E+01   -0.139500758449737883E+01   -0.142242994308471680E+02
    0.822865952329655137E+01    0.405246595674816412E+00    0.153289034962654114E+00    0.950830427528706856E+01    0.787780552672163648E+01   -0.126864441582514864E+01   -0.142310562133789062E+02
    0.829923177830836600E+01    0.461877057135352653E+00    0.239534080028533936E+00    0.935912855156273160E+01    0.799208288315801241E+01   -0.138079136403740543E+01   -0.138991565704345703E+02
    0.829538675512010215E+01    0.447377536753970906E+00    0.115200713276863098E+00    0.939987907883199370E+01    0.730890460876676062E+01   -0.139940570205133530E+01   -0.142762975692749023E+02
    0.814174422823748678E+01    0.345206118021065045E+00    0.145778998732566833E+00    0.956684169507415305E+01    0.767396262803642681E+01   -0.101901274751657533E+01   -0.142503128051757812E+02
    0.831334106178226584E+01    0.485940371016832073E+00    0.475126504898071289E+00    0.925903952587674262E+01    0.774920308563932636E+01   -0.140551509416335940E+01   -0.139945030212402344E+02
    0.828234001642827877E+01    0.427501873754201234E+00    0.678170144557952881E+00    0.932865769336373418E+01    0.768808878392190032E+01   -0.140311106557577481E+01   -0.142859277725219727E+02
    0.838947755303444076E+01    0.500360838922028983E+00    0.497801035642623901E+00    0.930618787232038081E+01    0.774699822078536204E+01   -0.163225257746628216E+01   -0.141737651824951172E+02
    0.824047494943469694E+01    0.411452187299764016E+00    0.490875959396362305E+00    0.936909050038848257E+01    0.770719875902210827E+01   -0.126643070034917105E+01   -0.140881881713867188E+02
    0.825244174777966855E+01    0.437511342946132198E+00    0.100547170639038086E+01    0.921974495463094712E+01    0.766711470626418556E+01   -0.150115361707186379E+01   -0.140148601531982422E+02
    0.822078396029010783E+01    0.381377681187433981E+00    0.730799496173858643E+00    0.942890171847706249E+01    0.772163206399256374E+01   -0.131386834291799692E+01   -0.142580862045288086E+02
    0.821624721041796136E+01    0.407324175438160629E+00    0.368643641471862793E+00    0.936643113041231601E+01    0.751498533315082362E+01   -0.116361364660699973E+01   -0.141661853790283203E+02
    0.832728099502189956E+01    0.475405279438379014E+00    0.577637076377868652E+00    0.926610123471576763E+01    0.747593287597493372E+01   -0.151821480751657800E+01   -0.140361719131469727E+02
    0.834045185913585030E+01    0.491261082369647939E+00    0.443302333354949951E+00    0.930073322261227986E+01    0.800932668936420988E+01   -0.150621670494416215E+01   -0.140113563537597656E+02
    0.833310281937600905E+01    0.462558281344999433E+00    0.918082177639007568E+00    0.925045808929192148E+01    0.741197067106687602E+01   -0.155253161388379102E+01   -0.142225637435913086E+02
    0.834271275681713398E+01    0.487627898450461505E+00    0.699604213237762451E+00    0.926023803465655071E+01    0.794739388290875759E+01   -0.159108578682825930E+01   -0.140461540222167969E+02
    0.833983024085010172E+01    0.508789075741543084E+00    0.498660653829574585E+00    0.929919933055913717E+01    0.827470017305754624E+01   -0.141711911799104717E+01   -0.142582416534423828E+02
    0.836955796754606318E+01    0.491531396411855670E+00    0.593662559986114502E+00    0.931609262978884800E+01    0.809386883304005522E+01   -0.158794598633521744E+01   -0.140937786102294922E+02
    0.831131205958765662E+01    0.479790195301137867E+00    0.737659275531768799E+00    0.928416111782195941E+01    0.818309747005152488E+01   -0.142147313258571995E+01   -0.141602210998535156E+02
    0.830111666729631104E+01    0.468279360808788792E+00    0.794447898864746094E+00    0.932518697922098738E+01    0.837546621622904475E+01   -0.143781223900221544E+01   -0.141856803894042969E+02
